<?xml version='1.0' encoding='utf-8'?>
<BIF VERSION="0.3">
  <NETWORK>
    <NAME>UNTITLED</NAME>
    <VARIABLE TYPE="nature">
      <NAME>bitrate</NAME>
      <OUTCOME>10920</OUTCOME>
      <OUTCOME>12600</OUTCOME>
      <OUTCOME>1680</OUTCOME>
      <OUTCOME>2520</OUTCOME>
      <OUTCOME>2640</OUTCOME>
      <OUTCOME>3360</OUTCOME>
      <OUTCOME>3600</OUTCOME>
      <OUTCOME>3960</OUTCOME>
      <OUTCOME>4200</OUTCOME>
      <OUTCOME>4320</OUTCOME>
      <OUTCOME>5040</OUTCOME>
      <OUTCOME>5280</OUTCOME>
      <OUTCOME>5400</OUTCOME>
      <OUTCOME>5880</OUTCOME>
      <OUTCOME>6480</OUTCOME>
      <OUTCOME>6600</OUTCOME>
      <OUTCOME>7560</OUTCOME>
      <OUTCOME>7920</OUTCOME>
      <OUTCOME>9240</OUTCOME>
      <OUTCOME>9360</OUTCOME>
      <PROPERTY>weight = None</PROPERTY>
    </VARIABLE>
    <VARIABLE TYPE="nature">
      <NAME>consumption</NAME>
      <OUTCOME>4</OUTCOME>
      <OUTCOME>5</OUTCOME>
      <OUTCOME>6</OUTCOME>
      <OUTCOME>7</OUTCOME>
      <OUTCOME>8</OUTCOME>
      <PROPERTY>weight = None</PROPERTY>
    </VARIABLE>
    <VARIABLE TYPE="nature">
      <NAME>cpu_utilization</NAME>
      <OUTCOME>High</OUTCOME>
      <OUTCOME>Low</OUTCOME>
      <OUTCOME>Mid</OUTCOME>
      <OUTCOME>Very_High</OUTCOME>
      <PROPERTY>weight = None</PROPERTY>
    </VARIABLE>
    <VARIABLE TYPE="nature">
      <NAME>distance</NAME>
      <OUTCOME>False</OUTCOME>
      <OUTCOME>True</OUTCOME>
      <PROPERTY>weight = None</PROPERTY>
    </VARIABLE>
    <VARIABLE TYPE="nature">
      <NAME>fps</NAME>
      <OUTCOME>14</OUTCOME>
      <OUTCOME>18</OUTCOME>
      <OUTCOME>22</OUTCOME>
      <OUTCOME>26</OUTCOME>
      <OUTCOME>30</OUTCOME>
      <PROPERTY>weight = None</PROPERTY>
    </VARIABLE>
    <VARIABLE TYPE="nature">
      <NAME>in_time</NAME>
      <OUTCOME>False</OUTCOME>
      <OUTCOME>True</OUTCOME>
      <PROPERTY>weight = None</PROPERTY>
    </VARIABLE>
    <VARIABLE TYPE="nature">
      <NAME>memory_usage</NAME>
      <OUTCOME>Low</OUTCOME>
      <OUTCOME>Mid</OUTCOME>
      <PROPERTY>weight = None</PROPERTY>
    </VARIABLE>
    <VARIABLE TYPE="nature">
      <NAME>network</NAME>
      <OUTCOME>True</OUTCOME>
      <PROPERTY>weight = None</PROPERTY>
    </VARIABLE>
    <VARIABLE TYPE="nature">
      <NAME>pixel</NAME>
      <OUTCOME>120</OUTCOME>
      <OUTCOME>180</OUTCOME>
      <OUTCOME>240</OUTCOME>
      <OUTCOME>300</OUTCOME>
      <OUTCOME>360</OUTCOME>
      <OUTCOME>420</OUTCOME>
      <PROPERTY>weight = None</PROPERTY>
    </VARIABLE>
    <VARIABLE TYPE="nature">
      <NAME>stream_count</NAME>
      <OUTCOME>1</OUTCOME>
      <OUTCOME>2</OUTCOME>
      <OUTCOME>3</OUTCOME>
      <OUTCOME>4</OUTCOME>
      <OUTCOME>5</OUTCOME>
      <OUTCOME>6</OUTCOME>
      <PROPERTY>weight = None</PROPERTY>
    </VARIABLE>
    <VARIABLE TYPE="nature">
      <NAME>success</NAME>
      <OUTCOME>False</OUTCOME>
      <OUTCOME>True</OUTCOME>
      <PROPERTY>weight = None</PROPERTY>
    </VARIABLE>
    <DEFINITION>
      <FOR>bitrate</FOR>
      <GIVEN>fps</GIVEN>
      <TABLE>0.0 0.0 0.005858849498714989 0.0055953558168973915 0.0 0.018158152874711574 0.0 0.0 0.06966348458956591 0.0 0.09823768246739704 0.0 0.0 0.8024864747527131 0.0 0.0 0.0 0.0 0.0 0.0 0.0 0.0 0.0 0.0 0.0 0.0 0.0 0.0 0.0 0.6204050346494699 0.0 0.0 0.1542060058994906 0.0 0.036914952240551135 0.0 0.1884740072104882 0.0 0.0 0.0 0.0 0.0 0.0 0.0 0.04344173367689373 0.0 0.0 0.3117741898447973 0.0 0.0 0.0 0.14765099426272327 0.0 0.0 0.0 0.12452292490167735 0.0 0.24730439683157618 0.12530576048233213 0.0 0.6360229247194956 0.0 0.0 0.0 0.0 0.0 0.0 0.0 0.0 0.0 0.0 0.0 0.0 0.0 0.0 0.0 0.0 0.0 0.0 0.3639770752805044 0.0 0.9228423765307221 0.0 0.0 0.0 0.0 0.07715762346927796 0.0 0.0 0.0 0.0 0.0 0.0 0.0 0.0 0.0 0.0 0.0 0.0 0.0 </TABLE>
    </DEFINITION>
    <DEFINITION>
      <FOR>consumption</FOR>
      <GIVEN>cpu_utilization</GIVEN>
      <GIVEN>in_time</GIVEN>
      <TABLE>0.0 0.0 0.13676425421239607 0.8632357457876039 0.0 0.0 0.0 0.39238450983344053 0.6076154901665595 0.0 0.011268156706181224 0.9887318432938188 0.0 0.0 0.0 0.0 1.0 0.0 0.0 0.0 0.0 0.40445094460999176 0.5955490553900084 0.0 0.0 0.0 0.8151566066572253 0.18484339334277472 0.0 0.0 0.0 0.0 0.0 0.6502710885922867 0.34972891140771334 0.0 0.0 0.0 0.7185112849468428 0.2814887150531572 </TABLE>
    </DEFINITION>
    <DEFINITION>
      <FOR>cpu_utilization</FOR>
      <GIVEN>bitrate</GIVEN>
      <TABLE>0.2098413012467468 0.00030402529490453604 0.022112747594046207 0.7677419258643025 0.33273443313557466 0.005419040377137021 0.09445490390623629 0.567391622581052 0.35575493209080966 0.0039902845246356684 0.07160206206007735 0.5686527213244773 0.21416420760284657 0.07197535150147541 0.09533935080715154 0.6185210900885264 0.29484456619384036 0.0011589605953397585 0.09200705357836007 0.6119894196324598 0.8064186582830862 0.002388025244506283 0.04810842087550297 0.14308489559690468 0.24622096164235638 0.15286736898973524 0.2528673689897352 0.34804430037817313 0.045942698330132405 0.31780395726632543 0.6345345944035422 0.0017187500000000028 0.06655844155844154 0.04870129870129892 0.1639610389610391 0.7207792207792204 0.16306733689444594 0.035366472764467256 0.11111111111111088 0.6904550792299758 0.12777108829242817 0.020903201182381967 0.5210864396414036 0.3302392708837863 0.27810930168006903 0.05833728264265946 0.42691380064856566 0.2366396150287059 0.09259259259259275 0.006172839506172841 0.09259259259259275 0.8086419753086417 0.3263210188915616 0.27840606695661796 0.2768230725476502 0.1184498416041701 0.2494848395643225 0.0 0.05555555555555545 0.6949596048801221 0.5594415175179666 0.0 0.06072594004159979 0.37983254244043363 0.5707070707070705 0.0 0.05555555555555546 0.3737373737373739 0.060500321063701276 6.34437254155564e-05 0.06824526190723358 0.8711909733036496 0.581600880273446 0.0 0.030560557109229825 0.38783856261732413 0.07576506180028485 0.000189416019134227 0.07809488250937481 0.8459506396712061 </TABLE>
    </DEFINITION>
    <DEFINITION>
      <FOR>distance</FOR>
      <GIVEN>fps</GIVEN>
      <TABLE>0.06073168421161534 0.9392683157883847 0.014329615930864487 0.9856703840691357 0.011714705106164887 0.9882852948938351 0.0 1.0 0.010921394716066795 0.9890786052839332 </TABLE>
    </DEFINITION>
    <DEFINITION>
      <FOR>fps</FOR>
      <TABLE>0.6874464784856625 0.06116621230079219 0.07561004264585974 0.05873012427102096 0.1170471422966646 </TABLE>
    </DEFINITION>
    <DEFINITION>
      <FOR>in_time</FOR>
      <GIVEN>cpu_utilization</GIVEN>
      <GIVEN>fps</GIVEN>
      <GIVEN>stream_count</GIVEN>
      <TABLE>0.22487731141133033 0.7751226885886696 0.1196753740986776 0.8803246259013224 0.9689588937729018 0.03104110622709821 0.9552238805970148 0.044776119402985336 1.0 0.0 1.0 0.0 0.6666666666666666 0.3333333333333333 1.0 0.0 1.0 0.0 1.0 0.0 1.0 0.0 1.0 0.0 1.0 0.0 1.0 0.0 1.0 0.0 0.5 0.5 1.0 0.0 1.0 0.0 0.500060944061115 0.49993905593888494 0.5 0.5 0.5 0.5 0.5 0.5 1.0 0.0 1.0 0.0 1.0 0.0 1.0 0.0 1.0 0.0 1.0 0.0 1.0 0.0 1.0 0.0 0.1674945804948306 0.8325054195051694 0.98 0.01999999999999996 1.0 0.0 1.0 0.0 1.0 0.0 0.5 0.5 1.0 0.0 0.5 0.5 1.0 0.0 0.5 0.5 1.0 0.0 0.5 0.5 1.0 0.0 1.0 0.0 1.0 0.0 0.5 0.5 0.5 0.5 0.5 0.5 0.5001523629304239 0.4998476370695763 0.5 0.5 0.5 0.5 0.5 0.5 0.5000965080859373 0.4999034919140626 0.5 0.5 1.0 0.0 0.5 0.5 0.50003163155564 0.49996836844436005 1.0 0.0 0.5 0.5 0.5 0.5 0.31926028652817967 0.6807397134718204 0.9394012130783344 0.06059878692166566 0.9844651787416416 0.015534821258358377 1.0 0.0 1.0 0.0 1.0 0.0 0.9387755102040812 0.061224489795918685 1.0 0.0 1.0 0.0 1.0 0.0 1.0 0.0 1.0 0.0 1.0 0.0 1.0 0.0 1.0 0.0 0.5 0.5 1.0 0.0 1.0 0.0 0.5013685264435862 0.49863147355641385 0.5 0.5 0.5 0.5 0.5 0.5 1.0 0.0 1.0 0.0 1.0 0.0 1.0 0.0 1.0 0.0 1.0 0.0 1.0 0.0 0.5 0.5 0.7521053762068431 0.24789462379315685 0.3894868752901713 0.6105131247098288 0.7298583580857253 0.27014164191427475 0.939516129032258 0.06048387096774204 0.9392857142857141 0.060714285714286 0.9998529195469923 0.0001470804530077941 0.5 0.5 1.0 0.0 1.0 0.0 1.0 0.0 1.0 0.0 1.0 0.0 0.5 0.5 1.0 0.0 1.0 0.0 0.5 0.5 1.0 0.0 1.0 0.0 0.5 0.5 0.5 0.5 0.5 0.5 0.5 0.5 1.0 0.0 1.0 0.0 0.5 0.5 1.0 0.0 1.0 0.0 1.0 0.0 1.0 0.0 1.0 0.0 </TABLE>
    </DEFINITION>
    <DEFINITION>
      <FOR>memory_usage</FOR>
      <GIVEN>fps</GIVEN>
      <GIVEN>stream_count</GIVEN>
      <TABLE>0.35162992068737975 0.6483700793126203 0.0 1.0 0.0 1.0 0.0 1.0 0.0 1.0 0.0 1.0 1.0 0.0 0.0 1.0 0.0 1.0 0.0 1.0 0.0 1.0 0.0 1.0 0.9934532472374813 0.006546752762518715 0.0 1.0 0.0 1.0 0.5 0.5 0.0 1.0 0.0 1.0 0.49841906846649636 0.5015809315335036 0.5 0.5 0.5 0.5 0.5 0.5 0.0 1.0 0.0 1.0 1.0 0.0 0.0 1.0 0.0 1.0 0.0 1.0 0.0 1.0 0.0 1.0 </TABLE>
    </DEFINITION>
    <DEFINITION>
      <FOR>network</FOR>
      <TABLE>1.0 </TABLE>
    </DEFINITION>
    <DEFINITION>
      <FOR>pixel</FOR>
      <GIVEN>bitrate</GIVEN>
      <TABLE>0.0 0.0 0.0 0.0 0.0 1.0 0.0 0.0 0.0 0.0 0.0 1.0 1.0 0.0 0.0 0.0 0.0 0.0 0.0 1.0 0.0 0.0 0.0 0.0 1.0 0.0 0.0 0.0 0.0 0.0 0.0 0.0 1.0 0.0 0.0 0.0 1.0 0.0 0.0 0.0 0.0 0.0 0.0 1.0 0.0 0.0 0.0 0.0 0.0 0.0 0.0 1.0 0.0 0.0 0.0 0.0 1.0 0.0 0.0 0.0 0.0 0.0 0.0 0.0 1.0 0.0 0.0 0.0 1.0 0.0 0.0 0.0 0.0 0.0 0.0 1.0 0.0 0.0 0.0 0.0 0.0 0.0 0.0 1.0 0.0 0.0 0.0 0.0 1.0 0.0 0.0 0.0 0.0 1.0 0.0 0.0 0.0 0.0 0.0 0.0 0.0 1.0 0.0 0.0 0.0 0.0 1.0 0.0 0.0 0.0 0.0 0.0 0.0 1.0 0.0 0.0 0.0 0.0 1.0 0.0 </TABLE>
    </DEFINITION>
    <DEFINITION>
      <FOR>stream_count</FOR>
      <GIVEN>bitrate</GIVEN>
      <GIVEN>cpu_utilization</GIVEN>
      <TABLE>0.00012188812222999584 0.0 0.0 0.0 0.9996581272653232 0.00021998461244669034 0.16692060488403998 0.166615879023192 0.166615879023192 0.166615879023192 0.166615879023192 0.166615879023192 0.0027370528871727582 0.0 0.0 0.0 0.9971898690357693 7.307807705780302e-05 0.0 0.0 0.0 0.0 0.9964957967860327 0.0035042032139673044 0.004830307832992629 0.09016574621586224 0.0033464837925216684 0.6424309417880193 0.16101026109975403 0.09821625927085009 0.0 0.0 6.326311127981278e-05 0.9999367368887203 0.0 0.0 0.3238022144908512 0.01704222181530798 0.00018965350193353905 0.6362429477714967 0.022722962420410647 0.0 0.0 0.0009464345009283745 0.029904636548416266 0.8981663413810274 0.043535987042705185 0.02744660052692277 0.0003481596231401693 0.0 0.0 0.0 0.9996518403768598 0.0 0.16999423933422173 0.16600115213315564 0.16600115213315564 0.16600115213315564 0.16600115213315564 0.16600115213315564 0.000521951667711941 0.0 0.0 0.0 0.9994780483322881 0.0 0.0 0.0 0.0 0.0 1.0 0.0 6.0801361950507695e-05 0.0 0.2222087108084557 0.7777304878295939 0.0 0.0 0.0006076810889645115 0.0 0.9993923189110355 0.0 0.0 0.0 0.00018238190771475475 0.0 0.749863213569214 0.24995440452307127 0.0 0.0 0.0 0.0 0.7692307692307688 0.23076923076923117 0.0 0.0 0.0001832957325710107 0.0 0.9998167042674289 0.0 0.0 0.0 0.16763346389564326 0.1664733072208714 0.1664733072208714 0.1664733072208714 0.1664733072208714 0.1664733072208714 0.0013434558499521613 0.0 0.9986565441500479 0.0 0.0 0.0 0.0 0.0 1.0 0.0 0.0 0.0 0.00035919840367937636 0.0 0.9995672390971231 0.0 0.0 7.356249919760961e-05 0.168657915750181 0.16626841684996385 0.16626841684996385 0.16626841684996385 0.16626841684996385 0.16626841684996385 0.00047835915645289787 0.0 0.9993010121243556 0.0 0.0 0.00022062871919142327 0.0001193638742251362 0.0 0.9991453216411993 0.0 0.0 0.0007353144845755051 0.1080751795364144 0.0 0.8916202311754173 0.0 0.0003045892881683003 0.0 1.0 0.0 0.0 0.0 0.0 0.0 0.8681566057411358 0.0 0.13153887965774808 0.0 0.00030451460111613005 0.0 0.0 0.0 0.9975678519840976 0.0 0.002432148015902449 0.0 0.9995828769859979 0.0 0.0 0.0 0.00041712301400208073 0.0 1.0 0.0 0.0 0.0 0.0 0.0 0.9998435299163169 0.0 0.0 0.0 0.00015647008368313589 0.0 0.16638006311118694 0.16638006311118694 0.16638006311118694 0.16638006311118694 0.16809968444406523 0.16638006311118694 0.0975609756097562 0.0 0.8780487804878048 0.02439024390243905 0.0 0.0 0.3666666666666667 0.0 0.6333333333333333 0.0 0.0 0.0 0.534653465346536 0.0 0.42574257425742446 0.019801980198019795 0.0 0.019801980198019795 0.0022522522522522587 0.0 0.9144144144144142 0.02477477477477482 0.0 0.05855855855855872 0.028299784282476335 0.0 0.23583153568730447 0.028299784282476335 0.6980613456344176 0.009507550113325276 0.08695652173913054 0.0 0.8695652173913042 0.0 0.04347826086956527 0.0 0.6802837243572653 0.0 0.1943667783877907 0.02776668262682716 0.027869330953659444 0.06971348367445748 0.0 0.0 0.7114225421534379 0.028992141216284177 0.1502416324836174 0.10934368414666053 0.229142297528153 0.0 0.23619234157282287 0.5346653608990241 0.0 0.0 0.9976133102842962 0.0 0.002386689715703617 0.0 0.0 0.0 0.9184730456096712 0.0 0.0635176789862175 0.018009275404111177 0.0 0.0 0.0 0.0 0.8007689899979022 0.1992310100020978 0.0 0.0 0.0697470407146552 0.8137154750043138 0.11643517460857564 0.0 0.00010230967245535469 0.0 0.4443599439099706 0.4443599439099706 0.11128011218005882 0.0 0.0 0.0 0.8934951257298973 0.030287970363725297 0.07591008214518441 0.0 0.00030682176119291093 0.0 0.0 0.08299579222547623 0.9151649784077021 0.0 0.0018392293668217448 0.0 0.0 0.0 0.6000000000000001 0.0 0.39999999999999997 0.0 0.0 0.0 0.0 0.0 1.0 0.0 0.0 0.0 0.13333333333333386 0.0 0.8666666666666661 0.0 0.0 0.0 0.1908396946564887 0.0 0.8091603053435114 0.0 0.11781728656078105 0.6838416255536076 0.11918440553509513 0.06156630849484593 0.01707300991873878 0.0005173639369314783 0.9364720529850986 0.05775267910445582 0.0 0.002310107164178234 0.003465160746267365 0.0 0.786357456811625 0.13493613664488074 0.009255648062328444 0.03268270987348977 0.036768048607676 0.0 0.040343366849802706 0.14610644249117793 0.042127177998734715 0.34575732639156237 0.40568859629943205 0.019977089969290245 0.0 0.0 0.0 0.0 0.9998524420835179 0.0001475579164822184 0.16666666666666666 0.16666666666666666 0.16666666666666666 0.16666666666666666 0.16666666666666666 0.16666666666666666 0.0 0.0 0.0 0.0 0.9998526377836724 0.00014736221632773378 0.0 0.0 0.0 0.0 0.9976444605851196 0.002355539414880463 0.0 0.0 0.9728728342070797 0.0 0.027127165792920273 0.0 0.16666666666666666 0.16666666666666666 0.16666666666666666 0.16666666666666666 0.16666666666666666 0.16666666666666666 0.0 0.0 0.3749035582901931 0.0 0.6250964417098069 0.0 0.0 0.0 0.2595055997235511 0.0 0.7404944002764489 0.0 0.0 0.14159292035398252 0.0 0.0 0.8230088495575218 0.03539823008849563 0.16666666666666666 0.16666666666666666 0.16666666666666666 0.16666666666666666 0.16666666666666666 0.16666666666666666 0.0 0.09090909090909077 0.0 0.0 0.2727272727272729 0.6363636363636364 0.0 0.013513513513513516 0.0 0.0 0.1621621621621621 0.8243243243243243 0.0 0.0 6.352836541515785e-05 0.0 0.8124483832031002 0.18748808843148468 0.16665607860576417 0.16665607860576417 0.16671960697117916 0.16665607860576417 0.16665607860576417 0.16665607860576417 0.0 0.0 0.000254258958789359 0.0 0.9442043109833658 0.05554143005784485 0.0 0.0 0.0024116348279611195 0.0 0.8240947364464666 0.1734936287255723 0.0 0.0 0.0 0.0 0.9999295526593871 7.044734061289162e-05 0.16666666666666666 0.16666666666666666 0.16666666666666666 0.16666666666666666 0.16666666666666666 0.16666666666666666 0.0 0.0 0.0 0.0 0.999648278523618 0.00035172147638205646 0.0 0.0 0.0 0.0 0.997330138111078 0.0026698618889221047 0.0 0.0 0.0 0.0 0.0019457903224880222 0.998054209677512 0.16663449730468757 0.16663449730468757 0.16663449730468757 0.16663449730468757 0.16682751347656213 0.16663449730468757 0.0 0.0 0.0 0.0 0.004548064450439675 0.9954519355495604 0.0 0.0 0.0 0.0 0.037136990727621055 0.9628630092723789 </TABLE>
    </DEFINITION>
    <DEFINITION>
      <FOR>success</FOR>
      <GIVEN>distance</GIVEN>
      <GIVEN>pixel</GIVEN>
      <TABLE>0.710638192355131 0.28936180764486896 6.079766536964977e-05 0.9999392023346304 0.0 1.0 0.0 1.0 0.0 1.0 0.15792592272554573 0.8420740772744543 0.9187061266240192 0.08129387337598079 0.07257383583214404 0.927426164167856 0.0012572841255311525 0.9987427158744688 0.01805863197028788 0.9819413680297121 0.004572495637273435 0.9954275043627265 0.007844254286585308 0.9921557457134147 </TABLE>
    </DEFINITION>
  </NETWORK>
</BIF>
