<?xml version='1.0' encoding='utf-8'?>
<BIF VERSION="0.3">
  <NETWORK>
    <NAME>UNTITLED</NAME>
    <VARIABLE TYPE="nature">
      <NAME>bitrate</NAME>
      <OUTCOME>10800</OUTCOME>
      <OUTCOME>10920</OUTCOME>
      <OUTCOME>12600</OUTCOME>
      <OUTCOME>2640</OUTCOME>
      <OUTCOME>3600</OUTCOME>
      <OUTCOME>3960</OUTCOME>
      <OUTCOME>4200</OUTCOME>
      <OUTCOME>5040</OUTCOME>
      <OUTCOME>5280</OUTCOME>
      <OUTCOME>5880</OUTCOME>
      <OUTCOME>6240</OUTCOME>
      <OUTCOME>6600</OUTCOME>
      <OUTCOME>7200</OUTCOME>
      <OUTCOME>7560</OUTCOME>
      <OUTCOME>7800</OUTCOME>
      <OUTCOME>9000</OUTCOME>
      <OUTCOME>9240</OUTCOME>
      <OUTCOME>9360</OUTCOME>
      <PROPERTY>weight = None</PROPERTY>
    </VARIABLE>
    <VARIABLE TYPE="nature">
      <NAME>consumption</NAME>
      <OUTCOME>18</OUTCOME>
      <OUTCOME>20</OUTCOME>
      <OUTCOME>21</OUTCOME>
      <OUTCOME>22</OUTCOME>
      <OUTCOME>23</OUTCOME>
      <OUTCOME>24</OUTCOME>
      <OUTCOME>25</OUTCOME>
      <PROPERTY>weight = None</PROPERTY>
    </VARIABLE>
    <VARIABLE TYPE="nature">
      <NAME>cpu_utilization</NAME>
      <OUTCOME>High</OUTCOME>
      <OUTCOME>Low</OUTCOME>
      <OUTCOME>Mid</OUTCOME>
      <OUTCOME>Very_High</OUTCOME>
      <PROPERTY>weight = None</PROPERTY>
    </VARIABLE>
    <VARIABLE TYPE="nature">
      <NAME>distance</NAME>
      <OUTCOME>False</OUTCOME>
      <OUTCOME>True</OUTCOME>
      <PROPERTY>weight = None</PROPERTY>
    </VARIABLE>
    <VARIABLE TYPE="nature">
      <NAME>fps</NAME>
      <OUTCOME>14</OUTCOME>
      <OUTCOME>18</OUTCOME>
      <OUTCOME>22</OUTCOME>
      <OUTCOME>26</OUTCOME>
      <OUTCOME>30</OUTCOME>
      <PROPERTY>weight = None</PROPERTY>
    </VARIABLE>
    <VARIABLE TYPE="nature">
      <NAME>in_time</NAME>
      <OUTCOME>False</OUTCOME>
      <OUTCOME>True</OUTCOME>
      <PROPERTY>weight = None</PROPERTY>
    </VARIABLE>
    <VARIABLE TYPE="nature">
      <NAME>memory_usage</NAME>
      <OUTCOME>High</OUTCOME>
      <PROPERTY>weight = None</PROPERTY>
    </VARIABLE>
    <VARIABLE TYPE="nature">
      <NAME>network</NAME>
      <OUTCOME>True</OUTCOME>
      <PROPERTY>weight = None</PROPERTY>
    </VARIABLE>
    <VARIABLE TYPE="nature">
      <NAME>pixel</NAME>
      <OUTCOME>120</OUTCOME>
      <OUTCOME>180</OUTCOME>
      <OUTCOME>240</OUTCOME>
      <OUTCOME>300</OUTCOME>
      <OUTCOME>360</OUTCOME>
      <OUTCOME>420</OUTCOME>
      <PROPERTY>weight = None</PROPERTY>
    </VARIABLE>
    <VARIABLE TYPE="nature">
      <NAME>stream_count</NAME>
      <OUTCOME>1</OUTCOME>
      <PROPERTY>weight = None</PROPERTY>
    </VARIABLE>
    <VARIABLE TYPE="nature">
      <NAME>success</NAME>
      <OUTCOME>False</OUTCOME>
      <OUTCOME>True</OUTCOME>
      <PROPERTY>weight = None</PROPERTY>
    </VARIABLE>
    <DEFINITION>
      <FOR>bitrate</FOR>
      <GIVEN>pixel</GIVEN>
      <TABLE>0.0 0.0 0.0 0.42307692307692335 0.5769230769230766 0.0 0.0 0.0 0.0 0.0 0.0 0.0 0.0 0.0 0.0 0.0 0.0 0.0 0.0 0.0 0.0 0.0 0.0 1.0 0.0 0.0 0.0 0.0 0.0 0.0 0.0 0.0 0.0 0.0 0.0 0.0 0.0 0.0 0.0 0.0 0.0 0.0 0.0 0.0 0.37078651685393277 0.0 0.2921348314606741 0.0 0.33707865168539314 0.0 0.0 0.0 0.0 0.0 0.0 0.0 0.0 0.0 0.0 0.0 0.15217391304347822 0.0 0.0 0.0 0.0 0.23913043478260876 0.0 0.0 0.2826086956521737 0.3260869565217392 0.0 0.0 0.03089706023783443 0.0 0.0 0.0 0.0 0.0 0.0 0.9333724335708217 0.0 0.0 0.0 0.0 0.0 0.0 0.0 0.0 0.0 0.035730506191343936 0.0 0.10236220472440943 0.11811023622047244 0.0 0.0 0.0 0.0 0.0 0.0 0.5511811023622049 0.0 0.0 0.0 0.14173228346456684 0.0 0.0 0.08661417322834644 0.0 </TABLE>
    </DEFINITION>
    <DEFINITION>
      <FOR>consumption</FOR>
      <GIVEN>cpu_utilization</GIVEN>
      <TABLE>0.0 0.0 0.0 0.0 0.3947907588747032 0.5630501468673791 0.04215909425791775 0.0015088655845705652 0.0015088655845705652 0.0467056623520754 0.9502766064787835 0.0 0.0 0.0 0.0 0.0 0.0 0.7292514812173848 0.27074851878261524 0.0 0.0 0.0 0.0 0.0 0.0 0.0 0.0 1.0 </TABLE>
    </DEFINITION>
    <DEFINITION>
      <FOR>cpu_utilization</FOR>
      <GIVEN>bitrate</GIVEN>
      <TABLE>0.21666666666666676 0.11666666666666672 0.6499999999999998 0.016666666666666666 0.17307692307692316 0.07692307692307696 0.7307692307692306 0.01923076923076924 0.0 0.3833333333333333 0.6166666666666668 0.0 0.22727272727272727 0.0 0.6590909090909091 0.11363636363636363 0.43333333333333335 0.10000000000000002 0.4499999999999999 0.016666666666666666 0.0 0.5681818181818181 0.4318181818181817 0.0 0.14285714285714277 0.2500000000000003 0.5357142857142856 0.07142857142857138 0.09554395920655653 0.2973068030743388 0.5927876783510315 0.014361559368072943 0.04545454545454545 0.1363636363636364 0.7878787878787877 0.03030303030303029 0.08928571428571432 0.23928571428571435 0.6499999999999999 0.021428571428571432 0.11538461538461542 0.23076923076923084 0.6346153846153845 0.01923076923076924 0.15909090909090895 0.022727272727272728 0.3181818181818179 0.5000000000000004 0.0 0.29999999999999993 0.7 0.0 0.18055555555555555 0.2638888888888889 0.47222222222222227 0.08333333333333331 0.0 0.2884615384615386 0.7115384615384613 0.0 0.016666666666666677 0.3833333333333333 0.6 0.0 0.0 0.27272727272727254 0.7272727272727275 0.0 0.2988390193280581 0.008853288364249574 0.6923076923076923 0.0 </TABLE>
    </DEFINITION>
    <DEFINITION>
      <FOR>distance</FOR>
      <TABLE>0.00028643307805490217 0.9997135669219451 </TABLE>
    </DEFINITION>
    <DEFINITION>
      <FOR>fps</FOR>
      <GIVEN>bitrate</GIVEN>
      <TABLE>0.0 0.0 0.0 0.0 1.0 0.0 0.0 0.0 1.0 0.0 0.0 0.0 0.0 0.0 1.0 0.0 0.0 1.0 0.0 0.0 0.0 0.0 0.0 0.0 1.0 0.0 0.0 1.0 0.0 0.0 1.0 0.0 0.0 0.0 0.0 1.0 0.0 0.0 0.0 0.0 0.0 0.0 1.0 0.0 0.0 1.0 0.0 0.0 0.0 0.0 0.0 0.0 0.0 1.0 0.0 0.0 0.0 1.0 0.0 0.0 0.0 0.0 0.0 0.0 1.0 0.0 1.0 0.0 0.0 0.0 0.0 0.0 0.0 1.0 0.0 0.0 0.0 0.0 0.0 1.0 0.0 0.0 1.0 0.0 0.0 0.0 0.0 0.0 1.0 0.0 </TABLE>
    </DEFINITION>
    <DEFINITION>
      <FOR>in_time</FOR>
      <GIVEN>cpu_utilization</GIVEN>
      <GIVEN>fps</GIVEN>
      <TABLE>0.13507801393256402 0.864921986067436 0.2307692307692307 0.7692307692307693 0.29999999999999993 0.7 0.21841343150801615 0.7815865684919838 0.7 0.29999999999999993 0.01504216686368266 0.9849578331363174 0.0 1.0 0.0 1.0 0.03196544276457885 0.9680345572354212 0.0 1.0 0.0656052413540346 0.9343947586459654 0.08823529411764705 0.9117647058823529 0.16438356164383564 0.8356164383561644 0.10335712933668638 0.8966428706633136 0.10497237569060774 0.8950276243093922 0.16548005887956618 0.8345199411204338 0.5 0.5 0.9310344827586207 0.06896551724137932 0.5 0.5 1.0 0.0 </TABLE>
    </DEFINITION>
    <DEFINITION>
      <FOR>memory_usage</FOR>
      <TABLE>1.0 </TABLE>
    </DEFINITION>
    <DEFINITION>
      <FOR>network</FOR>
      <TABLE>1.0 </TABLE>
    </DEFINITION>
    <DEFINITION>
      <FOR>pixel</FOR>
      <TABLE>0.029789040117709803 0.012603055434415684 0.050985087893772554 0.052703686362102 0.7084111265401096 0.14550800365189023 </TABLE>
    </DEFINITION>
    <DEFINITION>
      <FOR>stream_count</FOR>
      <TABLE>1.0 </TABLE>
    </DEFINITION>
    <DEFINITION>
      <FOR>success</FOR>
      <GIVEN>pixel</GIVEN>
      <TABLE>0.9134615384615384 0.08653846153846155 0.0681818181818182 0.9318181818181818 0.0 1.0 0.016304347826086963 0.9836956521739131 0.0015448530118917217 0.9984551469881083 0.001968503937007874 0.998031496062992 </TABLE>
    </DEFINITION>
  </NETWORK>
</BIF>
