<?xml version='1.0' encoding='utf-8'?>
<BIF VERSION="0.3">
  <NETWORK>
    <NAME>UNTITLED</NAME>
    <VARIABLE TYPE="nature">
      <NAME>bitrate</NAME>
      <OUTCOME>1680</OUTCOME>
      <OUTCOME>3600</OUTCOME>
      <OUTCOME>5400</OUTCOME>
      <OUTCOME>5880</OUTCOME>
      <OUTCOME>6600</OUTCOME>
      <OUTCOME>9240</OUTCOME>
      <OUTCOME>9360</OUTCOME>
      <OUTCOME>12600</OUTCOME>
      <PROPERTY>weight = None</PROPERTY>
    </VARIABLE>
    <VARIABLE TYPE="nature">
      <NAME>consumption</NAME>
      <OUTCOME>100</OUTCOME>
      <PROPERTY>weight = None</PROPERTY>
    </VARIABLE>
    <VARIABLE TYPE="nature">
      <NAME>cpu_utilization</NAME>
      <OUTCOME>High</OUTCOME>
      <OUTCOME>Low</OUTCOME>
      <OUTCOME>Mid</OUTCOME>
      <PROPERTY>weight = None</PROPERTY>
    </VARIABLE>
    <VARIABLE TYPE="nature">
      <NAME>distance</NAME>
      <OUTCOME>False</OUTCOME>
      <OUTCOME>True</OUTCOME>
      <PROPERTY>weight = None</PROPERTY>
    </VARIABLE>
    <VARIABLE TYPE="nature">
      <NAME>fps</NAME>
      <OUTCOME>14</OUTCOME>
      <OUTCOME>22</OUTCOME>
      <OUTCOME>26</OUTCOME>
      <OUTCOME>30</OUTCOME>
      <PROPERTY>weight = None</PROPERTY>
    </VARIABLE>
    <VARIABLE TYPE="nature">
      <NAME>in_time</NAME>
      <OUTCOME>False</OUTCOME>
      <OUTCOME>True</OUTCOME>
      <PROPERTY>weight = None</PROPERTY>
    </VARIABLE>
    <VARIABLE TYPE="nature">
      <NAME>memory_usage</NAME>
      <OUTCOME>Mid</OUTCOME>
      <PROPERTY>weight = None</PROPERTY>
    </VARIABLE>
    <VARIABLE TYPE="nature">
      <NAME>pixel</NAME>
      <OUTCOME>120</OUTCOME>
      <OUTCOME>180</OUTCOME>
      <OUTCOME>300</OUTCOME>
      <OUTCOME>360</OUTCOME>
      <OUTCOME>420</OUTCOME>
      <PROPERTY>weight = None</PROPERTY>
    </VARIABLE>
    <VARIABLE TYPE="nature">
      <NAME>stream_count</NAME>
      <OUTCOME>1</OUTCOME>
      <PROPERTY>weight = None</PROPERTY>
    </VARIABLE>
    <VARIABLE TYPE="nature">
      <NAME>success</NAME>
      <OUTCOME>False</OUTCOME>
      <OUTCOME>True</OUTCOME>
      <PROPERTY>weight = None</PROPERTY>
    </VARIABLE>
    <DEFINITION>
      <FOR>bitrate</FOR>
      <GIVEN>pixel</GIVEN>
      <TABLE>0.5833333333333334 0.4166666666666667 0.0 0.0 0.0 0.0 0.0 0.0 0.0 0.0 1.0 0.0 0.0 0.0 0.0 0.0 0.0 0.0 0.0 0.0 1.0 0.0 0.0 0.0 0.0 0.0 0.0 0.0 0.0 0.0 1.0 0.0 0.0 0.0 0.0 0.1590909090909091 0.0 0.5 0.0 0.3409090909090909 </TABLE>
    </DEFINITION>
    <DEFINITION>
      <FOR>consumption</FOR>
      <TABLE>1.0 </TABLE>
    </DEFINITION>
    <DEFINITION>
      <FOR>cpu_utilization</FOR>
      <GIVEN>bitrate</GIVEN>
      <TABLE>0.047619047619047616 0.5476190476190477 0.40476190476190477 0.9333333333333333 0.03333333333333333 0.03333333333333333 0.6666666666666666 0.15 0.18333333333333332 0.14285714285714285 0.0 0.8571428571428571 0.9545454545454546 0.0 0.045454545454545456 0.5681818181818182 0.13636363636363635 0.29545454545454547 0.9230769230769231 0.07692307692307693 0.0 0.9666666666666667 0.03333333333333333 0.0 </TABLE>
    </DEFINITION>
    <DEFINITION>
      <FOR>distance</FOR>
      <GIVEN>bitrate</GIVEN>
      <TABLE>0.023809523809523808 0.9761904761904762 1.0 0.0 0.0 1.0 0.0 1.0 0.045454545454545456 0.9545454545454546 0.0 1.0 0.0 1.0 0.0 1.0 </TABLE>
    </DEFINITION>
    <DEFINITION>
      <FOR>fps</FOR>
      <GIVEN>bitrate</GIVEN>
      <TABLE>1.0 0.0 0.0 0.0 0.0 0.0 0.0 1.0 0.0 0.0 0.0 1.0 1.0 0.0 0.0 0.0 0.0 1.0 0.0 0.0 0.0 1.0 0.0 0.0 0.0 0.0 1.0 0.0 0.0 0.0 0.0 1.0 </TABLE>
    </DEFINITION>
    <DEFINITION>
      <FOR>in_time</FOR>
      <GIVEN>cpu_utilization</GIVEN>
      <GIVEN>pixel</GIVEN>
      <TABLE>0.0 1.0 0.075 0.925 0.0 1.0 0.0 1.0 0.08928571428571429 0.9107142857142857 0.041666666666666664 0.9583333333333334 0.7777777777777778 0.2222222222222222 0.5 0.5 0.5 0.5 0.8571428571428571 0.14285714285714285 0.0 1.0 0.9090909090909091 0.09090909090909091 1.0 0.0 0.5 0.5 0.48 0.52 </TABLE>
    </DEFINITION>
    <DEFINITION>
      <FOR>memory_usage</FOR>
      <TABLE>1.0 </TABLE>
    </DEFINITION>
    <DEFINITION>
      <FOR>pixel</FOR>
      <TABLE>0.26865671641791045 0.22388059701492538 0.08208955223880597 0.09701492537313433 0.3283582089552239 </TABLE>
    </DEFINITION>
    <DEFINITION>
      <FOR>stream_count</FOR>
      <TABLE>1.0 </TABLE>
    </DEFINITION>
    <DEFINITION>
      <FOR>success</FOR>
      <GIVEN>pixel</GIVEN>
      <TABLE>0.9722222222222222 0.027777777777777776 0.016666666666666666 0.9833333333333333 0.09090909090909091 0.9090909090909091 0.07692307692307693 0.9230769230769231 0.0 1.0 </TABLE>
    </DEFINITION>
  </NETWORK>
</BIF>
