<?xml version='1.0' encoding='utf-8'?>
<BIF VERSION="0.3">
  <NETWORK>
    <NAME>UNTITLED</NAME>
    <VARIABLE TYPE="nature">
      <NAME>bitrate</NAME>
      <OUTCOME>10920</OUTCOME>
      <OUTCOME>12600</OUTCOME>
      <OUTCOME>1680</OUTCOME>
      <OUTCOME>3600</OUTCOME>
      <OUTCOME>5040</OUTCOME>
      <OUTCOME>5280</OUTCOME>
      <OUTCOME>5400</OUTCOME>
      <OUTCOME>5880</OUTCOME>
      <OUTCOME>6480</OUTCOME>
      <OUTCOME>6600</OUTCOME>
      <OUTCOME>7560</OUTCOME>
      <OUTCOME>7920</OUTCOME>
      <OUTCOME>9240</OUTCOME>
      <OUTCOME>9360</OUTCOME>
      <PROPERTY>weight = None</PROPERTY>
    </VARIABLE>
    <VARIABLE TYPE="nature">
      <NAME>consumption</NAME>
      <OUTCOME>100</OUTCOME>
      <OUTCOME>6_6</OUTCOME>
      <OUTCOME>6_7</OUTCOME>
      <OUTCOME>6_8</OUTCOME>
      <OUTCOME>6_9</OUTCOME>
      <OUTCOME>7_0</OUTCOME>
      <OUTCOME>7_1</OUTCOME>
      <OUTCOME>7_2</OUTCOME>
      <OUTCOME>7_3</OUTCOME>
      <OUTCOME>7_4</OUTCOME>
      <PROPERTY>weight = None</PROPERTY>
    </VARIABLE>
    <VARIABLE TYPE="nature">
      <NAME>cpu_utilization</NAME>
      <OUTCOME>High</OUTCOME>
      <OUTCOME>Low</OUTCOME>
      <OUTCOME>Mid</OUTCOME>
      <OUTCOME>Very_High</OUTCOME>
      <PROPERTY>weight = None</PROPERTY>
    </VARIABLE>
    <VARIABLE TYPE="nature">
      <NAME>distance</NAME>
      <OUTCOME>False</OUTCOME>
      <OUTCOME>True</OUTCOME>
      <PROPERTY>weight = None</PROPERTY>
    </VARIABLE>
    <VARIABLE TYPE="nature">
      <NAME>fps</NAME>
      <OUTCOME>14</OUTCOME>
      <OUTCOME>18</OUTCOME>
      <OUTCOME>22</OUTCOME>
      <OUTCOME>26</OUTCOME>
      <OUTCOME>30</OUTCOME>
      <PROPERTY>weight = None</PROPERTY>
    </VARIABLE>
    <VARIABLE TYPE="nature">
      <NAME>in_time</NAME>
      <OUTCOME>False</OUTCOME>
      <OUTCOME>True</OUTCOME>
      <PROPERTY>weight = None</PROPERTY>
    </VARIABLE>
    <VARIABLE TYPE="nature">
      <NAME>memory_usage</NAME>
      <OUTCOME>Low</OUTCOME>
      <PROPERTY>weight = None</PROPERTY>
    </VARIABLE>
    <VARIABLE TYPE="nature">
      <NAME>pixel</NAME>
      <OUTCOME>120</OUTCOME>
      <OUTCOME>240</OUTCOME>
      <OUTCOME>300</OUTCOME>
      <OUTCOME>360</OUTCOME>
      <OUTCOME>420</OUTCOME>
      <PROPERTY>weight = None</PROPERTY>
    </VARIABLE>
    <VARIABLE TYPE="nature">
      <NAME>stream_count</NAME>
      <OUTCOME>1</OUTCOME>
      <OUTCOME>10</OUTCOME>
      <OUTCOME>2</OUTCOME>
      <OUTCOME>3</OUTCOME>
      <OUTCOME>4</OUTCOME>
      <OUTCOME>5</OUTCOME>
      <OUTCOME>6</OUTCOME>
      <OUTCOME>7</OUTCOME>
      <OUTCOME>8</OUTCOME>
      <OUTCOME>9</OUTCOME>
      <PROPERTY>weight = None</PROPERTY>
    </VARIABLE>
    <VARIABLE TYPE="nature">
      <NAME>success</NAME>
      <OUTCOME>False</OUTCOME>
      <OUTCOME>True</OUTCOME>
      <PROPERTY>weight = None</PROPERTY>
    </VARIABLE>
    <DEFINITION>
      <FOR>bitrate</FOR>
      <GIVEN>consumption</GIVEN>
      <GIVEN>fps</GIVEN>
      <TABLE>0.0 0.0 0.03508771929824562 0.0 0.15789473684210528 0.0 0.0 0.8070175438596492 0.0 0.0 0.0 0.0 0.0 0.0 0.0 0.0 0.0 0.0 0.0 0.0 0.5 0.0 0.5 0.0 0.0 0.0 0.0 0.0 0.0 0.0 0.0 0.0 0.0 0.11111111111111112 0.0 0.0 0.0 0.0 0.0 0.888888888888889 0.0 0.0 0.07142857142857141 0.07142857142857141 0.07142857142857141 0.07142857142857141 0.07142857142857141 0.07142857142857141 0.07142857142857141 0.07142857142857141 0.07142857142857141 0.07142857142857141 0.07142857142857141 0.07142857142857141 0.07142857142857141 0.07142857142857141 0.0 1.0 0.0 0.0 0.0 0.0 0.0 0.0 0.0 0.0 0.0 0.0 0.0 0.0 0.0 0.0 1.0 0.0 0.0 0.0 0.0 0.0 0.0 0.0 0.0 0.0 0.0 0.0 0.07142857142857141 0.07142857142857141 0.07142857142857141 0.07142857142857141 0.07142857142857141 0.07142857142857141 0.07142857142857141 0.07142857142857141 0.07142857142857141 0.07142857142857141 0.07142857142857141 0.07142857142857141 0.07142857142857141 0.07142857142857141 0.07142857142857141 0.07142857142857141 0.07142857142857141 0.07142857142857141 0.07142857142857141 0.07142857142857141 0.07142857142857141 0.07142857142857141 0.07142857142857141 0.07142857142857141 0.07142857142857141 0.07142857142857141 0.07142857142857141 0.07142857142857141 0.07142857142857141 0.07142857142857141 0.07142857142857141 0.07142857142857141 0.07142857142857141 0.07142857142857141 0.07142857142857141 0.07142857142857141 0.07142857142857141 0.07142857142857141 0.07142857142857141 0.07142857142857141 0.07142857142857141 0.07142857142857141 0.07142857142857141 0.07142857142857141 0.07142857142857141 0.07142857142857141 0.07142857142857141 0.07142857142857141 0.07142857142857141 0.07142857142857141 0.07142857142857141 0.07142857142857141 0.07142857142857141 0.07142857142857141 0.07142857142857141 0.07142857142857141 0.0 0.0 0.0 0.0 0.0 0.0 0.0 1.0 0.0 0.0 0.0 0.0 0.0 0.0 0.07142857142857141 0.07142857142857141 0.07142857142857141 0.07142857142857141 0.07142857142857141 0.07142857142857141 0.07142857142857141 0.07142857142857141 0.07142857142857141 0.07142857142857141 0.07142857142857141 0.07142857142857141 0.07142857142857141 0.07142857142857141 0.0 0.0 0.0 0.0 0.0 0.5 0.0 0.0 0.0 0.5 0.0 0.0 0.0 0.0 1.0 0.0 0.0 0.0 0.0 0.0 0.0 0.0 0.0 0.0 0.0 0.0 0.0 0.0 0.07142857142857141 0.07142857142857141 0.07142857142857141 0.07142857142857141 0.07142857142857141 0.07142857142857141 0.07142857142857141 0.07142857142857141 0.07142857142857141 0.07142857142857141 0.07142857142857141 0.07142857142857141 0.07142857142857141 0.07142857142857141 0.0 0.0 0.0 0.0 0.5515451270304133 0.0 0.0 0.4484548729695868 0.0 0.0 0.0 0.0 0.0 0.0 0.0 0.0 0.0 0.0 0.0 0.0 0.0 0.0 0.6666666666666666 0.0 0.3333333333333333 0.0 0.0 0.0 0.0 0.0 0.0 0.0 0.0 0.39999999999999997 0.0 0.0 0.0 0.19999999999999998 0.0 0.39999999999999997 0.0 0.0 0.9714285714285714 0.0 0.0 0.0 0.0 0.0 0.0 0.0 0.0 0.0 0.0 0.0 0.0 0.028571428571428574 0.0 0.5 0.0 0.5 0.0 0.0 0.0 0.0 0.0 0.0 0.0 0.0 0.0 0.0 0.0 0.0 0.0 0.0 0.6601398520858318 0.0 0.0 0.33986014791416813 0.0 0.0 0.0 0.0 0.0 0.0 0.0 0.0 0.0 0.0 0.0 0.0 0.0 0.0 0.5 0.0 0.5 0.0 0.0 0.0 0.0 0.0 0.0 0.0 0.0 0.16666666666666666 0.0 0.0 0.0 0.16666666666666666 0.0 0.3333333333333333 0.3333333333333333 0.0 0.9803921568627451 0.0 0.0 0.0 0.0 0.0 0.0 0.0 0.0 0.0 0.0 0.0 0.0 0.019607843137254898 0.0 0.75 0.0 0.25 0.0 0.0 0.0 0.0 0.0 0.0 0.0 0.0 0.0 0.0 0.0 0.0 0.04436422783542658 0.0 0.6167038065305865 0.0 0.0 0.338931965633987 0.0 0.0 0.0 0.0 0.0 0.0 0.0 0.0 0.0 0.0 0.0 0.0 0.0 0.0 0.5 0.0 0.5 0.0 0.0 0.0 0.0 0.0 0.0 0.0 0.0 0.375 0.0 0.0 0.0 0.0 0.0 0.25 0.375 0.0 1.0 0.0 0.0 0.0 0.0 0.0 0.0 0.0 0.0 0.0 0.0 0.0 0.0 0.0 0.0 0.6666666666666666 0.0 0.3333333333333333 0.0 0.0 0.0 0.0 0.0 0.0 0.0 0.0 0.0 0.0 0.0 0.0 0.009554436568251055 0.0 0.5505457956225462 0.0 0.0 0.43989976780920276 0.0 0.0 0.0 0.0 0.0 0.0 0.0 0.0 0.0 0.0 0.0 0.0 0.0 0.0 0.5 0.0 0.5 0.0 0.0 0.0 0.0 0.0 0.0 0.0 0.0 0.1682242990654206 0.0 0.0 0.0 0.2990654205607477 0.0 0.2803738317757009 0.2523364485981308 0.0 0.9598214285714285 0.0 0.0 0.0 0.0 0.0 0.0 0.0 0.0 0.0 0.0 0.0 0.0 0.040178571428571425 0.0 0.4155844155844156 0.0 0.5844155844155844 0.0 0.0 0.0 0.0 0.0 0.0 0.0 0.0 0.0 0.0 0.0 0.0 0.010163694203804054 0.0 0.5190788550727037 0.0 0.0 0.4707574507234923 0.0 0.0 0.0 0.0 0.0 0.0 0.0 0.0 0.0 0.0 0.0 0.0 0.0 0.0 0.4 0.0 0.6 0.0 0.0 0.0 0.0 0.0 0.0 0.0 0.0 0.639344262295082 0.0 0.0 0.0 0.08196721311475412 0.0 0.1311475409836066 0.14754098360655735 0.0 0.978494623655914 0.0 0.0 0.0 0.0 0.0 0.0 0.0 0.0 0.0 0.0 0.0 0.0 0.02150537634408602 0.0 0.6470588235294116 0.0 0.35294117647058837 0.0 0.0 0.0 0.0 0.0 0.0 0.0 0.0 0.0 0.0 0.0 0.0 0.0 0.0 0.624143485082342 0.0 0.0 0.375856514917658 0.0 0.0 0.0 0.0 0.0 0.0 0.0 0.0 0.0 0.0 0.0 0.0 0.0 0.0 0.5 0.0 0.5 0.0 0.0 0.0 0.0 0.0 0.0 0.0 0.0 0.25 0.0 0.0 0.0 0.375 0.0 0.0 0.375 0.0 0.9941520467836258 0.0 0.0 0.0 0.0 0.0 0.0 0.0 0.0 0.0 0.0 0.0 0.0 0.0058479532163742695 0.07142857142857141 0.07142857142857141 0.07142857142857141 0.07142857142857141 0.07142857142857141 0.07142857142857141 0.07142857142857141 0.07142857142857141 0.07142857142857141 0.07142857142857141 0.07142857142857141 0.07142857142857141 0.07142857142857141 0.07142857142857141 0.0 0.0 0.0 0.0 0.7995565788213783 0.0 0.0 0.20044342117862168 0.0 0.0 0.0 0.0 0.0 0.0 0.0 0.0 0.0 0.0 0.0 0.0 0.0 0.0 0.5 0.0 0.5 0.0 0.0 0.0 0.0 0.0 0.0 0.0 0.0 0.0 0.0 0.0 0.0 1.0 0.0 0.0 0.0 0.0 0.9767441860465117 0.0 0.0 0.0 0.0 0.0 0.0 0.0 0.0 0.0 0.0 0.0 0.0 0.023255813953488375 0.07142857142857141 0.07142857142857141 0.07142857142857141 0.07142857142857141 0.07142857142857141 0.07142857142857141 0.07142857142857141 0.07142857142857141 0.07142857142857141 0.07142857142857141 0.07142857142857141 0.07142857142857141 0.07142857142857141 0.07142857142857141 </TABLE>
    </DEFINITION>
    <DEFINITION>
      <FOR>consumption</FOR>
      <GIVEN>cpu_utilization</GIVEN>
      <TABLE>0.3193262086150563 0.0 0.0 0.0 0.0 0.0 0.3996855937051736 0.26353460566163217 0.017453592018138044 0.0 0.4361130627634558 0.002550368788090385 0.028196477996313186 0.18958015578035706 0.34355993467178364 0.0 0.0 0.0 0.0 0.0 0.3083078555465664 0.0 0.0 0.0 0.022132561203871474 0.5132179416310486 0.15634164161851347 0.0 0.0 0.0 0.5610870282545554 0.0 0.0 0.0 0.0 0.0 0.0 0.0 0.3360108611014228 0.10290211064402183 </TABLE>
    </DEFINITION>
    <DEFINITION>
      <FOR>cpu_utilization</FOR>
      <TABLE>0.5665050716878018 0.08075419652927052 0.24498457037536928 0.10775616140755838 </TABLE>
    </DEFINITION>
    <DEFINITION>
      <FOR>distance</FOR>
      <GIVEN>bitrate</GIVEN>
      <TABLE>0.0 1.0 0.0 1.0 0.8392857142857143 0.16071428571428573 0.03333333333333334 0.9666666666666666 0.030870489192335628 0.9691295108076644 0.015151515151515154 0.9848484848484849 0.0 1.0 0.02491400943841778 0.9750859905615822 0.011111111111111113 0.9888888888888888 0.02272727272727273 0.9772727272727273 0.0 1.0 0.005244755244755246 0.9947552447552448 0.0 1.0 0.0 1.0 </TABLE>
    </DEFINITION>
    <DEFINITION>
      <FOR>fps</FOR>
      <GIVEN>consumption</GIVEN>
      <GIVEN>cpu_utilization</GIVEN>
      <TABLE>0.4032258064516129 0.05698924731182797 0.3204301075268817 0.0 0.21935483870967748 0.6842105263157895 0.035087719298245605 0.22807017543859653 0.0 0.05263157894736841 0.34254143646408824 0.008287292817679556 0.6077348066298343 0.0 0.041436464088397774 0.5928338762214983 0.14983713355048867 0.1205211726384365 0.0 0.13680781758957655 0.2 0.2 0.2 0.2 0.2 1.0 0.0 0.0 0.0 0.0 0.2 0.2 0.2 0.2 0.2 0.2 0.2 0.2 0.2 0.2 0.2 0.2 0.2 0.2 0.2 0.18193508163503877 0.0 0.18179220408110247 0.6362727142838588 0.0 0.2 0.2 0.2 0.2 0.2 0.2 0.2 0.2 0.2 0.2 0.2 0.2 0.2 0.2 0.2 0.3924120271322597 0.040505864857849336 0.06750977476308223 0.47256842334157584 0.027003909905232888 0.2 0.2 0.2 0.2 0.2 0.2 0.2 0.2 0.2 0.2 0.2 0.2 0.2 0.2 0.2 0.580784269396184 0.014971990378707717 0.03742997594676929 0.33686978352092356 0.029943980757415434 0.7202385970338525 0.0 0.03996591470944963 0.23979548825669783 0.0 0.2 0.2 0.2 0.2 0.2 0.2 0.2 0.2 0.2 0.2 0.2 0.2 0.2 0.2 0.2 0.9155285248830626 0.010136577014032495 0.013515436018709996 0.05575117357717871 0.005068288507016247 0.2 0.2 0.2 0.2 0.2 0.07312387741585222 0.04052388628972551 0.0870832450055803 0.7380520566809587 0.061216934607883244 0.2 0.2 0.2 0.2 0.2 0.7050730549447676 0.0055646593406647625 0.03338795604398857 0.22258637362659042 0.03338795604398857 0.2 0.2 0.2 0.2 0.2 0.13307452772737974 0.006587579576539667 0.08036847083378396 0.7351738807418269 0.04479554112046976 0.2 0.2 0.2 0.2 0.2 0.2 0.2 0.2 0.2 0.2 0.2 0.2 0.2 0.2 0.2 0.2802063482756614 0.0 0.019994268103453856 0.6997993836208849 0.0 0.2 0.2 0.2 0.2 0.2 0.2 0.2 0.2 0.2 0.2 0.18705636506027556 0.032735985299586226 0.03819198284951725 0.742015666790621 0.0 0.2 0.2 0.2 0.2 0.2 0.2 0.2 0.2 0.2 0.2 0.2 0.2 0.2 0.2 0.2 0.17902672710304895 0.03569449012595438 0.01784724506297719 0.7674315377080195 0.0 </TABLE>
    </DEFINITION>
    <DEFINITION>
      <FOR>in_time</FOR>
      <GIVEN>consumption</GIVEN>
      <GIVEN>fps</GIVEN>
      <TABLE>0.04260651629072681 0.9573934837092731 0.0925925925925926 0.9074074074074074 0.06565656565656566 0.9343434343434344 0.5 0.5 0.2629629629629631 0.7370370370370368 0.0 1.0 0.5 0.5 0.5 0.5 0.5 0.5 0.5 0.5 0.4999285612230318 0.5000714387769681 0.5 0.5 1.0 0.0 0.4285714285714286 0.5714285714285713 0.5 0.5 0.41400760886122245 0.5859923911387775 0.6666666666666666 0.3333333333333333 0.8 0.2 0.7714285714285715 0.22857142857142854 0.5 0.5 0.4003065569565414 0.5996934430434585 0.5 0.5 0.6666666666666666 0.3333333333333333 0.7843137254901961 0.2156862745098039 0.5 0.5 0.023170292058461793 0.9768297079415382 0.5 0.5 0.375 0.625 0.6666666666666666 0.3333333333333333 0.6666666666666666 0.3333333333333333 0.009700220224808879 0.9902997797751911 0.0 1.0 0.056074766355140186 0.9439252336448598 0.022321428571428575 0.9776785714285715 0.0 1.0 0.040654776815216224 0.9593452231847838 0.0 1.0 0.08196721311475412 0.9180327868852459 0.0913978494623656 0.9086021505376345 0.029411764705882353 0.9705882352941176 0.0 1.0 0.16666666666666666 0.8333333333333334 0.0 1.0 0.10526315789473682 0.8947368421052632 0.5 0.5 0.0 1.0 0.0 1.0 0.0 1.0 0.2325581395348837 0.7674418604651163 0.5 0.5 </TABLE>
    </DEFINITION>
    <DEFINITION>
      <FOR>memory_usage</FOR>
      <TABLE>1.0 </TABLE>
    </DEFINITION>
    <DEFINITION>
      <FOR>pixel</FOR>
      <GIVEN>bitrate</GIVEN>
      <TABLE>0.0 0.0 0.0 0.0 1.0 0.0 0.0 0.0 0.0 1.0 1.0 0.0 0.0 0.0 0.0 1.0 0.0 0.0 0.0 0.0 0.0 0.0 0.0 1.0 0.0 0.0 1.0 0.0 0.0 0.0 0.0 0.0 1.0 0.0 0.0 0.0 0.0 0.0 0.0 1.0 0.0 0.0 0.0 1.0 0.0 0.0 0.0 1.0 0.0 0.0 0.0 0.0 0.0 0.0 1.0 0.0 0.0 0.0 1.0 0.0 0.0 0.0 0.0 0.0 1.0 0.0 0.0 0.0 1.0 0.0 </TABLE>
    </DEFINITION>
    <DEFINITION>
      <FOR>stream_count</FOR>
      <GIVEN>bitrate</GIVEN>
      <GIVEN>cpu_utilization</GIVEN>
      <TABLE>1.0 0.0 0.0 0.0 0.0 0.0 0.0 0.0 0.0 0.0 1.0 0.0 0.0 0.0 0.0 0.0 0.0 0.0 0.0 0.0 1.0 0.0 0.0 0.0 0.0 0.0 0.0 0.0 0.0 0.0 1.0 0.0 0.0 0.0 0.0 0.0 0.0 0.0 0.0 0.0 0.42023346303501946 0.0 0.09727626459143969 0.08560311284046693 0.39688715953307396 0.0 0.0 0.0 0.0 0.0 0.5384615384615387 0.0 0.1538461538461538 0.0 0.3076923076923076 0.0 0.0 0.0 0.0 0.0 0.2777777777777778 0.0 0.05555555555555555 0.2222222222222222 0.4444444444444444 0.0 0.0 0.0 0.0 0.0 0.0 0.0 0.047619047619047616 0.09523809523809523 0.8571428571428572 0.0 0.0 0.0 0.0 0.0 1.0 0.0 0.0 0.0 0.0 0.0 0.0 0.0 0.0 0.0 1.0 0.0 0.0 0.0 0.0 0.0 0.0 0.0 0.0 0.0 1.0 0.0 0.0 0.0 0.0 0.0 0.0 0.0 0.0 0.0 0.1 0.1 0.1 0.1 0.1 0.1 0.1 0.1 0.1 0.1 1.0 0.0 0.0 0.0 0.0 0.0 0.0 0.0 0.0 0.0 1.0 0.0 0.0 0.0 0.0 0.0 0.0 0.0 0.0 0.0 1.0 0.0 0.0 0.0 0.0 0.0 0.0 0.0 0.0 0.0 0.1 0.1 0.1 0.1 0.1 0.1 0.1 0.1 0.1 0.1 0.4930512264970343 0.5069487735029657 0.0 0.0 0.0 0.0 0.0 0.0 0.0 0.0 1.0 0.0 0.0 0.0 0.0 0.0 0.0 0.0 0.0 0.0 0.9884462424781538 0.011553757521846267 0.0 0.0 0.0 0.0 0.0 0.0 0.0 0.0 0.5687538699123621 0.4312461300876378 0.0 0.0 0.0 0.0 0.0 0.0 0.0 0.0 0.9047619047619048 0.09523809523809523 0.0 0.0 0.0 0.0 0.0 0.0 0.0 0.0 1.0 0.0 0.0 0.0 0.0 0.0 0.0 0.0 0.0 0.0 0.8571428571428571 0.14285714285714288 0.0 0.0 0.0 0.0 0.0 0.0 0.0 0.0 0.08333333333333333 0.9166666666666666 0.0 0.0 0.0 0.0 0.0 0.0 0.0 0.0 0.0 0.3333333333333333 0.0 0.0 0.0 0.0 0.0 0.0 0.0 0.6666666666666666 0.0 0.5 0.0 0.0 0.0 0.0 0.0 0.0 0.0 0.5 0.0 0.0 0.0 0.0 0.0 0.0 0.0 0.0 0.0 1.0 0.0 0.3333333333333333 0.0 0.0 0.0 0.0 0.0 0.0 0.0 0.6666666666666666 0.2993600325002895 0.09092274387400824 0.008022595047706606 0.02139358679388429 0.0 0.2888134217174379 0.14975510755718996 0.048135570286239625 0.06418076038165285 0.029416181841590897 0.9293709655581538 0.0 0.012841642625790198 0.006420821312895099 0.0 0.0385249278773706 0.006420821312895099 0.006420821312895099 0.0 0.0 0.8165136681210525 0.03975537190710531 0.02752294978184213 0.015290527656578965 0.0 0.042813477438421094 0.024464844250526335 0.009174316593947376 0.012232422125263168 0.012232422125263168 0.1044839102528367 0.5304649448820777 0.0 0.0 0.0 0.06844708966220357 0.028519620692584822 0.034223544831101786 0.07985493793923748 0.154005951739958 0.3880597014925375 0.0 0.0 0.37313432835820876 0.23880597014925367 0.0 0.0 0.0 0.0 0.0 0.4285714285714286 0.0 0.0 0.5714285714285713 0.0 0.0 0.0 0.0 0.0 0.0 0.6 0.0 0.0 0.4 0.0 0.0 0.0 0.0 0.0 0.0 0.36363636363636365 0.0 0.0 0.4545454545454545 0.18181818181818182 0.0 0.0 0.0 0.0 0.0 1.0 0.0 0.0 0.0 0.0 0.0 0.0 0.0 0.0 0.0 1.0 0.0 0.0 0.0 0.0 0.0 0.0 0.0 0.0 0.0 1.0 0.0 0.0 0.0 0.0 0.0 0.0 0.0 0.0 0.0 1.0 0.0 0.0 0.0 0.0 0.0 0.0 0.0 0.0 0.0 1.0 0.0 0.0 0.0 0.0 0.0 0.0 0.0 0.0 0.0 1.0 0.0 0.0 0.0 0.0 0.0 0.0 0.0 0.0 0.0 1.0 0.0 0.0 0.0 0.0 0.0 0.0 0.0 0.0 0.0 1.0 0.0 0.0 0.0 0.0 0.0 0.0 0.0 0.0 0.0 0.5470383275261325 0.0 0.132404181184669 0.0662020905923345 0.254355400696864 0.0 0.0 0.0 0.0 0.0 0.7894736842105263 0.0 0.1052631578947368 0.0 0.1052631578947368 0.0 0.0 0.0 0.0 0.0 0.9547511312217193 0.0 0.009049773755656113 0.009049773755656113 0.02714932126696832 0.0 0.0 0.0 0.0 0.0 0.7692307692307693 0.0 0.0 0.038461538461538464 0.19230769230769232 0.0 0.0 0.0 0.0 0.0 1.0 0.0 0.0 0.0 0.0 0.0 0.0 0.0 0.0 0.0 1.0 0.0 0.0 0.0 0.0 0.0 0.0 0.0 0.0 0.0 1.0 0.0 0.0 0.0 0.0 0.0 0.0 0.0 0.0 0.0 1.0 0.0 0.0 0.0 0.0 0.0 0.0 0.0 0.0 0.0 1.0 0.0 0.0 0.0 0.0 0.0 0.0 0.0 0.0 0.0 1.0 0.0 0.0 0.0 0.0 0.0 0.0 0.0 0.0 0.0 1.0 0.0 0.0 0.0 0.0 0.0 0.0 0.0 0.0 0.0 1.0 0.0 0.0 0.0 0.0 0.0 0.0 0.0 0.0 0.0 </TABLE>
    </DEFINITION>
    <DEFINITION>
      <FOR>success</FOR>
      <GIVEN>bitrate</GIVEN>
      <TABLE>0.002296211251435133 0.9977037887485648 0.0 1.0 0.9107142857142857 0.08928571428571429 0.8333333333333334 0.16666666666666666 0.0 1.0 0.0 1.0 0.0 1.0 0.004341224061497485 0.9956587759385026 0.0 1.0 0.04545454545454545 0.9545454545454546 0.0 1.0 0.0034965034965034974 0.9965034965034965 0.02272727272727273 0.9772727272727273 0.03846153846153845 0.9615384615384616 </TABLE>
    </DEFINITION>
  </NETWORK>
</BIF>
