<?xml version='1.0' encoding='utf-8'?>
<BIF VERSION="0.3">
  <NETWORK>
    <NAME>UNTITLED</NAME>
    <VARIABLE TYPE="nature">
      <NAME>bitrate</NAME>
      <OUTCOME>10800</OUTCOME>
      <OUTCOME>10920</OUTCOME>
      <OUTCOME>12600</OUTCOME>
      <OUTCOME>2520</OUTCOME>
      <OUTCOME>2640</OUTCOME>
      <OUTCOME>3240</OUTCOME>
      <OUTCOME>3360</OUTCOME>
      <OUTCOME>3600</OUTCOME>
      <OUTCOME>3960</OUTCOME>
      <OUTCOME>4200</OUTCOME>
      <OUTCOME>5040</OUTCOME>
      <OUTCOME>5280</OUTCOME>
      <OUTCOME>5400</OUTCOME>
      <OUTCOME>5880</OUTCOME>
      <OUTCOME>6240</OUTCOME>
      <OUTCOME>6480</OUTCOME>
      <OUTCOME>6600</OUTCOME>
      <OUTCOME>7200</OUTCOME>
      <OUTCOME>7560</OUTCOME>
      <OUTCOME>7800</OUTCOME>
      <OUTCOME>7920</OUTCOME>
      <OUTCOME>9000</OUTCOME>
      <OUTCOME>9240</OUTCOME>
      <OUTCOME>9360</OUTCOME>
      <PROPERTY>weight = None</PROPERTY>
    </VARIABLE>
    <VARIABLE TYPE="nature">
      <NAME>consumption</NAME>
      <OUTCOME>19</OUTCOME>
      <OUTCOME>20</OUTCOME>
      <OUTCOME>21</OUTCOME>
      <OUTCOME>22</OUTCOME>
      <OUTCOME>23</OUTCOME>
      <OUTCOME>24</OUTCOME>
      <OUTCOME>25</OUTCOME>
      <PROPERTY>weight = None</PROPERTY>
    </VARIABLE>
    <VARIABLE TYPE="nature">
      <NAME>cpu_utilization</NAME>
      <OUTCOME>High</OUTCOME>
      <OUTCOME>Low</OUTCOME>
      <OUTCOME>Mid</OUTCOME>
      <OUTCOME>Very_High</OUTCOME>
      <PROPERTY>weight = None</PROPERTY>
    </VARIABLE>
    <VARIABLE TYPE="nature">
      <NAME>distance</NAME>
      <OUTCOME>False</OUTCOME>
      <OUTCOME>True</OUTCOME>
      <PROPERTY>weight = None</PROPERTY>
    </VARIABLE>
    <VARIABLE TYPE="nature">
      <NAME>fps</NAME>
      <OUTCOME>14</OUTCOME>
      <OUTCOME>18</OUTCOME>
      <OUTCOME>22</OUTCOME>
      <OUTCOME>26</OUTCOME>
      <OUTCOME>30</OUTCOME>
      <PROPERTY>weight = None</PROPERTY>
    </VARIABLE>
    <VARIABLE TYPE="nature">
      <NAME>in_time</NAME>
      <OUTCOME>False</OUTCOME>
      <OUTCOME>True</OUTCOME>
      <PROPERTY>weight = None</PROPERTY>
    </VARIABLE>
    <VARIABLE TYPE="nature">
      <NAME>memory_usage</NAME>
      <OUTCOME>Low</OUTCOME>
      <OUTCOME>Mid</OUTCOME>
      <PROPERTY>weight = None</PROPERTY>
    </VARIABLE>
    <VARIABLE TYPE="nature">
      <NAME>network</NAME>
      <OUTCOME>False</OUTCOME>
      <OUTCOME>True</OUTCOME>
      <PROPERTY>weight = None</PROPERTY>
    </VARIABLE>
    <VARIABLE TYPE="nature">
      <NAME>pixel</NAME>
      <OUTCOME>120</OUTCOME>
      <OUTCOME>180</OUTCOME>
      <OUTCOME>240</OUTCOME>
      <OUTCOME>300</OUTCOME>
      <OUTCOME>360</OUTCOME>
      <OUTCOME>420</OUTCOME>
      <PROPERTY>weight = None</PROPERTY>
    </VARIABLE>
    <VARIABLE TYPE="nature">
      <NAME>stream_count</NAME>
      <OUTCOME>1</OUTCOME>
      <OUTCOME>10</OUTCOME>
      <OUTCOME>11</OUTCOME>
      <OUTCOME>12</OUTCOME>
      <OUTCOME>13</OUTCOME>
      <OUTCOME>2</OUTCOME>
      <OUTCOME>3</OUTCOME>
      <OUTCOME>4</OUTCOME>
      <OUTCOME>5</OUTCOME>
      <OUTCOME>6</OUTCOME>
      <OUTCOME>7</OUTCOME>
      <OUTCOME>8</OUTCOME>
      <OUTCOME>9</OUTCOME>
      <PROPERTY>weight = None</PROPERTY>
    </VARIABLE>
    <VARIABLE TYPE="nature">
      <NAME>success</NAME>
      <OUTCOME>False</OUTCOME>
      <OUTCOME>True</OUTCOME>
      <PROPERTY>weight = None</PROPERTY>
    </VARIABLE>
    <DEFINITION>
      <FOR>bitrate</FOR>
      <GIVEN>pixel</GIVEN>
      <TABLE>0.0 0.0 0.0 0.0 0.10891089108910898 0.0 0.0 0.891089108910891 0.0 0.0 0.0 0.0 0.0 0.0 0.0 0.0 0.0 0.0 0.0 0.0 0.0 0.0 0.0 0.0 0.0 0.0 0.0 0.11762335558803773 0.0 0.07581649180827467 0.0 0.0 0.5545101049150355 0.0 0.0 0.0 0.25205004768865225 0.0 0.0 0.0 0.0 0.0 0.0 0.0 0.0 0.0 0.0 0.0 0.0 0.0 0.0 0.0 0.0 0.0 0.016269610691458467 0.0 0.0 0.0 0.0 0.1214410226612435 0.0 0.0 0.7402672864613595 0.0 0.0 0.12202208018593842 0.0 0.0 0.0 0.0 0.0 0.0 0.0 0.0 0.0 0.0 0.0 0.0 0.0 0.0 0.0 0.0075642965204236 0.0 0.0 0.007780419278149983 0.0 0.0 0.0 0.014264102009941639 0.0 0.0 0.814782796628485 0.0 0.15560838556299975 0.0 0.0 0.010848686986728185 0.0 0.0 0.0 0.0 0.0 0.0 0.0 0.0 0.0 0.012656801484516216 0.0 0.0 0.0 0.0 0.03580066705620299 0.0 0.0 0.0 0.0 0.015911407580534664 0.0 0.0 0.924782436892018 0.0 0.022861449566637368 0.9562240924506971 0.0 0.0 0.0 0.0 0.0 0.0 0.0 0.0 0.0 0.0 0.0017585730435874883 0.0 0.0 0.0 0.0 0.01639241301344052 0.0 0.0 0.0 0.0027634719256374824 0.0 </TABLE>
    </DEFINITION>
    <DEFINITION>
      <FOR>consumption</FOR>
      <GIVEN>fps</GIVEN>
      <GIVEN>stream_count</GIVEN>
      <TABLE>0.0 0.006493506493506493 0.27922077922077926 0.6103896103896104 0.051948051948051945 0.025974025974025972 0.025974025974025972 0.14285714285714288 0.14285714285714288 0.14285714285714288 0.14285714285714288 0.14285714285714288 0.14285714285714288 0.14285714285714288 0.14285714285714288 0.14285714285714288 0.14285714285714288 0.14285714285714288 0.14285714285714288 0.14285714285714288 0.14285714285714288 0.14285714285714288 0.14285714285714288 0.14285714285714288 0.14285714285714288 0.14285714285714288 0.14285714285714288 0.14285714285714288 0.14285714285714288 0.14285714285714288 0.14285714285714288 0.14285714285714288 0.14285714285714288 0.14285714285714288 0.14285714285714288 0.0 0.0 0.03571428571428571 0.7500000000000002 0.1071428571428571 0.03571428571428571 0.07142857142857142 0.14285714285714288 0.14285714285714288 0.14285714285714288 0.14285714285714288 0.14285714285714288 0.14285714285714288 0.14285714285714288 0.0 0.0 0.01190476190476192 0.7678571428571428 0.07142857142857141 0.04166666666666667 0.10714285714285715 0.0 0.0 0.0 0.2857142857142857 0.5 0.07142857142857142 0.14285714285714285 0.0 0.0 0.0 0.3928571428571428 0.3928571428571428 0.16071428571428584 0.05357142857142858 0.14285714285714288 0.14285714285714288 0.14285714285714288 0.14285714285714288 0.14285714285714288 0.14285714285714288 0.14285714285714288 0.14285714285714288 0.14285714285714288 0.14285714285714288 0.14285714285714288 0.14285714285714288 0.14285714285714288 0.14285714285714288 0.14285714285714288 0.14285714285714288 0.14285714285714288 0.14285714285714288 0.14285714285714288 0.14285714285714288 0.14285714285714288 0.0 0.005050505050505052 0.035353535353535366 0.6666666666666667 0.09595959595959601 0.04545454545454547 0.15151515151515155 0.14285714285714288 0.14285714285714288 0.14285714285714288 0.14285714285714288 0.14285714285714288 0.14285714285714288 0.14285714285714288 0.14285714285714288 0.14285714285714288 0.14285714285714288 0.14285714285714288 0.14285714285714288 0.14285714285714288 0.14285714285714288 0.14285714285714288 0.14285714285714288 0.14285714285714288 0.14285714285714288 0.14285714285714288 0.14285714285714288 0.14285714285714288 0.0 0.0 1.1193194537721064e-05 0.4443996716662935 0.4444668308335198 0.11111111111111109 1.1193194537721064e-05 0.0 0.018518518518518514 0.018518518518518514 0.648148148148148 0.18518518518518523 0.0 0.12962962962962965 0.14285714285714288 0.14285714285714288 0.14285714285714288 0.14285714285714288 0.14285714285714288 0.14285714285714288 0.14285714285714288 0.0 0.0012345679012345679 0.022222222222222223 0.3753086419753084 0.38271604938271614 0.10246913580246914 0.11604938271604945 0.14285714285714288 0.14285714285714288 0.14285714285714288 0.14285714285714288 0.14285714285714288 0.14285714285714288 0.14285714285714288 0.0 0.0 0.015873015873015872 0.10317460317460318 0.6428571428571429 0.15873015873015872 0.07936507936507936 0.14285714285714288 0.14285714285714288 0.14285714285714288 0.14285714285714288 0.14285714285714288 0.14285714285714288 0.14285714285714288 0.14285714285714288 0.14285714285714288 0.14285714285714288 0.14285714285714288 0.14285714285714288 0.14285714285714288 0.14285714285714288 0.14285714285714288 0.14285714285714288 0.14285714285714288 0.14285714285714288 0.14285714285714288 0.14285714285714288 0.14285714285714288 0.0 0.02272727272727273 0.13636363636363633 0.5681818181818182 0.17727272727272728 0.04999999999999999 0.04545454545454546 0.14285714285714288 0.14285714285714288 0.14285714285714288 0.14285714285714288 0.14285714285714288 0.14285714285714288 0.14285714285714288 0.14285714285714288 0.14285714285714288 0.14285714285714288 0.14285714285714288 0.14285714285714288 0.14285714285714288 0.14285714285714288 0.0 0.0 0.015151515151515143 0.0 0.13636363636363635 0.6363636363636364 0.21212121212121218 0.14285714285714288 0.14285714285714288 0.14285714285714288 0.14285714285714288 0.14285714285714288 0.14285714285714288 0.14285714285714288 0.0 0.011363636363636362 0.022727272727272724 0.7159090909090909 0.07954545454545454 0.07954545454545454 0.0909090909090909 0.14285714285714288 0.14285714285714288 0.14285714285714288 0.14285714285714288 0.14285714285714288 0.14285714285714288 0.14285714285714288 0.0 0.0 0.0 0.2878787878787879 0.5303030303030303 0.12121212121212117 0.06060606060606059 0.14285714285714288 0.14285714285714288 0.14285714285714288 0.14285714285714288 0.14285714285714288 0.14285714285714288 0.14285714285714288 0.0 0.0 0.016528925619834715 0.06198347107438016 0.6157024793388431 0.23140495867768587 0.07438016528925623 0.14285714285714288 0.14285714285714288 0.14285714285714288 0.14285714285714288 0.14285714285714288 0.14285714285714288 0.14285714285714288 0.0 0.0 0.01818181818181818 0.04090909090909091 0.33636363636363636 0.5454545454545453 0.05909090909090908 0.0 0.0 0.01948051948051948 0.03246753246753247 0.15584415584415584 0.7207792207792207 0.07142857142857141 0.001240694789081886 0.007444168734491309 0.05955334987593047 0.859801488833747 0.03598014888337469 0.01364764267990074 0.022332506203473948 0.0 0.0 0.00761421319796955 0.03084732526356891 0.17493166731745416 0.6858648965247951 0.10074189769621243 0.0 0.0 0.007381507381507378 0.038461538461538464 0.15967365967365968 0.6907536907536908 0.1037296037296038 0.0 0.0 0.007533703409992073 0.03092783505154641 0.14512291831879462 0.7061855670103093 0.11022997620935757 0.0 0.0 7.752136143691083e-05 0.03830647648972565 0.42072764134320456 0.5015296404793229 0.039358720326309875 0.14285714285714288 0.14285714285714288 0.14285714285714288 0.14285714285714288 0.14285714285714288 0.14285714285714288 0.14285714285714288 0.0 0.0 0.0 0.19230769230769232 0.5769230769230769 0.15384615384615385 0.07692307692307693 0.14285714285714288 0.14285714285714288 0.14285714285714288 0.14285714285714288 0.14285714285714288 0.14285714285714288 0.14285714285714288 0.14285714285714288 0.14285714285714288 0.14285714285714288 0.14285714285714288 0.14285714285714288 0.14285714285714288 0.14285714285714288 0.0 0.0 0.014102564102564103 0.028205128205128206 0.3611111111111111 0.5038461538461538 0.09273504273504271 0.0 0.00019425019425019414 0.01825951825951825 0.03923853923853922 0.4924242424242424 0.3952991452991454 0.054584304584304535 0.0 0.000206782464846981 0.021712158808933003 0.031224152191894127 0.35401157981803144 0.5444582299421009 0.04838709677419353 0.0 0.0 0.01066260472201066 0.03503427265803502 0.18507235338918515 0.6968773800456968 0.07235338918507234 0.00038759689922480587 0.0071705426356589086 0.054651162790697615 0.7521317829457366 0.06104651162790692 0.039728682170542616 0.08488372093023251 0.0 0.0 0.022222222222222223 0.011111111111111112 0.23333333333333342 0.5777777777777777 0.15555555555555556 0.0 0.0 0.0 0.26666666666666666 0.26666666666666666 0.4333333333333332 0.03333333333333333 0.14285714285714288 0.14285714285714288 0.14285714285714288 0.14285714285714288 0.14285714285714288 0.14285714285714288 0.14285714285714288 0.14285714285714288 0.14285714285714288 0.14285714285714288 0.14285714285714288 0.14285714285714288 0.14285714285714288 0.14285714285714288 0.00017452006980802793 0.0033158813263525276 0.027923211169284475 0.7085514834205934 0.13071553228621297 0.03909249563699826 0.09022687609075043 0.0 0.0013400335008375212 0.02077051926298158 0.33283082077051934 0.4651591289782244 0.09011725293132329 0.08978224455611392 0.0 0.0004761904761904759 0.01523809523809523 0.10809523809523805 0.611904761904762 0.16047619047619047 0.10380952380952384 0.0 0.0 0.017587939698492466 0.04388609715242881 0.5872696817420434 0.28107202680067006 0.07018425460636514 0.0 0.0007575757575757578 0.018560606060606073 0.040151515151515174 0.571590909090909 0.29318181818181827 0.0757575757575758 0.0 0.0 0.03333333333333333 0.016666666666666666 0.5833333333333333 0.31666666666666665 0.049999999999999996 0.0 0.0 0.016666666666666663 0.025 0.23333333333333334 0.5333333333333332 0.19166666666666674 0.0 0.00036231884057971015 0.015579710144927544 0.03297101449275362 0.3155797101449275 0.5786231884057971 0.056884057971014486 </TABLE>
    </DEFINITION>
    <DEFINITION>
      <FOR>cpu_utilization</FOR>
      <GIVEN>consumption</GIVEN>
      <GIVEN>stream_count</GIVEN>
      <TABLE>0.0 1.0 0.0 0.0 0.25 0.25 0.25 0.25 0.25 0.25 0.25 0.25 0.25 0.25 0.25 0.25 0.25 0.25 0.25 0.25 0.0 1.0 0.0 0.0 0.25 0.25 0.25 0.25 0.25 0.25 0.25 0.25 0.25 0.25 0.25 0.25 0.25 0.25 0.25 0.25 0.25 0.25 0.25 0.25 0.25 0.25 0.25 0.25 0.25 0.25 0.25 0.25 0.0 1.0 0.0 0.0 0.25 0.25 0.25 0.25 0.25 0.25 0.25 0.25 0.25 0.25 0.25 0.25 0.25 0.25 0.25 0.25 0.0 1.0 0.0 0.0 0.0 1.0 0.0 0.0 0.0 1.0 0.0 0.0 0.25 0.25 0.25 0.25 0.0 1.0 0.0 0.0 0.0 1.0 0.0 0.0 0.0 1.0 0.0 0.0 0.0 1.0 0.0 0.0 0.0 1.0 0.0 0.0 0.0 1.0 0.0 0.0 0.0 1.0 0.0 0.0 0.0 1.0 0.0 0.0 0.24997775054872212 0.25006674835383363 0.24997775054872212 0.24997775054872212 0.0 1.0 0.0 0.0 0.0 1.0 0.0 0.0 0.0 1.0 0.0 0.0 0.0 1.0 0.0 0.0 0.0 1.0 0.0 0.0 0.0 1.0 0.0 0.0 0.0 1.0 0.0 0.0 0.0 1.0 0.0 0.0 0.0 0.37238578680203066 0.6276142131979694 0.0 0.0 0.2893081761006289 0.710691823899371 0.0 0.0 0.15887850467289732 0.8411214953271027 0.0 0.0 0.23076923076923075 0.7692307692307693 0.0 0.0 3.34088689320222e-05 0.999966591131068 0.0 0.0 0.06939459200765734 0.9306054079923427 0.0 0.0 0.021084337349397582 0.9789156626506025 0.0 0.0 0.04083885209713026 0.9591611479028698 0.0 0.0 0.18045112781954886 0.8195488721804511 0.0 0.0 0.18468468468468455 0.8153153153153154 0.0 0.0 0.28078817733990147 0.7192118226600985 0.0 0.0 0.2515337423312885 0.7484662576687116 0.0 0.0 0.26063829787234055 0.7393617021276594 0.0 0.2 0.0 0.8 0.0 0.6619411123227917 0.0 0.33805888767720826 0.0 0.6730310262529833 0.0 0.3269689737470167 0.0 0.6533333333333333 0.0 0.3466666666666667 0.0 0.5789096760753635 0.0 0.42109032392463647 0.0 0.09232769830949286 0.0 0.9076723016905072 0.0 0.14147564469914045 0.0 0.8585243553008596 0.0 0.24564400409976112 0.0 0.7543559959002389 0.0 0.33874181611158555 0.0 0.6612581838884145 0.0 0.41020721412125866 0.0 0.5897927858787414 0.0 0.6361867704280156 0.0 0.36381322957198436 0.0 0.6968026460859978 0.0 0.3031973539140022 0.0 0.6842867487328023 0.0 0.3157132512671977 0.0 1.0 0.0 0.0 0.0 1.0 0.0 0.0 0.0 1.0 0.0 0.0 0.0 1.0 0.0 0.0 0.0 1.0 0.0 0.0 0.0 1.0 0.0 0.0 0.0 1.0 0.0 0.0 0.0 1.0 0.0 0.0 0.0 1.0 0.0 0.0 0.0 1.0 0.0 0.0 0.0 1.0 0.0 0.0 0.0 1.0 0.0 0.0 0.0 1.0 0.0 0.0 0.0 0.05999999999999993 0.0 0.0 0.9400000000000002 0.20754716981132063 0.0 0.0 0.7924528301886793 0.21268656716417922 0.0 0.0 0.7873134328358207 0.2226027397260272 0.0 0.0 0.7773972602739728 0.0003553051335722792 0.0 0.0 0.9996446948664277 0.08426966292134837 0.0 0.0 0.9157303370786517 0.0743494423791821 0.0 0.0 0.9256505576208178 0.09601449275362323 0.0 0.0 0.9039855072463767 0.1306413301662707 0.0 0.0 0.8693586698337293 0.1785714285714285 0.0 0.0 0.8214285714285715 0.1267605633802817 0.0 0.0 0.8732394366197183 0.15555555555555556 0.0 0.0 0.8444444444444444 0.20111731843575428 0.0 0.0 0.7988826815642457 </TABLE>
    </DEFINITION>
    <DEFINITION>
      <FOR>distance</FOR>
      <GIVEN>fps</GIVEN>
      <GIVEN>in_time</GIVEN>
      <TABLE>0.1428571428571429 0.857142857142857 0.44862155388471203 0.5513784461152881 0.08795293102213815 0.9120470689778619 0.23417835864079029 0.7658216413592097 0.0803571428571429 0.9196428571428572 0.1620762711864407 0.8379237288135593 0.04271773185886657 0.9572822681411334 0.06868523463911932 0.9313147653608806 0.030614805520702656 0.9693851944792973 0.036284571229779086 0.9637154287702209 </TABLE>
    </DEFINITION>
    <DEFINITION>
      <FOR>fps</FOR>
      <GIVEN>bitrate</GIVEN>
      <TABLE>0.0 0.0 0.0 0.0 1.0 0.0 0.0 0.0 1.0 0.0 0.0 0.0 0.0 0.0 1.0 1.0 0.0 0.0 0.0 0.0 0.0 0.0 1.0 0.0 0.0 0.0 1.0 0.0 0.0 0.0 1.0 0.0 0.0 0.0 0.0 0.0 0.0 0.0 0.0 1.0 0.0 0.0 1.0 0.0 0.0 1.0 0.0 0.0 0.0 0.0 1.0 0.0 0.0 0.0 0.0 0.0 0.0 1.0 0.0 0.0 0.0 0.5454545454545454 0.0 0.0 0.4545454545454546 1.0 0.0 0.0 0.0 0.0 0.0 0.0 0.0 1.0 0.0 0.0 1.0 0.0 0.0 0.0 0.0 0.0 1.0 0.0 0.0 0.0 0.0 0.0 0.0 1.0 0.0 1.0 0.0 0.0 0.0 0.0 0.0 0.0 1.0 0.0 0.0 0.0 1.0 0.0 0.0 0.0 0.0 0.0 0.0 1.0 0.0 0.0 1.0 0.0 0.0 0.0 0.0 0.0 1.0 0.0 </TABLE>
    </DEFINITION>
    <DEFINITION>
      <FOR>in_time</FOR>
      <GIVEN>consumption</GIVEN>
      <GIVEN>stream_count</GIVEN>
      <TABLE>0.3333333333333333 0.6666666666666666 0.5 0.5 0.5 0.5 0.5 0.5 0.5 0.5 1.0 0.0 0.5 0.5 0.5 0.5 0.5 0.5 0.5 0.5 0.5 0.5 0.5 0.5 0.5 0.5 0.8 0.2 0.5 0.5 0.5 0.5 0.5 0.5 0.5 0.5 0.7619047619047619 0.23809523809523805 0.75 0.25 0.6666666666666666 0.3333333333333333 0.5 0.5 0.0 1.0 0.0 1.0 1.0 0.0 0.0 1.0 0.3195121951219512 0.6804878048780488 0.5609756097560975 0.43902439024390255 0.5789473684210525 0.4210526315789475 0.5499999999999998 0.45000000000000023 0.500011009895023 0.49998899010497705 0.8292682926829267 0.17073170731707324 0.7822580645161289 0.21774193548387116 0.7380952380952379 0.26190476190476214 0.819047619047619 0.18095238095238098 0.7727272727272729 0.22727272727272704 0.78125 0.21875 0.6936936936936937 0.3063063063063063 0.6216216216216216 0.37837837837837845 0.03228426395939093 0.9677157360406091 0.8427672955974842 0.15723270440251577 0.8130841121495326 0.1869158878504674 0.8205128205128203 0.17948717948717968 0.2223336397369423 0.7776663602630577 0.023211294568078463 0.9767887054319215 0.07530120481927709 0.9246987951807228 0.16445916114790288 0.8355408388520972 0.7368421052631577 0.2631578947368422 0.6576576576576577 0.34234234234234234 0.7635467980295565 0.2364532019704434 0.7484662576687116 0.2515337423312885 0.8297872340425532 0.17021276595744683 0.1414634146341463 0.8585365853658536 0.2791712104689204 0.7208287895310797 0.23866348448687327 0.7613365155131269 0.3546666666666667 0.6453333333333333 0.0005454289324752004 0.9994545710675249 0.03250975292587777 0.9674902470741222 0.023638968481375363 0.9763610315186246 0.045439016057396676 0.9545609839426034 0.08539709649871902 0.914602903501281 0.07981580966999223 0.9201841903300078 0.07898832684824907 0.921011673151751 0.17254685777287765 0.8274531422271223 0.1947863866763214 0.8052136133236786 0.08750000000000002 0.9125000000000001 0.2701262272089761 0.7298737727910238 0.28754885538805136 0.7124511446119486 0.34393856280855734 0.6560614371914427 0.002229829650516462 0.9977701703494836 0.07327586206896554 0.9267241379310345 0.1143911439114392 0.8856088560885609 0.08549222797927461 0.9145077720207254 0.12447885646217983 0.8755211435378202 0.14229636898920522 0.8577036310107948 0.059396299902628985 0.9406037000973709 0.08519701810436636 0.9148029818956337 0.22357263990955367 0.7764273600904463 0.05799999999999999 0.9420000000000001 0.6509433962264151 0.3490566037735849 0.541044776119403 0.458955223880597 0.4760273972602741 0.5239726027397259 0.0008106113113669118 0.999189388688633 0.1198501872659175 0.8801498127340825 0.2713754646840149 0.728624535315985 0.3532608695652174 0.6467391304347826 0.4655581947743466 0.5344418052256533 0.5245535714285714 0.4754464285714286 0.44014084507042256 0.5598591549295774 0.5814814814814813 0.41851851851851885 0.5921787709497206 0.40782122905027934 </TABLE>
    </DEFINITION>
    <DEFINITION>
      <FOR>memory_usage</FOR>
      <TABLE>0.3493934369521824 0.6506065630478175 </TABLE>
    </DEFINITION>
    <DEFINITION>
      <FOR>network</FOR>
      <GIVEN>pixel</GIVEN>
      <GIVEN>stream_count</GIVEN>
      <TABLE>0.0 1.0 0.5 0.5 0.5 0.5 0.5 0.5 0.5 0.5 0.5 0.5 0.5 0.5 0.0 1.0 0.5 0.5 0.5 0.5 0.5 0.5 0.0 1.0 0.5 0.5 0.0 1.0 0.5 0.5 0.5 0.5 0.5 0.5 0.0 1.0 0.5 0.5 0.5 0.5 0.0 1.0 0.5 0.5 0.0 1.0 0.5 0.5 0.5 0.5 0.0 1.0 0.0 1.0 0.5 0.5 0.5 0.5 0.0 1.0 0.5 0.5 0.0 1.0 0.5 0.5 0.0 1.0 0.5 0.5 0.0 1.0 0.0 1.0 0.0 1.0 0.0 1.0 0.0 1.0 0.0 1.0 0.5 0.5 0.0 1.0 0.5 0.5 0.0 1.0 0.5 0.5 0.0 1.0 0.5 0.5 0.0 1.0 0.0 1.0 0.0 1.0 0.0 1.0 0.0 1.0 0.0 1.0 0.0 1.0 0.0 1.0 0.0 1.0 0.0 1.0 0.5 0.5 0.0 1.0 0.0 1.0 0.0 1.0 0.0 1.0 0.0 1.0 0.0 1.0 0.0 1.0 0.0 1.0 1.0 0.0 0.5 0.5 0.5 0.5 0.0 1.0 0.0 1.0 0.0 1.0 0.0 1.0 0.0 1.0 0.5 0.5 0.0 1.0 0.0 1.0 </TABLE>
    </DEFINITION>
    <DEFINITION>
      <FOR>pixel</FOR>
      <TABLE>0.0032606825716951188 0.004041646220467398 0.055560739662250495 0.14937800256666642 0.2737333061419928 0.5140256228369278 </TABLE>
    </DEFINITION>
    <DEFINITION>
      <FOR>stream_count</FOR>
      <GIVEN>bitrate</GIVEN>
      <TABLE>0.0 0.0 0.0 0.0 0.0 0.0 0.0 0.6666666666666666 0.0 0.0 0.0 0.0 0.3333333333333333 0.7142857142857145 0.03571428571428571 0.0 0.0 0.0 0.0 0.03571428571428571 0.0 0.0 0.07142857142857142 0.0 0.07142857142857142 0.07142857142857142 0.16748768472906403 0.0009852216748768474 0.0009852216748768474 0.0 0.0 0.18817733990147784 0.19605911330049272 0.09359605911330046 0.19605911330049272 0.08472906403940887 0.0 0.0 0.07192118226600985 0.0 0.0 0.0 0.0 0.0 0.0 0.0 0.0 0.0 1.0 0.0 0.0 0.0 0.0 0.0 0.0 0.0 0.0 0.0 0.0 1.0 0.0 0.0 0.0 0.0 0.0 0.0 0.0 0.0 0.0 1.0 0.0 0.0 0.0 0.0 0.0 0.0 0.0 0.0 0.0 0.0 0.0 0.0 0.0 0.5 0.0 0.0 0.0 0.5 0.0 0.0 0.0 0.3333333333333333 0.0 0.0 0.0 0.0 0.0 0.0 0.3333333333333333 0.0 0.0 0.0 0.3333333333333333 0.0 0.6666666666666666 0.0 0.0 0.0 0.0 0.0 0.0 0.0 0.0 0.0 0.0 0.0 0.3333333333333333 1.0 0.0 0.0 0.0 0.0 0.0 0.0 0.0 0.0 0.0 0.0 0.0 0.0 0.1333333333333333 0.0 0.0 0.0 0.0 0.0 0.0 0.8 0.06666666666666665 0.0 0.0 0.0 0.0 0.2105263157894737 0.0 0.0 0.0 0.0 0.0 0.0 0.0 0.0 0.10526315789473685 0.0 0.4210526315789474 0.263157894736842 0.0 0.0 0.0 0.0 0.0 0.4090909090909091 0.0 0.5909090909090909 0.0 0.0 0.0 0.0 0.0 1.0 0.0 0.0 0.0 0.0 0.0 0.0 0.0 0.0 0.0 0.0 0.0 0.0 0.06122448979591835 0.0 0.0 0.010204081632653052 0.0 0.0 0.0 0.0 0.0 0.8673469387755102 0.020408163265306103 0.020408163265306103 0.020408163265306103 0.09090909090909088 0.0 0.0 0.0 0.0 0.0 0.0 0.9090909090909092 0.0 0.0 0.0 0.0 0.0 0.0 0.0 0.0 0.5 0.0 0.3333333333333333 0.0 0.0 0.0 0.16666666666666666 0.0 0.0 0.0 0.0 0.0 0.0 0.0 0.0 0.0 0.0 0.5714285714285715 0.0 0.14285714285714288 0.14285714285714288 0.0 0.14285714285714288 0.2758620689655171 0.0 0.0 0.0 0.0 0.0 0.0 0.48275862068965525 0.0 0.24137931034482762 0.0 0.0 0.0 0.006896551724137933 0.0 0.0 0.0 0.0 0.0 0.0 0.0 0.0 0.0 0.6724137931034483 0.3103448275862069 0.010344827586206896 0.0 0.0 0.0 0.0 0.0 0.16666666666666666 0.0 0.0 0.0 0.6666666666666666 0.0 0.16666666666666666 0.0 0.0 0.041666666666666664 0.0 0.0 0.0 0.0 0.0 0.6041666666666666 0.0 0.0 0.0 0.041666666666666664 0.3125 0.5 0.0 0.0 0.0 0.0 0.0 0.0 0.5 0.0 0.0 0.0 0.0 0.0 0.005086828787110326 0.3323394807578748 0.16786534997464075 0.16277852118753044 0.009763996109190012 0.0 0.0 0.0 0.0 0.005086828787110326 0.0016956095957034413 0.15599608280471647 0.15938730199612344 </TABLE>
    </DEFINITION>
    <DEFINITION>
      <FOR>success</FOR>
      <GIVEN>bitrate</GIVEN>
      <TABLE>0.01111111111111111 0.9888888888888889 0.010989010989010986 0.989010989010989 9.852216748768479e-05 0.9999014778325123 0.10714285714285704 0.892857142857143 1.0 0.0 0.05563390791731962 0.9443660920826804 0.07142857142857142 0.9285714285714285 0.8277777777777777 0.17222222222222225 0.08333333333333344 0.9166666666666665 0.04285714285714284 0.9571428571428572 0.0 1.0 0.0 1.0 0.015151515151515152 0.9848484848484849 0.0 1.0 0.013736263736263757 0.9862637362637363 0.0 1.0 0.015151515151515152 0.9848484848484849 0.009523809523809526 0.9904761904761905 0.0 1.0 0.009946949602122012 0.990053050397878 0.0037878787878787867 0.9962121212121211 0.0062499999999999995 0.9937499999999999 0.011363636363636367 0.9886363636363636 0.008087924148540553 0.9919120758514595 </TABLE>
    </DEFINITION>
  </NETWORK>
</BIF>
