<?xml version='1.0' encoding='utf-8'?>
<BIF VERSION="0.3">
  <NETWORK>
    <NAME>UNTITLED</NAME>
    <VARIABLE TYPE="nature">
      <NAME>bitrate</NAME>
      <OUTCOME>12600</OUTCOME>
      <OUTCOME>1680</OUTCOME>
      <OUTCOME>3600</OUTCOME>
      <OUTCOME>5040</OUTCOME>
      <OUTCOME>5280</OUTCOME>
      <OUTCOME>5400</OUTCOME>
      <OUTCOME>5880</OUTCOME>
      <OUTCOME>6480</OUTCOME>
      <OUTCOME>7920</OUTCOME>
      <PROPERTY>weight = None</PROPERTY>
    </VARIABLE>
    <VARIABLE TYPE="nature">
      <NAME>consumption</NAME>
      <OUTCOME>100</OUTCOME>
      <PROPERTY>weight = None</PROPERTY>
    </VARIABLE>
    <VARIABLE TYPE="nature">
      <NAME>cpu_utilization</NAME>
      <OUTCOME>High</OUTCOME>
      <OUTCOME>Low</OUTCOME>
      <OUTCOME>Mid</OUTCOME>
      <OUTCOME>Very_High</OUTCOME>
      <PROPERTY>weight = None</PROPERTY>
    </VARIABLE>
    <VARIABLE TYPE="nature">
      <NAME>distance</NAME>
      <OUTCOME>False</OUTCOME>
      <OUTCOME>True</OUTCOME>
      <PROPERTY>weight = None</PROPERTY>
    </VARIABLE>
    <VARIABLE TYPE="nature">
      <NAME>fps</NAME>
      <OUTCOME>14</OUTCOME>
      <OUTCOME>18</OUTCOME>
      <OUTCOME>22</OUTCOME>
      <OUTCOME>30</OUTCOME>
      <PROPERTY>weight = None</PROPERTY>
    </VARIABLE>
    <VARIABLE TYPE="nature">
      <NAME>in_time</NAME>
      <OUTCOME>False</OUTCOME>
      <OUTCOME>True</OUTCOME>
      <PROPERTY>weight = None</PROPERTY>
    </VARIABLE>
    <VARIABLE TYPE="nature">
      <NAME>memory_usage</NAME>
      <OUTCOME>Low</OUTCOME>
      <PROPERTY>weight = None</PROPERTY>
    </VARIABLE>
    <VARIABLE TYPE="nature">
      <NAME>pixel</NAME>
      <OUTCOME>120</OUTCOME>
      <OUTCOME>240</OUTCOME>
      <OUTCOME>300</OUTCOME>
      <OUTCOME>360</OUTCOME>
      <OUTCOME>420</OUTCOME>
      <PROPERTY>weight = None</PROPERTY>
    </VARIABLE>
    <VARIABLE TYPE="nature">
      <NAME>stream_count</NAME>
      <OUTCOME>1</OUTCOME>
      <OUTCOME>10</OUTCOME>
      <OUTCOME>2</OUTCOME>
      <OUTCOME>3</OUTCOME>
      <OUTCOME>4</OUTCOME>
      <OUTCOME>5</OUTCOME>
      <OUTCOME>6</OUTCOME>
      <OUTCOME>7</OUTCOME>
      <OUTCOME>8</OUTCOME>
      <OUTCOME>9</OUTCOME>
      <PROPERTY>weight = None</PROPERTY>
    </VARIABLE>
    <VARIABLE TYPE="nature">
      <NAME>success</NAME>
      <OUTCOME>False</OUTCOME>
      <OUTCOME>True</OUTCOME>
      <PROPERTY>weight = None</PROPERTY>
    </VARIABLE>
    <DEFINITION>
      <FOR>bitrate</FOR>
      <GIVEN>fps</GIVEN>
      <TABLE>0.0 0.011070561370733168 0.0 0.007722609343293701 0.0 0.0 0.9812068292859731 0.0 0.0 0.0 0.0 0.0 0.0 0.0 0.04615759347217149 0.0 0.9538424065278285 0.0 0.0 0.0 0.0 0.0 0.8407120463223293 0.0 0.0 0.0 0.1592879536776707 0.9090909090909091 0.0 0.09090909090909091 0.0 0.0 0.0 0.0 0.0 0.0 </TABLE>
    </DEFINITION>
    <DEFINITION>
      <FOR>consumption</FOR>
      <TABLE>1.0 </TABLE>
    </DEFINITION>
    <DEFINITION>
      <FOR>cpu_utilization</FOR>
      <GIVEN>fps</GIVEN>
      <GIVEN>stream_count</GIVEN>
      <TABLE>0.116412213740458 0.4160305343511449 0.40512540894220295 0.062431842966194126 0.328493076946229 0.0 0.07655724933791258 0.5949496737158584 0.21428571428571436 0.11904761904761905 0.6666666666666666 0.0 0.2503474903474904 0.24980694980694979 0.2501158301158301 0.24972972972972973 0.7857142857142859 0.07142857142857138 0.0 0.14285714285714277 0.7785791589363017 0.03575293753865183 0.10710420531849107 0.07856369820655539 0.7857916731156169 0.017837796006810076 0.10718155084352267 0.08918898003405036 0.5359079640533003 7.747133560582586e-05 0.21405330027889685 0.24996126433219706 0.5764215379513594 0.012288527676599121 0.06904842134539989 0.34224151302664146 0.7580645161290324 0.0 0.06451612903225809 0.17741935483870958 0.6296296296296298 0.018518518518518517 0.3395061728395062 0.012345679012345685 0.22222222222222232 0.05555555555555558 0.0 0.7222222222222221 0.25 0.25 0.25 0.25 0.7037037037037037 0.07407407407407406 0.055555555555555566 0.16666666666666666 0.85 0.01666666666666667 0.08333333333333337 0.05000000000000004 0.25 0.25 0.25 0.25 0.25 0.25 0.25 0.25 0.25 0.25 0.25 0.25 0.25 0.25 0.25 0.25 0.2499221910986616 0.24937752878929362 0.24937752878929362 0.25132275132275117 0.8746016594960563 0.09045938028922265 0.03404041583963176 0.0008985443750894447 0.4545454545454545 0.0 0.04545454545454544 0.5000000000000001 0.8988703879607383 0.020441042260341574 0.07565513773258088 0.005033432046339236 0.7275039946177784 0.0 0.13628654724861922 0.13620945813360236 0.8545454545454546 0.03636363636363636 0.06363636363636364 0.04545454545454545 0.25 0.25 0.25 0.25 0.25 0.25 0.25 0.25 0.25 0.25 0.25 0.25 0.7190082644628099 0.008264462809917354 0.033057851239669415 0.2396694214876033 0.25 0.25 0.25 0.25 0.8822222222222221 0.0377777777777778 0.05333333333333336 0.02666666666666668 0.25 0.25 0.25 0.25 0.9222222222222223 0.03333333333333333 0.022222222222222213 0.022222222222222213 0.7333333333333334 0.0 0.13333333333333333 0.13333333333333333 0.5333333333333333 0.03333333333333333 0.055555555555555566 0.37777777777777777 0.25 0.25 0.25 0.25 0.25 0.25 0.25 0.25 0.25 0.25 0.25 0.25 0.25 0.25 0.25 0.25 0.25 0.25 0.25 0.25 </TABLE>
    </DEFINITION>
    <DEFINITION>
      <FOR>distance</FOR>
      <GIVEN>bitrate</GIVEN>
      <TABLE>0.0 1.0 0.39285714285714296 0.6071428571428571 0.03333333333333334 0.9666666666666667 0.0 1.0 0.007272727272727266 0.9927272727272727 0.0 1.0 0.023654242243788225 0.9763457577562118 0.017676767676767666 0.9823232323232324 0.00022541996155905724 0.9997745800384409 </TABLE>
    </DEFINITION>
    <DEFINITION>
      <FOR>fps</FOR>
      <TABLE>0.7273539221780113 0.06199872037588428 0.11613549413423667 0.09451186331186762 </TABLE>
    </DEFINITION>
    <DEFINITION>
      <FOR>in_time</FOR>
      <GIVEN>bitrate</GIVEN>
      <GIVEN>cpu_utilization</GIVEN>
      <TABLE>0.20445344129554666 0.7955465587044533 0.6666666666666666 0.3333333333333333 0.4545454545454545 0.5454545454545455 0.17307692307692302 0.826923076923077 0.0 1.0 0.1111111111111111 0.8888888888888888 0.0 1.0 0.0 1.0 0.05357142857142854 0.9464285714285714 0.5 0.5 0.0 1.0 0.5 0.5 0.22216952410046475 0.7778304758995352 0.5 0.5 7.903889897353052e-05 0.9999209611010265 0.0 1.0 0.36073059360730614 0.6392694063926939 0.6999999999999998 0.30000000000000016 0.41379310344827586 0.5862068965517242 0.4109589041095891 0.589041095890411 0.49984408791906587 0.5001559120809341 1.0 0.0 0.49996104402025715 0.5000389559797429 0.0 1.0 0.07678451573176961 0.9232154842682303 0.10247787484509707 0.8975221251549029 0.022968615342700914 0.977031384657299 0.018747510947346474 0.9812524890526535 0.07167235494880544 0.9283276450511946 0.5 0.5 0.28767123287671237 0.7123287671232876 0.05000000000000006 0.9499999999999998 7.643093958764968e-05 0.9999235690604124 0.5003796759402173 0.49962032405978285 0.6588320209312389 0.34116797906876106 0.0 1.0 </TABLE>
    </DEFINITION>
    <DEFINITION>
      <FOR>memory_usage</FOR>
      <TABLE>1.0 </TABLE>
    </DEFINITION>
    <DEFINITION>
      <FOR>pixel</FOR>
      <GIVEN>bitrate</GIVEN>
      <TABLE>0.0 0.0 0.0 0.0 1.0 1.0 0.0 0.0 0.0 0.0 1.0 0.0 0.0 0.0 0.0 0.0 0.0 0.0 1.0 0.0 0.0 1.0 0.0 0.0 0.0 0.0 0.0 1.0 0.0 0.0 0.0 0.0 0.0 0.0 1.0 0.0 0.0 0.0 1.0 0.0 0.0 0.0 0.0 1.0 0.0 </TABLE>
    </DEFINITION>
    <DEFINITION>
      <FOR>stream_count</FOR>
      <GIVEN>bitrate</GIVEN>
      <TABLE>0.6999999999999998 0.0 0.10000000000000006 0.05000000000000003 0.15000000000000008 0.0 0.0 0.0 0.0 0.0 1.0 0.0 0.0 0.0 0.0 0.0 0.0 0.0 0.0 0.0 0.5 0.0 0.5 0.0 0.0 0.0 0.0 0.0 0.0 0.0 0.0 1.0 0.0 0.0 0.0 0.0 0.0 0.0 0.0 0.0 0.07999999999999997 0.03999999999999999 0.3600000000000001 0.03999999999999999 0.03999999999999999 0.0 0.0 0.0 0.44 0.0 0.0 0.9971988795518207 0.0 0.0 0.0 0.0 0.0 0.0 0.0 0.0028011204481792717 0.7278649920140523 0.03995395033231329 0.00846354641876805 0.0010810810810810809 0.0028211821395893494 0.029292902476974574 0.012365809639438478 0.006723445360259782 0.08397644421025328 0.08745664632726985 0.4090909090909091 0.0 0.0 0.13636363636363638 0.4545454545454545 0.0 0.0 0.0 0.0 0.0 0.019803762616180054 0.0 0.0033135090999453043 0.0016567545499726521 0.975225973733902 0.0 0.0 0.0 0.0 0.0 </TABLE>
    </DEFINITION>
    <DEFINITION>
      <FOR>success</FOR>
      <GIVEN>pixel</GIVEN>
      <TABLE>0.9137931034482759 0.08620689655172413 0.027272727272727275 0.9727272727272728 0.0 1.0 0.00015036161139474487 0.9998496383886053 0.004489639694395456 0.9955103603056046 </TABLE>
    </DEFINITION>
  </NETWORK>
</BIF>
