<?xml version='1.0' encoding='utf-8'?>
<BIF VERSION="0.3">
  <NETWORK>
    <NAME>UNTITLED</NAME>
    <VARIABLE TYPE="nature">
      <NAME>bitrate</NAME>
      <OUTCOME>10800</OUTCOME>
      <OUTCOME>10920</OUTCOME>
      <OUTCOME>12600</OUTCOME>
      <OUTCOME>1680</OUTCOME>
      <OUTCOME>2160</OUTCOME>
      <OUTCOME>2520</OUTCOME>
      <OUTCOME>2640</OUTCOME>
      <OUTCOME>3120</OUTCOME>
      <OUTCOME>3240</OUTCOME>
      <OUTCOME>3360</OUTCOME>
      <OUTCOME>3600</OUTCOME>
      <OUTCOME>3960</OUTCOME>
      <OUTCOME>4200</OUTCOME>
      <OUTCOME>4320</OUTCOME>
      <OUTCOME>4680</OUTCOME>
      <OUTCOME>5040</OUTCOME>
      <OUTCOME>5280</OUTCOME>
      <OUTCOME>5400</OUTCOME>
      <OUTCOME>5880</OUTCOME>
      <OUTCOME>6240</OUTCOME>
      <OUTCOME>6480</OUTCOME>
      <OUTCOME>6600</OUTCOME>
      <OUTCOME>7200</OUTCOME>
      <OUTCOME>7560</OUTCOME>
      <OUTCOME>7800</OUTCOME>
      <OUTCOME>7920</OUTCOME>
      <OUTCOME>9000</OUTCOME>
      <OUTCOME>9240</OUTCOME>
      <OUTCOME>9360</OUTCOME>
      <PROPERTY>weight = None</PROPERTY>
    </VARIABLE>
    <VARIABLE TYPE="nature">
      <NAME>consumption</NAME>
      <OUTCOME>6</OUTCOME>
      <OUTCOME>7</OUTCOME>
      <PROPERTY>weight = None</PROPERTY>
    </VARIABLE>
    <VARIABLE TYPE="nature">
      <NAME>cpu_utilization</NAME>
      <OUTCOME>High</OUTCOME>
      <OUTCOME>Low</OUTCOME>
      <OUTCOME>Mid</OUTCOME>
      <OUTCOME>Very_High</OUTCOME>
      <PROPERTY>weight = None</PROPERTY>
    </VARIABLE>
    <VARIABLE TYPE="nature">
      <NAME>distance</NAME>
      <OUTCOME>False</OUTCOME>
      <OUTCOME>True</OUTCOME>
      <PROPERTY>weight = None</PROPERTY>
    </VARIABLE>
    <VARIABLE TYPE="nature">
      <NAME>fps</NAME>
      <OUTCOME>14</OUTCOME>
      <OUTCOME>18</OUTCOME>
      <OUTCOME>22</OUTCOME>
      <OUTCOME>26</OUTCOME>
      <OUTCOME>30</OUTCOME>
      <PROPERTY>weight = None</PROPERTY>
    </VARIABLE>
    <VARIABLE TYPE="nature">
      <NAME>in_time</NAME>
      <OUTCOME>False</OUTCOME>
      <OUTCOME>True</OUTCOME>
      <PROPERTY>weight = None</PROPERTY>
    </VARIABLE>
    <VARIABLE TYPE="nature">
      <NAME>memory_usage</NAME>
      <OUTCOME>Mid</OUTCOME>
      <PROPERTY>weight = None</PROPERTY>
    </VARIABLE>
    <VARIABLE TYPE="nature">
      <NAME>network</NAME>
      <OUTCOME>True</OUTCOME>
      <PROPERTY>weight = None</PROPERTY>
    </VARIABLE>
    <VARIABLE TYPE="nature">
      <NAME>pixel</NAME>
      <OUTCOME>120</OUTCOME>
      <OUTCOME>180</OUTCOME>
      <OUTCOME>240</OUTCOME>
      <OUTCOME>300</OUTCOME>
      <OUTCOME>360</OUTCOME>
      <OUTCOME>420</OUTCOME>
      <PROPERTY>weight = None</PROPERTY>
    </VARIABLE>
    <VARIABLE TYPE="nature">
      <NAME>stream_count</NAME>
      <OUTCOME>1</OUTCOME>
      <OUTCOME>10</OUTCOME>
      <OUTCOME>2</OUTCOME>
      <OUTCOME>3</OUTCOME>
      <OUTCOME>4</OUTCOME>
      <OUTCOME>5</OUTCOME>
      <OUTCOME>6</OUTCOME>
      <OUTCOME>7</OUTCOME>
      <OUTCOME>8</OUTCOME>
      <OUTCOME>9</OUTCOME>
      <PROPERTY>weight = None</PROPERTY>
    </VARIABLE>
    <VARIABLE TYPE="nature">
      <NAME>success</NAME>
      <OUTCOME>False</OUTCOME>
      <OUTCOME>True</OUTCOME>
      <PROPERTY>weight = None</PROPERTY>
    </VARIABLE>
    <DEFINITION>
      <FOR>bitrate</FOR>
      <GIVEN>stream_count</GIVEN>
      <TABLE>0.03893677607581118 0.03374520593236969 0.03893677607581118 0.0 0.03504309846823005 0.01817049550204522 0.0 0.0 0.02336206564548671 0.01817049550204522 0.03893677607581118 0.042830453683392306 0.0 0.0 0.0 0.0 0.042830453683392306 0.03893677607581118 0.1817049550204522 0.03374520593236969 0.02336206564548671 0.014276817894464089 0.03893677607581118 0.02336206564548671 0.03374520593236969 0.15921505010404888 0.03893677607581118 0.028553635788928177 0.0542620731645654 0.0 0.0 0.0 0.0 0.0 0.0 0.0 0.0 0.0 0.8833333333333333 0.0 0.0 0.04999999999999997 0.0 0.0 0.033333333333333326 0.0 0.0 0.033333333333333326 0.0 0.0 0.0 0.0 0.0 0.0 0.0 0.0 0.0 0.0 0.06429372328955127 0.2043111651201296 0.0026413181059956096 0.02000249169008261 0.0 0.0 0.0 0.03714748456729629 0.0 0.0 0.0 0.0 0.0012295801861935715 0.025717489315820508 0.03714748456729629 0.03206345763847518 0.0 0.025717489315820508 0.010001245845041305 0.0 0.0 0.0 0.0 0.03857623397373075 0.0 0.0 0.04286248219303415 0.45577106065259654 0.0025172935389359396 0.0 0.05819811329096109 0.0 0.0 0.0 0.0 0.0 0.0 0.0 0.0 0.0 0.0 0.8461110316916645 0.0 0.0 0.047006168427314705 0.0 0.0 0.0 0.0 0.001539064014191284 0.0 0.0 0.0 0.0 0.0 0.0 0.0471456225758684 0.0 0.0 0.0 0.0 0.0 0.0 0.03301886792452833 0.02594339622641511 0.0 0.0 0.03301886792452833 0.0 0.0 0.9080188679245282 0.0 0.0 0.0 0.0 0.0 0.0 0.0 0.0 0.0 0.0 0.0 0.0 0.0 0.0 0.0 0.0 0.0 0.0 0.0 0.0 0.0 0.0 0.0 0.08904109589041084 0.0 0.03196347031963468 0.0 0.0 0.8789954337899545 0.0 0.0 0.0 0.0 0.0 0.0 0.0 0.0 0.0 0.0 0.0 0.0 0.0 0.0 0.0 0.0 0.0 0.0 0.0 0.0 0.0 0.0 0.0 0.0 0.0 0.03333333333333334 0.0 0.0 0.9666666666666666 0.0 0.0 0.0 0.0 0.0 0.0 0.0 0.0 0.0 0.0 0.0 0.0 0.0 0.0 0.0 0.0 0.0 0.0 0.0 0.0 0.0 0.0 0.0 0.0 0.0 0.0 0.0 0.0 1.0 0.0 0.0 0.0 0.0 0.0 0.0 0.0 0.0 0.0 0.0 0.0 0.0 0.0 0.0 0.0 0.0 0.0 0.0 0.0 0.0 0.0 0.0 0.0 0.0 0.0 0.03333333333333333 0.0 0.0 0.9333333333333332 0.0 0.0 0.03333333333333333 0.0 0.0 0.0 0.0 0.0 0.0 0.0 0.0 0.0 0.0 0.0 0.0 0.0 0.0 0.0 0.0 0.0 0.0 0.0 0.0 0.0 0.021327014218009484 0.0 0.0 0.0 0.9786729857819906 0.0 0.0 0.0 0.0 0.0 0.0 0.0 0.0 0.0 0.0 0.0 0.0 0.0 0.0 0.0 0.0 </TABLE>
    </DEFINITION>
    <DEFINITION>
      <FOR>consumption</FOR>
      <GIVEN>in_time</GIVEN>
      <GIVEN>pixel</GIVEN>
      <GIVEN>stream_count</GIVEN>
      <TABLE>0.8461538461538463 0.15384615384615383 0.5 0.5 0.8888888888888888 0.1111111111111111 0.5 0.5 0.75 0.25 0.7313432835820896 0.26865671641791045 0.5 0.5 0.5 0.5 0.5 0.5 0.5 0.5 0.967741935483871 0.03225806451612903 0.5 0.5 0.7999999999999999 0.19999999999999998 0.5 0.5 0.7142857142857143 0.28571428571428575 0.5 0.5 0.5 0.5 0.5 0.5 0.5 0.5 0.8666666666666667 0.13333333333333333 0.9622641509433962 0.037735849056603744 0.15929203539823006 0.84070796460177 0.8888888888888888 0.1111111111111111 0.5 0.5 0.75 0.25 0.7142857142857143 0.28571428571428575 0.3333333333333333 0.6666666666666666 0.5 0.5 0.40000000000000013 0.5999999999999999 0.5 0.5 0.7333333333333333 0.2666666666666668 0.08 0.92 0.918039994061287 0.08196000593871305 0.6666666666666666 0.3333333333333333 0.7083333333333334 0.2916666666666666 0.45061728395061734 0.5493827160493827 0.36224489795918363 0.6377551020408164 0.2920000000000001 0.7079999999999999 0.19344262295081974 0.8065573770491803 0.1978319783197833 0.8021680216802166 0.7677007307486663 0.2322992692513338 0.0 1.0 0.8958714370631964 0.10412856293680364 0.5385019710906699 0.4614980289093301 0.5 0.5 0.5 0.5 0.5 0.5 0.5 0.5 0.30000000000000004 0.7000000000000001 0.5 0.5 0.75 0.25 0.055555555555555546 0.9444444444444444 0.6045792397114035 0.3954207602885965 0.15599237628070076 0.8440076237192992 0.5 0.5 0.5 0.5 0.5 0.5 0.5 0.5 0.5 0.5 0.5 0.5 0.9405940594059407 0.0594059405940594 0.5 0.5 0.9436619718309859 0.05633802816901411 0.5 0.5 0.7777777777777778 0.22222222222222215 0.3636363636363636 0.6363636363636364 0.5 0.5 0.5 0.5 0.5 0.5 0.5 0.5 0.9375 0.0625 0.5 0.5 0.9148936170212765 0.08510638297872346 0.5 0.5 0.9047619047619047 0.09523809523809533 0.5 0.5 0.5 0.5 0.5 0.5 0.5 0.5 0.3333333333333333 0.6666666666666666 0.8496732026143791 0.15032679738562096 0.04714640198511167 0.9528535980148882 0.6666666666666666 0.3333333333333333 0.5 0.5 0.3333333333333333 0.6666666666666666 0.04761904761904762 0.9523809523809523 0.1818181818181818 0.8181818181818181 0.5 0.5 0.055555555555555546 0.9444444444444444 0.5 0.5 0.9159663865546217 0.0840336134453782 0.0 1.0 0.8857569483656441 0.11424305163435598 0.6743827160493827 0.3256172839506173 0.21846153846153846 0.7815384615384616 0.04440789473684211 0.955592105263158 0.03733766233766232 0.9626623376623377 0.049152542372881344 0.9508474576271188 0.0521920668058455 0.9478079331941545 0.04814004376367616 0.9518599562363239 0.8809347349956875 0.11906526500431253 0.0 1.0 0.8049830392084671 0.19501696079153288 0.6201165011055841 0.3798834988944158 0.5 0.5 0.5 0.5 0.5 0.5 0.5 0.5 0.055555555555555546 0.9444444444444444 0.5 0.5 0.8519417475728154 0.14805825242718457 0.0 1.0 0.6429067188513912 0.3570932811486088 0.062174749583662904 0.9378252504163371 0.5 0.5 0.5 0.5 0.5 0.5 0.5 0.5 0.5 0.5 0.5 0.5 </TABLE>
    </DEFINITION>
    <DEFINITION>
      <FOR>cpu_utilization</FOR>
      <GIVEN>consumption</GIVEN>
      <GIVEN>in_time</GIVEN>
      <GIVEN>stream_count</GIVEN>
      <TABLE>0.0 1.0 0.0 0.0 0.0 1.0 0.0 0.0 0.0 1.0 0.0 0.0 0.0 1.0 0.0 0.0 0.0 1.0 0.0 0.0 0.0 1.0 0.0 0.0 0.0 1.0 0.0 0.0 0.0 1.0 0.0 0.0 0.0 1.0 0.0 0.0 0.0 1.0 0.0 0.0 0.0 1.0 0.0 0.0 0.0 1.0 0.0 0.0 0.0 1.0 0.0 0.0 0.0 1.0 0.0 0.0 0.0 1.0 0.0 0.0 0.0 1.0 0.0 0.0 0.0 1.0 0.0 0.0 0.0 1.0 0.0 0.0 0.0 1.0 0.0 0.0 0.0 1.0 0.0 0.0 0.14297004196000468 0.25718975865109406 0.19988013898289578 0.3999600604060054 0.08187134502923975 0.5555555555555555 0.3538011695906432 0.008771929824561403 0.10142992337822428 0.3621935656444345 0.17398590785898296 0.3623906031183582 0.1559135079579727 0.43785108135973405 0.23473055192852335 0.17150485875376997 0.20512820512820507 0.3076923076923077 0.17948717948717954 0.3076923076923077 0.21100917431192673 0.5137614678899083 0.20183486238532108 0.07339449541284405 0.16279069767441862 0.5116279069767442 0.2790697674418605 0.04651162790697673 0.10169491525423734 0.5536723163841807 0.3050847457627119 0.03954802259887006 0.10424710424710432 0.5598455598455598 0.2972972972972973 0.03861003861003861 0.0738255033557047 0.5671140939597314 0.3389261744966443 0.020134228187919462 0.14118913280848036 0.3420876112838743 0.2280569505840164 0.288666305323629 0.07819905213270141 0.2393364928909954 0.6729857819905212 0.00947867298578199 0.09413091109601106 0.5522170792325622 0.33496135078394956 0.018690658887477077 0.15123878838063698 0.4236135076294076 0.3773298381539098 0.04781786583604556 0.07358490566037736 0.5566037735849058 0.35283018867924526 0.016981132075471694 0.07401315789473681 0.3766447368421051 0.5394736842105264 0.009868421052631575 0.04418985270049101 0.3780687397708673 0.5679214402618659 0.009819967266775777 0.04812834224598931 0.3048128342245989 0.6399286987522281 0.0071301247771836 0.06352459016393441 0.31147540983606564 0.6168032786885247 0.008196721311475409 0.05720823798627005 0.2562929061784897 0.6819221967963387 0.004576659038901602 </TABLE>
    </DEFINITION>
    <DEFINITION>
      <FOR>distance</FOR>
      <GIVEN>fps</GIVEN>
      <GIVEN>in_time</GIVEN>
      <TABLE>0.005918649743409324 0.9940813502565907 0.021086442964521522 0.9789135570354784 0.12161096707745857 0.8783890329225414 0.12911803655516296 0.870881963444837 0.014076243716993822 0.9859237562830062 0.007627261411316952 0.992372738588683 0.36858575154525147 0.6314142484547486 0.017091669467337898 0.9829083305326621 0.011761587200931452 0.9882384127990685 0.09976192575610628 0.9002380742438938 </TABLE>
    </DEFINITION>
    <DEFINITION>
      <FOR>fps</FOR>
      <GIVEN>bitrate</GIVEN>
      <TABLE>0.0 0.0 0.0 0.0 1.0 0.0 0.0 0.0 1.0 0.0 0.0 0.0 0.0 0.0 1.0 1.0 0.0 0.0 0.0 0.0 0.0 1.0 0.0 0.0 0.0 1.0 0.0 0.0 0.0 0.0 0.0 0.0 1.0 0.0 0.0 0.0 0.0 0.0 1.0 0.0 0.0 1.0 0.0 0.0 0.0 1.0 0.0 0.0 0.0 0.0 0.0 0.0 0.0 0.0 1.0 0.0 0.0 1.0 0.0 0.0 1.0 0.0 0.0 0.0 0.0 0.0 1.0 0.0 0.0 0.0 0.0 0.0 0.0 1.0 0.0 1.0 0.0 0.0 0.0 0.0 0.0 0.0 1.0 0.0 0.0 0.0 0.375 0.0 0.0 0.625 1.0 0.0 0.0 0.0 0.0 0.0 0.0 0.0 1.0 0.0 0.0 1.0 0.0 0.0 0.0 0.0 0.0 1.0 0.0 0.0 0.0 0.0 0.0 0.0 1.0 0.0 1.0 0.0 0.0 0.0 0.0 0.0 0.0 1.0 0.0 0.0 0.0 1.0 0.0 0.0 0.0 0.0 0.0 0.0 1.0 0.0 0.0 1.0 0.0 0.0 0.0 0.0 0.0 1.0 0.0 </TABLE>
    </DEFINITION>
    <DEFINITION>
      <FOR>in_time</FOR>
      <GIVEN>bitrate</GIVEN>
      <GIVEN>stream_count</GIVEN>
      <TABLE>0.0833333333333334 0.9166666666666666 0.5 0.5 0.9444444444444444 0.055555555555555546 0.5 0.5 0.5 0.5 0.5 0.5 0.5 0.5 0.5 0.5 0.5 0.5 0.5 0.5 0.1923076923076924 0.8076923076923076 0.5 0.5 0.10489510489510485 0.8951048951048951 0.44230769230769235 0.5576923076923077 0.5 0.5 0.5 0.5 0.5 0.5 0.5 0.5 0.5 0.5 0.5 0.5 0.03333333333333334 0.9666666666666666 0.5 0.5 0.49894217207334274 0.5010578279266573 0.5 0.5 0.5 0.5 0.5 0.5 0.5 0.5 0.5 0.5 0.5 0.5 0.5 0.5 0.5 0.5 0.5 0.5 0.14285714285714293 0.8571428571428571 0.5 0.5 0.5 0.5 0.5 0.5 0.5 0.5 0.5 0.5 0.5 0.5 0.5 0.5 0.1666666666666665 0.8333333333333335 0.5 0.5 0.5 0.5 0.5 0.5 0.5 0.5 0.5 0.5 0.5 0.5 0.5 0.5 0.5 0.5 0.5 0.5 0.25 0.75 0.5 0.5 0.5 0.5 0.5 0.5 0.25 0.75 0.5 0.5 0.5 0.5 0.5 0.5 0.5 0.5 0.5 0.5 0.5 0.5 0.5 0.5 0.5 0.5 0.5 0.5 0.1818181818181818 0.8181818181818181 0.5 0.5 0.5 0.5 0.5 0.5 0.5 0.5 0.5 0.5 0.5 0.5 0.5 0.5 0.09615384615384621 0.9038461538461537 0.5 0.5 0.5 0.5 0.8589743589743589 0.14102564102564105 0.5 0.5 0.5 0.5 0.5 0.5 0.5 0.5 0.22222222222222215 0.7777777777777778 0.5 0.5 0.5 0.5 0.5 0.5 0.5 0.5 0.5 0.5 0.5 0.5 0.5 0.5 0.5 0.5 0.8333333333333335 0.1666666666666665 0.14285714285714293 0.8571428571428571 0.4568733153638814 0.5431266846361186 0.5 0.5 0.5 0.5 0.14285714285714293 0.8571428571428571 0.25 0.75 0.21428571428571427 0.7857142857142857 0.5 0.5 0.3571428571428571 0.642857142857143 0.5 0.5 0.0666666666666667 0.9333333333333333 0.5 0.5 0.5 0.5 0.5 0.5 0.5 0.5 0.5 0.5 0.5 0.5 0.5 0.5 0.5 0.5 0.5 0.5 0.6363636363636364 0.3636363636363636 0.5 0.5 0.5 0.5 0.5 0.5 0.5 0.5 0.5 0.5 0.5 0.5 0.5 0.5 0.5 0.5 0.5 0.5 0.5 0.5 0.5952380952380952 0.4047619047619048 0.49947303706305984 0.5005269629369401 0.14285714285714293 0.8571428571428571 0.15584415584415584 0.8441558441558442 0.21038961038961024 0.7896103896103899 0.24137931034482776 0.7586206896551723 0.2976190476190476 0.7023809523809523 0.38903061224489793 0.610969387755102 0.44673123486682825 0.5532687651331718 0.5 0.5 0.5 0.5 0.5 0.5 0.5 0.5 0.5 0.5 0.5 0.5 0.5 0.5 0.5 0.5 0.5 0.5 0.5 0.5 0.5 0.5 0.5 0.5 0.09615384615384621 0.9038461538461537 0.5 0.5 0.5 0.5 0.5 0.5 0.5 0.5 0.5 0.5 0.5 0.5 0.5 0.5 0.5 0.5 0.6071428571428571 0.39285714285714285 0.07267822499006679 0.9273217750099332 0.30952380952380953 0.6904761904761905 0.5 0.5 0.5 0.5 0.5 0.5 0.5 0.5 0.3571428571428571 0.642857142857143 0.5 0.5 0.5757575757575758 0.4242424242424242 0.5 0.5 0.5 0.5 0.5 0.5 0.5 0.5 0.5 0.5 0.5 0.5 0.5 0.5 0.5 0.5 0.5 0.5 0.0833333333333334 0.9166666666666666 0.5 0.5 0.1111111111111111 0.8888888888888888 0.5 0.5 0.5 0.5 0.5 0.5 0.5 0.5 0.5 0.5 0.5 0.5 0.5 0.5 0.13571428571428568 0.8642857142857143 0.642857142857143 0.3571428571428571 0.14285714285714293 0.8571428571428571 0.5 0.5 0.5 0.5 0.5 0.5 0.5 0.5 0.5 0.5 0.5 0.5 0.5 0.5 0.09615384615384621 0.9038461538461537 0.5 0.5 0.5 0.5 0.5 0.5 0.5 0.5 0.5 0.5 0.5 0.5 0.5 0.5 0.5 0.5 0.5 0.5 0.027777777777777794 0.9722222222222222 0.5 0.5 0.5 0.5 0.4993002099370189 0.5006997900629812 0.5 0.5 0.5 0.5 0.5 0.5 0.5 0.5 0.5 0.5 0.5 0.5 0.0909090909090909 0.9090909090909092 0.5 0.5 0.5 0.5 0.5 0.5 0.5 0.5 0.5 0.5 0.5 0.5 0.5 0.5 0.5 0.5 0.5 0.5 0.10000000000000012 0.8999999999999998 0.5 0.5 0.5 0.5 0.5 0.5 0.5 0.5 0.5 0.5 0.5 0.5 0.5 0.5 0.5 0.5 0.5 0.5 0.055555555555555546 0.9444444444444444 0.5 0.5 0.3148148148148148 0.6851851851851852 0.5 0.5 0.5 0.5 0.5 0.5 0.5 0.5 0.5 0.5 0.5 0.5 0.5 0.5 0.13461538461538464 0.8653846153846153 0.5 0.5 0.5 0.5 0.5 0.5 0.5 0.5 0.5 0.5 0.5 0.5 0.5 0.5 0.5 0.5 0.5 0.5 0.14450908425091344 0.8554909157490865 0.5 0.5 0.5 0.5 0.5 0.5 0.5 0.5 0.5 0.5 0.5 0.5 0.5 0.5 0.5 0.5 0.5 0.5 0.10000000000000012 0.8999999999999998 0.5 0.5 0.9500000000000001 0.05000000000000002 0.5 0.5 0.5 0.5 0.5 0.5 0.5 0.5 0.5 0.5 0.5 0.5 0.5 0.5 0.1818181818181818 0.8181818181818181 0.5 0.5 0.1253918495297806 0.8746081504702194 0.13832616460199013 0.8616738353980098 0.5 0.5 0.5 0.5 0.5 0.5 0.5 0.5 0.5 0.5 0.5 0.5 0.041124785650333104 0.9588752143496668 0.5 0.5 0.49940968122786294 0.5005903187721371 0.5 0.5 0.5 0.5 0.5 0.5 0.5 0.5 0.5 0.5 0.5 0.5 0.5 0.5 </TABLE>
    </DEFINITION>
    <DEFINITION>
      <FOR>memory_usage</FOR>
      <TABLE>1.0 </TABLE>
    </DEFINITION>
    <DEFINITION>
      <FOR>network</FOR>
      <TABLE>1.0 </TABLE>
    </DEFINITION>
    <DEFINITION>
      <FOR>pixel</FOR>
      <GIVEN>bitrate</GIVEN>
      <TABLE>0.0 0.0 0.0 0.0 1.0 0.0 0.0 0.0 0.0 0.0 0.0 1.0 0.0 0.0 0.0 0.0 0.0 1.0 1.0 0.0 0.0 0.0 0.0 0.0 1.0 0.0 0.0 0.0 0.0 0.0 0.0 1.0 0.0 0.0 0.0 0.0 1.0 0.0 0.0 0.0 0.0 0.0 1.0 0.0 0.0 0.0 0.0 0.0 0.0 1.0 0.0 0.0 0.0 0.0 0.0 0.0 1.0 0.0 0.0 0.0 1.0 0.0 0.0 0.0 0.0 0.0 0.0 1.0 0.0 0.0 0.0 0.0 0.0 0.0 0.0 1.0 0.0 0.0 0.0 0.0 1.0 0.0 0.0 0.0 0.0 1.0 0.0 0.0 0.0 0.0 0.0 0.0 0.0 0.0 1.0 0.0 0.0 0.0 1.0 0.0 0.0 0.0 0.0 0.625 0.0 0.375 0.0 0.0 0.0 0.0 0.0 0.0 0.0 1.0 0.0 0.0 1.0 0.0 0.0 0.0 0.0 0.0 0.0 0.0 1.0 0.0 0.0 0.0 0.0 1.0 0.0 0.0 0.0 0.0 1.0 0.0 0.0 0.0 0.0 0.0 0.0 0.0 0.0 1.0 0.0 0.0 0.0 1.0 0.0 0.0 0.0 0.0 0.0 0.0 1.0 0.0 0.0 0.0 0.0 1.0 0.0 0.0 0.0 0.0 0.0 0.0 0.0 1.0 0.0 0.0 0.0 0.0 1.0 0.0 </TABLE>
    </DEFINITION>
    <DEFINITION>
      <FOR>stream_count</FOR>
      <TABLE>0.16738511228625308 0.08124048112200688 0.15089144216936765 0.1083977644833592 0.08201419998983554 0.08472221602723574 0.08124048112200688 0.08124048112200688 0.08124048112200688 0.08162734055592122 </TABLE>
    </DEFINITION>
    <DEFINITION>
      <FOR>success</FOR>
      <GIVEN>consumption</GIVEN>
      <GIVEN>in_time</GIVEN>
      <GIVEN>pixel</GIVEN>
      <TABLE>0.9436619718309859 0.05633802816901411 0.03658536585365855 0.9634146341463414 0.02222222222222222 0.9777777777777779 0.0 1.0 0.00832211823166028 0.9916778817683397 0.0 1.0 0.9555555555555555 0.044444444444444446 0.15846994535519138 0.8415300546448087 0.005714285714285712 0.9942857142857143 0.01655058277578414 0.9834494172242157 0.00846149648836649 0.9915385035116335 0.005489251167068845 0.9945107488329312 1.0 0.0 0.14285714285714293 0.8571428571428571 0.009933774834437083 0.990066225165563 0.013513513513513514 0.9864864864864864 0.020376095347929002 0.979623904652071 0.0 1.0 1.0 0.0 0.25 0.75 0.03305785123966941 0.9669421487603306 0.02726494092045392 0.972735059079546 0.0004903181724580397 0.9995096818275419 0.006957845226147675 0.9930421547738524 </TABLE>
    </DEFINITION>
  </NETWORK>
</BIF>
