<?xml version='1.0' encoding='utf-8'?>
<BIF VERSION="0.3">
  <NETWORK>
    <NAME>UNTITLED</NAME>
    <VARIABLE TYPE="nature">
      <NAME>bitrate</NAME>
      <OUTCOME>6480</OUTCOME>
      <OUTCOME>2640</OUTCOME>
      <OUTCOME>1680</OUTCOME>
      <OUTCOME>3120</OUTCOME>
      <OUTCOME>3240</OUTCOME>
      <OUTCOME>3600</OUTCOME>
      <OUTCOME>3960</OUTCOME>
      <OUTCOME>4200</OUTCOME>
      <OUTCOME>4680</OUTCOME>
      <OUTCOME>5040</OUTCOME>
      <OUTCOME>5280</OUTCOME>
      <OUTCOME>5400</OUTCOME>
      <OUTCOME>5880</OUTCOME>
      <OUTCOME>6240</OUTCOME>
      <OUTCOME>6600</OUTCOME>
      <OUTCOME>7200</OUTCOME>
      <OUTCOME>7560</OUTCOME>
      <OUTCOME>7800</OUTCOME>
      <OUTCOME>7920</OUTCOME>
      <OUTCOME>9000</OUTCOME>
      <OUTCOME>9240</OUTCOME>
      <OUTCOME>9360</OUTCOME>
      <OUTCOME>10800</OUTCOME>
      <OUTCOME>10920</OUTCOME>
      <OUTCOME>12600</OUTCOME>
      <PROPERTY>weight = None</PROPERTY>
    </VARIABLE>
    <VARIABLE TYPE="nature">
      <NAME>consumption</NAME>
      <OUTCOME>100</OUTCOME>
      <PROPERTY>weight = None</PROPERTY>
    </VARIABLE>
    <VARIABLE TYPE="nature">
      <NAME>cpu_utilization</NAME>
      <OUTCOME>High</OUTCOME>
      <OUTCOME>Low</OUTCOME>
      <OUTCOME>Mid</OUTCOME>
      <OUTCOME>Very_High</OUTCOME>
      <PROPERTY>weight = None</PROPERTY>
    </VARIABLE>
    <VARIABLE TYPE="nature">
      <NAME>distance</NAME>
      <OUTCOME>False</OUTCOME>
      <OUTCOME>True</OUTCOME>
      <PROPERTY>weight = None</PROPERTY>
    </VARIABLE>
    <VARIABLE TYPE="nature">
      <NAME>fps</NAME>
      <OUTCOME>14</OUTCOME>
      <OUTCOME>18</OUTCOME>
      <OUTCOME>22</OUTCOME>
      <OUTCOME>26</OUTCOME>
      <OUTCOME>30</OUTCOME>
      <PROPERTY>weight = None</PROPERTY>
    </VARIABLE>
    <VARIABLE TYPE="nature">
      <NAME>in_time</NAME>
      <OUTCOME>False</OUTCOME>
      <OUTCOME>True</OUTCOME>
      <PROPERTY>weight = None</PROPERTY>
    </VARIABLE>
    <VARIABLE TYPE="nature">
      <NAME>memory_usage</NAME>
      <OUTCOME>Low</OUTCOME>
      <PROPERTY>weight = None</PROPERTY>
    </VARIABLE>
    <VARIABLE TYPE="nature">
      <NAME>pixel</NAME>
      <OUTCOME>120</OUTCOME>
      <OUTCOME>180</OUTCOME>
      <OUTCOME>240</OUTCOME>
      <OUTCOME>300</OUTCOME>
      <OUTCOME>360</OUTCOME>
      <OUTCOME>420</OUTCOME>
      <PROPERTY>weight = None</PROPERTY>
    </VARIABLE>
    <VARIABLE TYPE="nature">
      <NAME>stream_count</NAME>
      <OUTCOME>1</OUTCOME>
      <OUTCOME>2</OUTCOME>
      <OUTCOME>3</OUTCOME>
      <OUTCOME>4</OUTCOME>
      <OUTCOME>5</OUTCOME>
      <OUTCOME>6</OUTCOME>
      <OUTCOME>7</OUTCOME>
      <OUTCOME>8</OUTCOME>
      <OUTCOME>9</OUTCOME>
      <OUTCOME>10</OUTCOME>
      <PROPERTY>weight = None</PROPERTY>
    </VARIABLE>
    <VARIABLE TYPE="nature">
      <NAME>success</NAME>
      <OUTCOME>False</OUTCOME>
      <OUTCOME>True</OUTCOME>
      <PROPERTY>weight = None</PROPERTY>
    </VARIABLE>
    <DEFINITION>
      <FOR>bitrate</FOR>
      <GIVEN>fps</GIVEN>
      <TABLE>0.06451612903225806 0.0 0.0 0.0 0.0 0.0 0.06451612903225806 0.0 0.3387096774193548 0.0 0.0 0.532258064516129 0.0 0.0 0.0 0.0 0.0 0.0 0.0 0.0 0.0 0.0 0.0 0.0 0.0 0.0032763014197306154 0.0 0.0 0.03378724401967015 0.0 0.0 0.0 0.0 0.0 0.0 0.03378724401967015 0.0 0.0 0.675744880393403 0.0 0.0 0.2534043301475261 0.0 0.0 0.0 0.0 0.0 0.0 0.0 0.0 0.0 0.21666666666666667 0.0 0.0 0.0 0.05 0.0 0.0 0.0 0.03333333333333333 0.0 0.0 0.0 0.0 0.45000000000000007 0.0 0.0 0.0 0.16666666666666666 0.0 0.08333333333333333 0.0 0.0 0.0 0.0 0.0 0.0 0.11363636363636365 0.0 0.0 0.0 0.0 0.2272727272727273 0.0 0.0 0.0 0.0 0.3863636363636364 0.0 0.0 0.0 0.0 0.11363636363636365 0.0 0.0 0.0 0.11363636363636365 0.0 0.04545454545454546 0.0 0.0 0.0 0.0 0.0 0.17647058823529416 0.0 0.0 0.0 0.0 0.0 0.11764705882352944 0.0 0.0 0.0 0.0 0.3823529411764706 0.0 0.0 0.0 0.11764705882352944 0.0 0.0 0.08823529411764708 0.0 0.11764705882352944 </TABLE>
    </DEFINITION>
    <DEFINITION>
      <FOR>consumption</FOR>
      <TABLE>1.0 </TABLE>
    </DEFINITION>
    <DEFINITION>
      <FOR>cpu_utilization</FOR>
      <GIVEN>bitrate</GIVEN>
      <GIVEN>in_time</GIVEN>
      <TABLE>0.0 1.0 0.0 0.0 0.0935405391986495 0.5075153501150224 0.38081856246793444 0.01812554821839366 0.13043478260869565 0.30434782608695654 0.5652173913043478 0.0 0.41064638783269963 0.030418250950570342 0.55893536121673 0.0 0.21428571428571427 0.5 0.2857142857142857 0.0 0.8017241379310346 0.017241379310344827 0.1724137931034483 0.008620689655172414 0.0 0.3333333333333333 0.6666666666666666 0.0 0.8484848484848484 0.0 0.15151515151515152 0.0 0.24999999999999997 0.29999999999999993 0.39999999999999997 0.049999999999999996 0.7375 0.0125 0.23125 0.01875 0.25 0.25 0.5 0.0 0.7580645161290323 0.04838709677419354 0.19354838709677416 0.0 0.0 1.0 0.0 0.0 0.11764705882352941 0.058823529411764705 0.6470588235294118 0.17647058823529413 0.2647058823529412 0.35294117647058826 0.2647058823529412 0.11764705882352941 0.8185840707964602 0.017699115044247787 0.084070796460177 0.07964601769911504 0.034482758620689655 0.6896551724137931 0.27586206896551724 0.0 0.33207547169811324 0.041509433962264156 0.618867924528302 0.007547169811320756 0.25 0.25 0.5 0.0 0.9000000000000001 0.025 0.075 0.0 0.0625 0.3125 0.625 0.0 0.7571428571428571 0.02142857142857143 0.20714285714285713 0.014285714285714285 0.0 0.7878787878787878 0.2121212121212121 0.0 0.0675990675990676 0.28438228438228436 0.6480186480186481 0.0 0.07894736842105263 0.47368421052631576 0.4473684210526316 0.0 0.5148514851485148 0.012376237623762375 0.46039603960396036 0.012376237623762375 0.02 0.68 0.3 0.0 0.43283582089552236 0.07014925373134329 0.4880597014925373 0.008955223880597015 0.02380952380952381 0.6904761904761906 0.2380952380952381 0.04761904761904762 0.5760869565217391 0.018115942028985508 0.40217391304347827 0.003623188405797102 0.4 0.13846153846153847 0.1076923076923077 0.35384615384615387 0.48 0.003076923076923077 0.012307692307692308 0.5046153846153846 0.42857142857142855 0.17142857142857143 0.2571428571428571 0.14285714285714285 0.3021276595744681 0.00425531914893617 0.16595744680851063 0.5276595744680851 0.09090909090909091 0.5454545454545454 0.36363636363636365 0.0 0.9243697478991597 0.008403361344537815 0.03361344537815126 0.03361344537815126 0.0 0.6428571428571429 0.35714285714285715 0.0 0.8009708737864077 0.024271844660194174 0.17475728155339806 0.0 0.36363636363636365 0.0 0.13636363636363635 0.5 0.6428571428571429 0.0 0.030612244897959183 0.32653061224489793 0.7714285714285715 0.02857142857142857 0.17142857142857143 0.02857142857142857 0.7733333333333333 0.0 0.06666666666666667 0.16 0.5416666666666666 0.0625 0.10416666666666669 0.2916666666666667 0.4878048780487805 0.0 0.024390243902439025 0.4878048780487805 0.9148936170212765 0.0 0.0425531914893617 0.0425531914893617 0.7906976744186047 0.0 0.06976744186046513 0.13953488372093026 0.6666666666666666 0.0 0.3333333333333333 0.0 0.8913043478260869 0.0 0.021739130434782608 0.08695652173913043 0.3888888888888889 0.05555555555555556 0.11111111111111112 0.4444444444444445 0.6176470588235294 0.00980392156862745 0.0784313725490196 0.29411764705882354 </TABLE>
    </DEFINITION>
    <DEFINITION>
      <FOR>distance</FOR>
      <GIVEN>bitrate</GIVEN>
      <TABLE>0.5873550366633731 0.4126449633366269 0.2132867132867133 0.7867132867132867 0.8615384615384616 0.13846153846153847 0.0 1.0 0.6555555555555556 0.34444444444444444 0.030303030303030304 0.9696969696969697 0.017857142857142856 0.9821428571428571 0.12307692307692307 0.8769230769230768 0.03061224489795919 0.9693877551020409 0.0 1.0 0.0 1.0 0.025974025974025972 0.9740259740259741 0.0 1.0 0.018055555555555554 0.9819444444444444 0.015151515151515152 0.9848484848484849 0.0 1.0 0.003703703703703703 0.9962962962962962 0.0 1.0 0.009090909090909089 0.9909090909090909 0.0 1.0 0.009090909090909089 0.9909090909090909 0.0 1.0 0.0 1.0 0.0 1.0 0.0 1.0 </TABLE>
    </DEFINITION>
    <DEFINITION>
      <FOR>fps</FOR>
      <TABLE>0.15979980982040523 0.19879173693732322 0.24301353567158399 0.21061173091537277 0.1877831866553149 </TABLE>
    </DEFINITION>
    <DEFINITION>
      <FOR>in_time</FOR>
      <GIVEN>pixel</GIVEN>
      <GIVEN>stream_count</GIVEN>
      <TABLE>0.08443708609271523 0.9155629139072847 0.14583333333333337 0.8541666666666667 0.5 0.5 0.5 0.5 0.5 0.5 0.5 0.5 0.5 0.5 0.5 0.5 0.5 0.5 0.5 0.5 0.10227272727272728 0.8977272727272727 0.058823529411764705 0.9411764705882353 0.5 0.5 0.5 0.5 0.033333333333333326 0.9666666666666666 0.5 0.5 0.5 0.5 0.5 0.5 0.3076923076923077 0.6923076923076923 0.19230769230769232 0.8076923076923077 0.08064516129032258 0.9193548387096774 0.09999999999999999 0.8999999999999999 0.06666666666666667 0.9333333333333333 0.5 0.5 0.10975609756097561 0.8902439024390244 0.01666666666666667 0.9833333333333334 0.5 0.5 0.5 0.5 0.5 0.5 0.2619047619047619 0.7380952380952381 0.08431952662721895 0.9156804733727811 0.5 0.5 0.10256410256410256 0.8974358974358975 0.5 0.5 0.0 1.0 0.0 1.0 0.5 0.5 0.5 0.5 0.5 0.5 0.3108108108108108 0.6891891891891891 0.08333333333333334 0.9166666666666667 0.08452017585617877 0.9154798241438212 0.045454545454545456 0.9545454545454546 0.038461538461538464 0.9615384615384616 0.0 1.0 0.02666666666666667 0.9733333333333334 0.5 0.5 0.5 0.5 0.7833333333333332 0.21666666666666667 0.45192307692307687 0.5480769230769231 0.06374501992031872 0.9362549800796812 0.08928571428571429 0.9107142857142857 0.11111111111111112 0.888888888888889 0.5 0.5 0.0 1.0 0.1694915254237288 0.8305084745762712 0.05555555555555556 0.9444444444444444 0.4772727272727273 0.5227272727272727 0.2916666666666667 0.7083333333333334 0.125 0.875 </TABLE>
    </DEFINITION>
    <DEFINITION>
      <FOR>memory_usage</FOR>
      <TABLE>1.0 </TABLE>
    </DEFINITION>
    <DEFINITION>
      <FOR>pixel</FOR>
      <GIVEN>bitrate</GIVEN>
      <TABLE>0.9967236985802694 0.0 0.0 0.0 0.0032763014197306154 0.0 1.0 0.0 0.0 0.0 0.0 0.0 1.0 0.0 0.0 0.0 0.0 0.0 0.0 1.0 0.0 0.0 0.0 0.0 1.0 0.0 0.0 0.0 0.0 0.0 0.0 1.0 0.0 0.0 0.0 0.0 0.0 0.0 0.0 1.0 0.0 0.0 0.0 1.0 0.0 0.0 0.0 0.0 0.0 0.0 0.0 0.0 1.0 0.0 0.0 0.0 1.0 0.0 0.0 0.0 0.0 0.7692307692307693 0.0 0.2307692307692308 0.0 0.0 0.0 0.0 0.0 0.0 0.0 1.0 0.0 0.0 1.0 0.0 0.0 0.0 0.0 0.0 0.0 0.0 1.0 0.0 0.0 0.0 0.0 1.0 0.0 0.0 0.0 0.0 1.0 0.0 0.0 0.0 0.0 0.0 0.0 0.0 0.0 1.0 0.0 0.0 0.0 1.0 0.0 0.0 0.0 0.0 0.0 0.0 1.0 0.0 0.0 0.0 0.0 1.0 0.0 0.0 0.0 0.0 0.0 0.0 0.0 1.0 0.0 0.0 0.0 0.0 1.0 0.0 0.0 0.0 0.0 0.0 1.0 0.0 0.0 0.0 0.0 0.0 0.0 1.0 0.0 0.0 0.0 0.0 0.0 1.0 </TABLE>
    </DEFINITION>
    <DEFINITION>
      <FOR>stream_count</FOR>
      <GIVEN>bitrate</GIVEN>
      <TABLE>0.9967236985802694 0.0032763014197306154 0.0 0.0 0.0 0.0 0.0 0.0 0.0 0.0 0.923076923076923 0.07692307692307691 0.0 0.0 0.0 0.0 0.0 0.0 0.0 0.0 0.8 0.2 0.0 0.0 0.0 0.0 0.0 0.0 0.0 0.0 0.0 1.0 0.0 0.0 0.0 0.0 0.0 0.0 0.0 0.0 1.0 0.0 0.0 0.0 0.0 0.0 0.0 0.0 0.0 0.0 0.6666666666666666 0.3333333333333333 0.0 0.0 0.0 0.0 0.0 0.0 0.0 0.0 0.75 0.0 0.0 0.0 0.0 0.0 0.0 0.0 0.0 0.25 0.49999999999999994 0.29999999999999993 0.0 0.0 0.0 0.0 0.0 0.0 0.09999999999999999 0.09999999999999999 0.42857142857142855 0.42857142857142855 0.0 0.0 0.0 0.14285714285714285 0.0 0.0 0.0 0.0 1.0 0.0 0.0 0.0 0.0 0.0 0.0 0.0 0.0 0.0 0.8076923076923077 0.0 0.0 0.0 0.19230769230769232 0.0 0.0 0.0 0.0 0.0 0.8787878787878788 0.12121212121212122 0.0 0.0 0.0 0.0 0.0 0.0 0.0 0.0 0.8823529411764707 0.0 0.0 0.0 0.11764705882352941 0.0 0.0 0.0 0.0 0.0 0.725 0.125 0.0 0.0 0.0 0.15 0.0 0.0 0.0 0.0 0.962962962962963 0.0 0.0 0.0 0.0 0.037037037037037035 0.0 0.0 0.0 0.0 0.0 0.07692307692307693 0.15384615384615385 0.0 0.07692307692307693 0.15384615384615385 0.0 0.0 0.0 0.5384615384615384 0.13333333333333333 0.0 0.06666666666666667 0.0 0.06666666666666667 0.0 0.06666666666666667 0.0 0.13333333333333333 0.5333333333333333 0.2 0.0 0.6 0.0 0.2 0.0 0.0 0.0 0.0 0.0 0.6 0.2 0.2 0.0 0.0 0.0 0.0 0.0 0.0 0.0 0.0 0.0 0.0 0.0 0.5 0.0 0.0 0.0 0.0 0.5 0.0 0.0 0.0 0.0 0.0 0.6 0.0 0.4 0.0 0.0 0.0 0.0 0.0 0.2 0.0 0.0 0.0 0.0 0.0 0.8 0.0 0.0 0.0 0.0 0.3333333333333333 0.0 0.0 0.0 0.6666666666666666 0.0 0.0 0.0 0.0 0.0 0.0 1.0 0.0 0.0 0.0 0.0 0.5 0.0 0.0 0.0 0.0 0.0 0.0 0.0 0.5 0.0 </TABLE>
    </DEFINITION>
    <DEFINITION>
      <FOR>success</FOR>
      <GIVEN>bitrate</GIVEN>
      <GIVEN>distance</GIVEN>
      <TABLE>0.9696969696969697 0.030303030303030304 0.9967236985802694 0.0032763014197306154 0.9344262295081968 0.06557377049180328 0.9866666666666667 0.013333333333333334 0.9732142857142857 0.026785714285714284 1.0 0.0 0.5 0.5 0.0 1.0 0.9322033898305085 0.06779661016949154 0.8387096774193549 0.16129032258064516 0.0 1.0 0.046875 0.953125 0.0 1.0 0.0 1.0 0.75 0.25 0.030701754385964914 0.9692982456140351 0.0 1.0 0.0 1.0 0.5 0.5 0.0 1.0 0.5 0.5 0.019230769230769232 0.9807692307692307 0.0 1.0 0.008888888888888889 0.9911111111111112 0.5 0.5 0.004524886877828055 0.995475113122172 0.0 1.0 0.0 1.0 0.0 1.0 0.0034188034188034184 0.9965811965811965 0.5 0.5 0.010256410256410255 0.9897435897435897 0.0 1.0 0.0 1.0 0.5 0.5 0.023076923076923078 0.9769230769230769 0.0 1.0 0.0045871559633027525 0.9954128440366973 0.5 0.5 0.025000000000000005 0.9750000000000001 0.0 1.0 0.0 1.0 0.5 0.5 0.0 1.0 0.5 0.5 0.0 1.0 0.5 0.5 0.0 1.0 0.5 0.5 0.0 1.0 </TABLE>
    </DEFINITION>
  </NETWORK>
</BIF>
