<?xml version='1.0' encoding='utf-8'?>
<BIF VERSION="0.3">
  <NETWORK>
    <NAME>UNTITLED</NAME>
    <VARIABLE TYPE="nature">
      <NAME>bitrate</NAME>
      <OUTCOME>10800</OUTCOME>
      <OUTCOME>10920</OUTCOME>
      <OUTCOME>12600</OUTCOME>
      <OUTCOME>1680</OUTCOME>
      <OUTCOME>2160</OUTCOME>
      <OUTCOME>2520</OUTCOME>
      <OUTCOME>2640</OUTCOME>
      <OUTCOME>3120</OUTCOME>
      <OUTCOME>3240</OUTCOME>
      <OUTCOME>3360</OUTCOME>
      <OUTCOME>3600</OUTCOME>
      <OUTCOME>3960</OUTCOME>
      <OUTCOME>4200</OUTCOME>
      <OUTCOME>4320</OUTCOME>
      <OUTCOME>4680</OUTCOME>
      <OUTCOME>5040</OUTCOME>
      <OUTCOME>5280</OUTCOME>
      <OUTCOME>5400</OUTCOME>
      <OUTCOME>5880</OUTCOME>
      <OUTCOME>6240</OUTCOME>
      <OUTCOME>6480</OUTCOME>
      <OUTCOME>6600</OUTCOME>
      <OUTCOME>7200</OUTCOME>
      <OUTCOME>7560</OUTCOME>
      <OUTCOME>7800</OUTCOME>
      <OUTCOME>7920</OUTCOME>
      <OUTCOME>9000</OUTCOME>
      <OUTCOME>9240</OUTCOME>
      <OUTCOME>9360</OUTCOME>
      <PROPERTY>weight = None</PROPERTY>
    </VARIABLE>
    <VARIABLE TYPE="nature">
      <NAME>consumption</NAME>
      <OUTCOME>7</OUTCOME>
      <PROPERTY>weight = None</PROPERTY>
    </VARIABLE>
    <VARIABLE TYPE="nature">
      <NAME>cpu_utilization</NAME>
      <OUTCOME>High</OUTCOME>
      <OUTCOME>Low</OUTCOME>
      <OUTCOME>Mid</OUTCOME>
      <OUTCOME>Very_High</OUTCOME>
      <PROPERTY>weight = None</PROPERTY>
    </VARIABLE>
    <VARIABLE TYPE="nature">
      <NAME>distance</NAME>
      <OUTCOME>False</OUTCOME>
      <OUTCOME>True</OUTCOME>
      <PROPERTY>weight = None</PROPERTY>
    </VARIABLE>
    <VARIABLE TYPE="nature">
      <NAME>fps</NAME>
      <OUTCOME>14</OUTCOME>
      <OUTCOME>18</OUTCOME>
      <OUTCOME>22</OUTCOME>
      <OUTCOME>26</OUTCOME>
      <OUTCOME>30</OUTCOME>
      <PROPERTY>weight = None</PROPERTY>
    </VARIABLE>
    <VARIABLE TYPE="nature">
      <NAME>in_time</NAME>
      <OUTCOME>False</OUTCOME>
      <OUTCOME>True</OUTCOME>
      <PROPERTY>weight = None</PROPERTY>
    </VARIABLE>
    <VARIABLE TYPE="nature">
      <NAME>memory_usage</NAME>
      <OUTCOME>Mid</OUTCOME>
      <PROPERTY>weight = None</PROPERTY>
    </VARIABLE>
    <VARIABLE TYPE="nature">
      <NAME>network</NAME>
      <OUTCOME>True</OUTCOME>
      <PROPERTY>weight = None</PROPERTY>
    </VARIABLE>
    <VARIABLE TYPE="nature">
      <NAME>pixel</NAME>
      <OUTCOME>120</OUTCOME>
      <OUTCOME>180</OUTCOME>
      <OUTCOME>240</OUTCOME>
      <OUTCOME>300</OUTCOME>
      <OUTCOME>360</OUTCOME>
      <OUTCOME>420</OUTCOME>
      <PROPERTY>weight = None</PROPERTY>
    </VARIABLE>
    <VARIABLE TYPE="nature">
      <NAME>stream_count</NAME>
      <OUTCOME>1</OUTCOME>
      <OUTCOME>10</OUTCOME>
      <OUTCOME>2</OUTCOME>
      <OUTCOME>3</OUTCOME>
      <OUTCOME>4</OUTCOME>
      <OUTCOME>5</OUTCOME>
      <OUTCOME>6</OUTCOME>
      <OUTCOME>7</OUTCOME>
      <OUTCOME>8</OUTCOME>
      <OUTCOME>9</OUTCOME>
      <PROPERTY>weight = None</PROPERTY>
    </VARIABLE>
    <VARIABLE TYPE="nature">
      <NAME>success</NAME>
      <OUTCOME>False</OUTCOME>
      <OUTCOME>True</OUTCOME>
      <PROPERTY>weight = None</PROPERTY>
    </VARIABLE>
    <DEFINITION>
      <FOR>bitrate</FOR>
      <GIVEN>pixel</GIVEN>
      <TABLE>0.0 0.0 0.0 0.12352941176470589 0.052941176470588235 0.0 0.06470588235294118 0.22941176470588232 0.0 0.0 0.5294117647058824 0.0 0.0 0.0 0.0 0.0 0.0 0.0 0.0 0.0 0.0 0.0 0.0 0.0 0.0 0.0 0.0 0.0 0.0 0.0 0.0 0.0 0.0 0.0 0.18421052631578946 0.0 0.0 0.09473684210526317 0.0 0.0 0.2894736842105263 0.0 0.0 0.2736842105263158 0.0 0.0 0.15789473684210525 0.0 0.0 0.0 0.0 0.0 0.0 0.0 0.0 0.0 0.0 0.0 0.0 0.0 0.0 0.0 0.0 0.0 0.0 0.0 0.0 0.16091954022988503 0.0 0.0 0.0 0.15517241379310343 0.0 0.0 0.1264367816091954 0.0 0.0 0.29885057471264365 0.0 0.0 0.25862068965517243 0.0 0.0 0.0 0.0 0.0 0.0 0.0 0.0 0.0 0.0 0.0 0.0 0.0 0.0 0.0 0.0 0.0 0.0 0.8953515320767567 0.0 0.0 0.0 0.0 0.013749433741739987 0.0 0.0 0.0 0.02520729519318998 0.0 0.0 0.019860293182513315 0.0 0.04583144580579995 0.0 0.0 0.020785219399538105 0.0 0.0 0.0 0.0 0.0 0.0 0.0 0.0 0.0 0.0 0.0 0.0 0.0 0.0 0.4073903002309468 0.0 0.0 0.0 0.0 0.024942263279445723 0.0 0.0 0.0 0.0 0.3607390300230947 0.0 0.0 0.18614318706697464 0.0 0.035931453841901606 0.01658374792703151 0.0 0.0 0.0 0.0 0.0 0.0 0.0 0.0 0.0 0.0 0.0 0.0 0.0 0.0 0.0 0.603648424543947 0.0 0.0 0.0 0.0 0.31343283582089554 0.0 0.0 0.0 0.030403537866224434 0.0 </TABLE>
    </DEFINITION>
    <DEFINITION>
      <FOR>consumption</FOR>
      <TABLE>1.0 </TABLE>
    </DEFINITION>
    <DEFINITION>
      <FOR>cpu_utilization</FOR>
      <GIVEN>fps</GIVEN>
      <GIVEN>in_time</GIVEN>
      <GIVEN>stream_count</GIVEN>
      <TABLE>0.0 0.8260869565217392 0.0 0.17391304347826086 0.1712962962962963 0.03935185185185185 0.17824074074074073 0.6111111111111112 0.02777777777777778 0.5277777777777778 0.33333333333333337 0.11111111111111112 0.07352941176470588 0.4411764705882353 0.2867647058823529 0.19852941176470587 0.1528650665462133 0.5183676645859089 0.12263556018881624 0.2061317086790617 0.19205298013245034 0.3708609271523179 0.11920529801324502 0.3178807947019867 0.28169014084507044 0.2488262910798122 0.1267605633802817 0.3427230046948357 0.22082018927444794 0.1608832807570978 0.1167192429022082 0.501577287066246 0.20197044334975373 0.11576354679802955 0.10591133004926108 0.5763546798029557 0.1518987341772152 0.06835443037974684 0.13670886075949368 0.6430379746835443 0.07766990291262135 0.8446601941747572 0.05825242718446603 0.019417475728155338 0.05392156862745098 0.0024509803921568627 0.03676470588235294 0.9068627450980392 0.08125 0.64375 0.22500000000000003 0.05 0.2982832618025751 0.01502145922746781 0.6223175965665236 0.06437768240343347 0.7930773356877455 0.022025156455306727 0.022368858274464186 0.16252864958248342 0.5233968804159446 0.04679376083188909 0.015597920277296359 0.41421143847487 0.3656093489148581 0.03005008347245409 0.005008347245409015 0.5993322203672788 0.23518164435946462 0.036328871892925434 0.015296367112810705 0.7131931166347992 0.14055299539170507 0.018433179723502304 0.02304147465437788 0.8179723502304147 0.11910112359550562 0.029213483146067414 0.022471910112359546 0.8292134831460675 0.014084507042253521 0.6197183098591549 0.08450704225352113 0.28169014084507044 0.25 0.25 0.25 0.25 0.078125 0.5 0.1796875 0.2421875 0.11158798283261805 0.20600858369098712 0.6609442060085837 0.02145922746781116 0.25 0.25 0.25 0.25 0.25 0.25 0.25 0.25 0.25 0.25 0.25 0.25 0.25 0.25 0.25 0.25 0.25 0.25 0.25 0.25 0.25 0.25 0.25 0.25 0.06068601583113458 0.7678100263852242 0.15303430079155675 0.018469656992084436 0.25 0.25 0.25 0.25 0.25650557620817843 0.005576208178438662 0.6951672862453532 0.04275092936802974 0.6756756756756757 0.027027027027027025 0.2972972972972973 0.0 0.25 0.25 0.25 0.25 0.25 0.25 0.25 0.25 0.25 0.25 0.25 0.25 0.25 0.25 0.25 0.25 0.25 0.25 0.25 0.25 0.25 0.25 0.25 0.25 0.01694915254237288 0.8983050847457628 0.05084745762711865 0.03389830508474576 0.25 0.25 0.25 0.25 0.14018691588785046 0.4953271028037384 0.11214953271028037 0.2523364485981308 0.6133828996282529 0.2081784386617101 0.026022304832713762 0.15241635687732344 0.5773195876288659 0.11855670103092783 0.051546391752577324 0.25257731958762886 0.5892857142857143 0.125 0.03571428571428571 0.25 0.25 0.25 0.25 0.25 0.25 0.25 0.25 0.25 0.25 0.25 0.25 0.25 0.25 0.25 0.25 0.25 0.08695652173913043 0.2360248447204969 0.6770186335403726 0.0 0.25 0.25 0.25 0.25 0.8097928436911488 0.0018832391713747643 0.1713747645951036 0.016949152542372885 0.9295392953929541 0.008130081300813009 0.027100271002710032 0.03523035230352304 0.801470588235294 0.022058823529411766 0.0 0.17647058823529413 0.875 0.0625 0.0 0.0625 0.25 0.25 0.25 0.25 0.25 0.25 0.25 0.25 0.25 0.25 0.25 0.25 0.25 0.25 0.25 0.25 0.15517241379310345 0.46551724137931033 0.16666666666666666 0.21264367816091947 0.25 0.25 0.25 0.25 0.3076923076923077 0.42307692307692313 0.19230769230769235 0.07692307692307693 0.30434782608695654 0.15217391304347827 0.4565217391304347 0.08695652173913043 0.6046511627906977 0.13953488372093026 0.0 0.2558139534883721 0.5 0.04999999999999999 0.04999999999999999 0.3999999999999999 0.6222222222222222 0.15555555555555556 0.022222222222222227 0.19999999999999996 0.25 0.25 0.25 0.25 0.25 0.25 0.25 0.25 0.25 0.25 0.25 0.25 0.2139107611548556 0.0013123359580052493 0.7834645669291339 0.0013123359580052493 0.25 0.25 0.25 0.25 0.21153846153846156 0.009615384615384616 0.7788461538461537 0.0 0.90625 0.0 0.0 0.09375 0.888888888888889 0.0 0.0 0.11111111111111112 0.5 0.0 0.0 0.5 0.7142857142857143 0.0 0.0 0.2857142857142857 0.25 0.25 0.25 0.25 0.25 0.25 0.25 0.25 0.25 0.25 0.25 0.25 0.1910112359550562 0.20224719101123595 0.6067415730337079 0.0 0.25 0.25 0.25 0.25 0.13986013986013984 0.23076923076923078 0.6223776223776223 0.006993006993006993 0.7692307692307693 0.15384615384615385 0.0 0.07692307692307693 0.25 0.25 0.25 0.25 0.5955056179775281 0.07865168539325842 0.20224719101123595 0.12359550561797752 0.25 0.25 0.25 0.25 0.25 0.25 0.25 0.25 0.25 0.25 0.25 0.25 0.25 0.25 0.25 0.25 0.2697095435684647 0.1908713692946058 0.5394190871369294 0.0 0.25 0.25 0.25 0.25 0.7142857142857143 0.0 0.14285714285714285 0.14285714285714285 1.0 0.0 0.0 0.0 0.25 0.25 0.25 0.25 1.0 0.0 0.0 0.0 0.25 0.25 0.25 0.25 0.25 0.25 0.25 0.25 0.25 0.25 0.25 0.25 0.25 0.25 0.25 0.25 </TABLE>
    </DEFINITION>
    <DEFINITION>
      <FOR>distance</FOR>
      <GIVEN>fps</GIVEN>
      <TABLE>0.016470262385895943 0.983529737614104 0.012987012987012988 0.987012987012987 0.006792058516196447 0.9932079414838036 0.019623233908948195 0.9803767660910518 0.023333333333333334 0.9766666666666666 </TABLE>
    </DEFINITION>
    <DEFINITION>
      <FOR>fps</FOR>
      <GIVEN>bitrate</GIVEN>
      <TABLE>0.0 0.0 0.0 0.0 1.0 0.0 0.0 0.0 1.0 0.0 0.0 0.0 0.0 0.0 1.0 1.0 0.0 0.0 0.0 0.0 0.0 1.0 0.0 0.0 0.0 1.0 0.0 0.0 0.0 0.0 0.0 0.0 1.0 0.0 0.0 0.0 0.0 0.0 1.0 0.0 0.0 1.0 0.0 0.0 0.0 1.0 0.0 0.0 0.0 0.0 0.0 0.0 0.0 0.0 1.0 0.0 0.0 1.0 0.0 0.0 1.0 0.0 0.0 0.0 0.0 0.0 1.0 0.0 0.0 0.0 0.0 0.0 0.0 1.0 0.0 1.0 0.0 0.0 0.0 0.0 0.0 0.0 1.0 0.0 0.0 0.0 0.375 0.0 0.0 0.625 1.0 0.0 0.0 0.0 0.0 0.0 0.0 0.0 1.0 0.0 0.0 1.0 0.0 0.0 0.0 0.0 0.0 1.0 0.0 0.0 0.0 0.0 0.0 0.0 1.0 0.0 1.0 0.0 0.0 0.0 0.0 0.0 0.0 1.0 0.0 0.0 0.0 1.0 0.0 0.0 0.0 0.0 0.0 0.0 1.0 0.0 0.0 1.0 0.0 0.0 0.0 0.0 0.0 1.0 0.0 </TABLE>
    </DEFINITION>
    <DEFINITION>
      <FOR>in_time</FOR>
      <GIVEN>bitrate</GIVEN>
      <TABLE>0.7111111111111111 0.2888888888888888 0.5230769230769231 0.47692307692307695 0.5166666666666667 0.4833333333333334 0.23809523809523814 0.7619047619047619 0.2777777777777778 0.7222222222222222 0.22857142857142854 0.7714285714285715 0.3181818181818182 0.6818181818181818 0.1282051282051282 0.8717948717948719 0.861111111111111 0.13888888888888887 0.2857142857142857 0.7142857142857143 0.6666666666666666 0.3333333333333333 0.5818181818181818 0.41818181818181815 0.3757501175705262 0.6242498824294738 0.5555555555555556 0.4444444444444444 0.5192307692307693 0.4807692307692308 0.22278911564625853 0.7772108843537415 0.13636363636363635 0.8636363636363636 0.11458333333333334 0.8854166666666667 0.42490842490842484 0.575091575091575 0.4807692307692308 0.5192307692307693 0.4074074074074074 0.5925925925925926 0.5151515151515151 0.48484848484848486 0.6111111111111112 0.3888888888888889 0.2795414462081129 0.7204585537918872 0.15384615384615383 0.8461538461538461 0.3508322663252241 0.649167733674776 0.5916666666666667 0.4083333333333334 0.23636363636363633 0.7636363636363637 0.20347394540942929 0.7965260545905707 </TABLE>
    </DEFINITION>
    <DEFINITION>
      <FOR>memory_usage</FOR>
      <TABLE>1.0 </TABLE>
    </DEFINITION>
    <DEFINITION>
      <FOR>network</FOR>
      <TABLE>1.0 </TABLE>
    </DEFINITION>
    <DEFINITION>
      <FOR>pixel</FOR>
      <TABLE>0.02916952642415923 0.03260123541523679 0.029855868222374744 0.22649279341111875 0.3714824982841455 0.310398078242965 </TABLE>
    </DEFINITION>
    <DEFINITION>
      <FOR>stream_count</FOR>
      <GIVEN>bitrate</GIVEN>
      <GIVEN>in_time</GIVEN>
      <TABLE>0.0625 0.0 0.9375 0.0 0.0 0.0 0.0 0.0 0.0 0.0 1.0 0.0 0.0 0.0 0.0 0.0 0.0 0.0 0.0 0.0 0.07352941176470588 0.0 0.0 0.0 0.6323529411764706 0.29411764705882354 0.0 0.0 0.0 0.0 0.7580645161290323 0.0 0.0 0.0 0.14516129032258066 0.09677419354838708 0.0 0.0 0.0 0.0 1.0 0.0 0.0 0.0 0.0 0.0 0.0 0.0 0.0 0.0 1.0 0.0 0.0 0.0 0.0 0.0 0.0 0.0 0.0 0.0 0.0 0.0 0.0 0.0 0.0 1.0 0.0 0.0 0.0 0.0 0.0 0.0 0.0 0.0 0.0 1.0 0.0 0.0 0.0 0.0 1.0 0.0 0.0 0.0 0.0 0.0 0.0 0.0 0.0 0.0 1.0 0.0 0.0 0.0 0.0 0.0 0.0 0.0 0.0 0.0 0.6875 0.0 0.0 0.0 0.0 0.0 0.0 0.0 0.0 0.3125 0.5740740740740741 0.0 0.0 0.0 0.0 0.0 0.0 0.0 0.0 0.42592592592592593 0.0 0.0 0.0 0.0 1.0 0.0 0.0 0.0 0.0 0.0 0.0 0.0 0.0 0.0 1.0 0.0 0.0 0.0 0.0 0.0 0.0 0.0 0.5 0.5 0.0 0.0 0.0 0.0 0.0 0.0 0.0 0.0 0.6911764705882353 0.3088235294117647 0.0 0.0 0.0 0.0 0.0 0.0 0.0 0.0 0.0 1.0 0.0 0.0 0.0 0.0 0.0 0.0 0.0 0.0 0.0 1.0 0.0 0.0 0.0 0.0 0.0 0.0 0.375 0.0 0.0 0.0 0.0 0.25 0.0 0.375 0.0 0.0 0.55 0.0 0.0 0.0 0.0 0.25 0.0 0.2 0.0 0.0 0.041666666666666664 0.0 0.0 0.21666666666666667 0.0 0.7416666666666667 0.0 0.0 0.0 0.0 0.9166666666666667 0.0 0.0 0.06666666666666668 0.0 0.01666666666666667 0.0 0.0 0.0 0.0 0.609375 0.0 0.0 0.0 0.0 0.390625 0.0 0.0 0.0 0.0 0.5869565217391305 0.0 0.0 0.0 0.0 0.4130434782608696 0.0 0.0 0.0 0.0 0.0011384887578100654 0.2288362403198232 0.0 0.0034154662734301967 0.006099314431812754 0.06717083671079388 0.10587945447633611 0.18101971249180043 0.20378948764800175 0.20265099889019164 0.008890373338658128 0.1401943488019166 0.0 0.007522623594249185 0.0076975604313120624 0.17985909138977596 0.18533009036741174 0.1689170934345044 0.155239595990415 0.14634922265175687 0.2666666666666667 0.0 0.7333333333333333 0.0 0.0 0.0 0.0 0.0 0.0 0.0 0.41666666666666674 0.0 0.5833333333333334 0.0 0.0 0.0 0.0 0.0 0.0 0.0 0.0 0.0 0.16666666666666663 0.0 0.0 0.0 0.8333333333333333 0.0 0.0 0.0 0.0 0.0 0.8599999999999999 0.0 0.0 0.0 0.14 0.0 0.0 0.0 0.0 0.020356234096692113 0.0916030534351145 0.3384223918575064 0.31297709923664124 0.1806615776081425 0.022900763358778626 0.015267175572519083 0.017811704834605598 0.0 0.0 0.00437636761487965 0.11670313639679067 0.33187454412837347 0.34938001458789203 0.17286652078774617 0.013858497447118891 0.005835156819839533 0.005105762217359592 0.0 1.0 0.0 0.0 0.0 0.0 0.0 0.0 0.0 0.0 0.0 1.0 0.0 0.0 0.0 0.0 0.0 0.0 0.0 0.0 0.0 0.5454545454545454 0.0 0.4545454545454546 0.0 0.0 0.0 0.0 0.0 0.0 0.0 0.6352941176470588 0.0 0.36470588235294116 0.0 0.0 0.0 0.0 0.0 0.0 0.0 0.00538793103448276 0.24030172413793108 0.0 0.0 0.004310344827586208 0.007543103448275863 0.11961206896551725 0.15732758620689657 0.2370689655172414 0.228448275862069 0.029458598726114654 0.15684713375796178 0.0 0.0 0.007961783439490446 0.027866242038216558 0.24601910828025475 0.20700636942675157 0.1592356687898089 0.16560509554140126 0.18000000000000002 0.0 0.0 0.8200000000000001 0.0 0.0 0.0 0.0 0.0 0.0 0.7962962962962963 0.0 0.0 0.2037037037037037 0.0 0.0 0.0 0.0 0.0 0.0 0.06818181818181818 0.0 0.1590909090909091 0.7727272727272728 0.0 0.0 0.0 0.0 0.0 0.0 0.515625 0.0 0.453125 0.03125 0.0 0.0 0.0 0.0 0.0 0.0 0.08823529411764706 0.0 0.0 0.0 0.0 0.9117647058823529 0.0 0.0 0.0 0.0 0.59375 0.0 0.0 0.0 0.0 0.40625 0.0 0.0 0.0 0.0 0.4545454545454546 0.0 0.5454545454545454 0.0 0.0 0.0 0.0 0.0 0.0 0.0 1.0 0.0 0.0 0.0 0.0 0.0 0.0 0.0 0.0 0.0 0.17350157728706625 0.0 0.29652996845425866 0.5299684542586751 0.0 0.0 0.0 0.0 0.0 0.0 0.3953488372093023 0.0 0.5679314565483476 0.03671970624235006 0.0 0.0 0.0 0.0 0.0 0.0 1.0 0.0 0.0 0.0 0.0 0.0 0.0 0.0 0.0 0.0 1.0 0.0 0.0 0.0 0.0 0.0 0.0 0.0 0.0 0.0 0.00364963503649635 0.0 0.1843065693430657 0.4708029197080292 0.34124087591240876 0.0 0.0 0.0 0.0 0.0 0.04142011834319527 0.0 0.48619329388560156 0.35305719921104534 0.1193293885601578 0.0 0.0 0.0 0.0 0.0 0.2535211267605634 0.0 0.7464788732394366 0.0 0.0 0.0 0.0 0.0 0.0 0.0 0.8571428571428572 0.0 0.14285714285714285 0.0 0.0 0.0 0.0 0.0 0.0 0.0 0.34615384615384615 0.0 0.2307692307692308 0.42307692307692313 0.0 0.0 0.0 0.0 0.0 0.0 0.41666666666666674 0.0 0.45238095238095244 0.13095238095238096 0.0 0.0 0.0 0.0 0.0 0.0 0.9268292682926829 0.0 0.07317073170731707 0.0 0.0 0.0 0.0 0.0 0.0 0.0 0.9781931464174455 0.0 0.021806853582554516 0.0 0.0 0.0 0.0 0.0 0.0 0.0 </TABLE>
    </DEFINITION>
    <DEFINITION>
      <FOR>success</FOR>
      <GIVEN>bitrate</GIVEN>
      <TABLE>0.0 1.0 0.0 1.0 0.0 1.0 0.8809523809523809 0.11904761904761903 1.0 0.0 0.17142857142857146 0.8285714285714286 1.0 0.0 0.9871794871794872 0.012820512820512817 0.13888888888888887 0.861111111111111 0.017857142857142856 0.9821428571428572 0.9166666666666667 0.08333333333333334 0.14545454545454545 0.8545454545454545 0.020481049862232592 0.9795189501377675 0.03703703703703704 0.962962962962963 0.0576923076923077 0.9423076923076923 0.006802721088435371 0.9931972789115646 0.0 1.0 0.07291666666666666 0.9270833333333333 0.014652014652014649 0.9853479853479853 0.009615384615384614 0.9903846153846153 0.0 1.0 0.0 1.0 0.04444444444444445 0.9555555555555556 0.0 1.0 0.0 1.0 0.0032010243277848915 0.9967989756722152 0.0 1.0 0.0 1.0 0.004962779156327543 0.9950372208436724 </TABLE>
    </DEFINITION>
  </NETWORK>
</BIF>
