<?xml version='1.0' encoding='utf-8'?>
<BIF VERSION="0.3">
  <NETWORK>
    <NAME>UNTITLED</NAME>
    <VARIABLE TYPE="nature">
      <NAME>bitrate</NAME>
      <OUTCOME>10920</OUTCOME>
      <OUTCOME>12600</OUTCOME>
      <OUTCOME>1680</OUTCOME>
      <OUTCOME>2520</OUTCOME>
      <OUTCOME>2640</OUTCOME>
      <OUTCOME>3360</OUTCOME>
      <OUTCOME>3600</OUTCOME>
      <OUTCOME>3960</OUTCOME>
      <OUTCOME>4200</OUTCOME>
      <OUTCOME>4320</OUTCOME>
      <OUTCOME>5040</OUTCOME>
      <OUTCOME>5280</OUTCOME>
      <OUTCOME>5400</OUTCOME>
      <OUTCOME>5880</OUTCOME>
      <OUTCOME>6480</OUTCOME>
      <OUTCOME>6600</OUTCOME>
      <OUTCOME>7560</OUTCOME>
      <OUTCOME>7920</OUTCOME>
      <OUTCOME>9240</OUTCOME>
      <OUTCOME>9360</OUTCOME>
      <PROPERTY>weight = None</PROPERTY>
    </VARIABLE>
    <VARIABLE TYPE="nature">
      <NAME>consumption</NAME>
      <OUTCOME>4</OUTCOME>
      <OUTCOME>5</OUTCOME>
      <OUTCOME>6</OUTCOME>
      <OUTCOME>7</OUTCOME>
      <OUTCOME>8</OUTCOME>
      <PROPERTY>weight = None</PROPERTY>
    </VARIABLE>
    <VARIABLE TYPE="nature">
      <NAME>cpu_utilization</NAME>
      <OUTCOME>High</OUTCOME>
      <OUTCOME>Low</OUTCOME>
      <OUTCOME>Mid</OUTCOME>
      <OUTCOME>Very_High</OUTCOME>
      <PROPERTY>weight = None</PROPERTY>
    </VARIABLE>
    <VARIABLE TYPE="nature">
      <NAME>distance</NAME>
      <OUTCOME>False</OUTCOME>
      <OUTCOME>True</OUTCOME>
      <PROPERTY>weight = None</PROPERTY>
    </VARIABLE>
    <VARIABLE TYPE="nature">
      <NAME>fps</NAME>
      <OUTCOME>14</OUTCOME>
      <OUTCOME>18</OUTCOME>
      <OUTCOME>22</OUTCOME>
      <OUTCOME>26</OUTCOME>
      <OUTCOME>30</OUTCOME>
      <PROPERTY>weight = None</PROPERTY>
    </VARIABLE>
    <VARIABLE TYPE="nature">
      <NAME>in_time</NAME>
      <OUTCOME>False</OUTCOME>
      <OUTCOME>True</OUTCOME>
      <PROPERTY>weight = None</PROPERTY>
    </VARIABLE>
    <VARIABLE TYPE="nature">
      <NAME>memory_usage</NAME>
      <OUTCOME>Low</OUTCOME>
      <OUTCOME>Mid</OUTCOME>
      <PROPERTY>weight = None</PROPERTY>
    </VARIABLE>
    <VARIABLE TYPE="nature">
      <NAME>network</NAME>
      <OUTCOME>True</OUTCOME>
      <PROPERTY>weight = None</PROPERTY>
    </VARIABLE>
    <VARIABLE TYPE="nature">
      <NAME>pixel</NAME>
      <OUTCOME>120</OUTCOME>
      <OUTCOME>180</OUTCOME>
      <OUTCOME>240</OUTCOME>
      <OUTCOME>300</OUTCOME>
      <OUTCOME>360</OUTCOME>
      <OUTCOME>420</OUTCOME>
      <PROPERTY>weight = None</PROPERTY>
    </VARIABLE>
    <VARIABLE TYPE="nature">
      <NAME>stream_count</NAME>
      <OUTCOME>1</OUTCOME>
      <OUTCOME>2</OUTCOME>
      <OUTCOME>3</OUTCOME>
      <OUTCOME>4</OUTCOME>
      <OUTCOME>5</OUTCOME>
      <OUTCOME>6</OUTCOME>
      <PROPERTY>weight = None</PROPERTY>
    </VARIABLE>
    <VARIABLE TYPE="nature">
      <NAME>success</NAME>
      <OUTCOME>False</OUTCOME>
      <OUTCOME>True</OUTCOME>
      <PROPERTY>weight = None</PROPERTY>
    </VARIABLE>
    <DEFINITION>
      <FOR>bitrate</FOR>
      <GIVEN>fps</GIVEN>
      <TABLE>0.0 0.0 0.004354850909916597 0.0041589974918910385 0.0 0.13994050267008074 0.0 0.0 0.05178048852754642 0.0 0.07301953412100325 0.0 0.0 0.7267456262795621 0.0 0.0 0.0 0.0 0.0 0.0 0.0 0.0 0.0 0.0 0.0 0.0 0.0 0.0 0.0 0.6204050346494703 0.0 0.0 0.1542060058994903 0.0 0.03691495224055109 0.0 0.1884740072104883 0.0 0.0 0.0 0.0 0.0 0.0 0.0 0.04344173367689388 0.0 0.0 0.31177418984479716 0.0 0.0 0.0 0.14765099426272318 0.0 0.0 0.0 0.12452292490167781 0.0 0.24730439683157626 0.12530576048233172 0.0 0.44412409498851935 0.0 0.0 0.0 0.0 0.0 0.0 0.0 0.0 0.0 0.0 0.0 0.0 0.0 0.0 0.0 0.0 0.0 0.0 0.5558759050114805 0.0 0.9228423765307227 0.0 0.0 0.0 0.0 0.0771576234692773 0.0 0.0 0.0 0.0 0.0 0.0 0.0 0.0 0.0 0.0 0.0 0.0 0.0 </TABLE>
    </DEFINITION>
    <DEFINITION>
      <FOR>consumption</FOR>
      <GIVEN>cpu_utilization</GIVEN>
      <GIVEN>in_time</GIVEN>
      <TABLE>0.0 0.0 0.14073506887848267 0.8592649311215173 0.0 0.0 0.0 0.397322876005979 0.602677123994021 0.0 0.012110597056005989 0.987889402943994 0.0 0.0 0.0 0.00013618268629721298 0.9998638173137028 0.0 0.0 0.0 0.0 0.41381810202579017 0.5861818979742098 0.0 0.0 0.0 0.8075265040599622 0.19247349594003776 0.0 0.0 0.0 0.0 0.0 0.6272574456284934 0.37274255437150666 0.0 0.0 0.0 0.7156512303196386 0.2843487696803615 </TABLE>
    </DEFINITION>
    <DEFINITION>
      <FOR>cpu_utilization</FOR>
      <GIVEN>bitrate</GIVEN>
      <TABLE>0.20921914628550553 0.0003029216007314677 0.022381536837631083 0.7680963952761319 0.3327344331355742 0.0054190403771370195 0.0944549039062364 0.5673916225810524 0.35575493209080955 0.003990284524635674 0.07160206206007741 0.5686527213244774 0.21416420760284774 0.07197535150147538 0.0953393508071513 0.6185210900885256 0.29484456619384014 0.001158960595339759 0.0920070535783602 0.6119894196324599 0.7108353241886223 0.07561009578383973 0.07445578052370326 0.13909879950383452 0.2462209616423575 0.15286736898973502 0.25286736898973483 0.3480443003781726 0.04594269833013244 0.31780395726632527 0.6345345944035423 0.001718749999999996 0.06655844155844155 0.048701298701299 0.16396103896103886 0.7207792207792205 0.16306733689444589 0.035366472764467166 0.11111111111111105 0.6904550792299758 0.12777108829242803 0.020903201182381998 0.5210864396414033 0.33023927088378663 0.27810930168006787 0.05833728264265971 0.4269138006485655 0.2366396150287069 0.09259259259259288 0.006172839506172852 0.09259259259259288 0.8086419753086413 0.3726057856788171 0.24661603222016917 0.2530096199527741 0.1277685621482395 0.24948483956432296 0.0 0.055555555555555455 0.6949596048801215 0.5594415175179669 0.0 0.06072594004159947 0.37983254244043363 0.5707070707070697 0.0 0.055555555555555525 0.37373737373737487 0.060500321063701144 6.344372541555618e-05 0.06824526190723333 0.87119097330365 0.5816008802734459 0.0 0.030560557109229912 0.3878385626173242 0.0666227184162482 0.008797410818134524 0.09309788658036604 0.8314819841852512 </TABLE>
    </DEFINITION>
    <DEFINITION>
      <FOR>distance</FOR>
      <GIVEN>fps</GIVEN>
      <TABLE>0.06678954084132245 0.9332104591586776 0.0143296159308645 0.9856703840691355 0.011714705106164854 0.9882852948938351 0.0 1.0 0.010921394716066752 0.9890786052839333 </TABLE>
    </DEFINITION>
    <DEFINITION>
      <FOR>fps</FOR>
      <TABLE>0.5678215385898575 0.031565616259338715 0.039019542027135416 0.30118960900869207 0.06040369411497616 </TABLE>
    </DEFINITION>
    <DEFINITION>
      <FOR>in_time</FOR>
      <GIVEN>cpu_utilization</GIVEN>
      <GIVEN>fps</GIVEN>
      <GIVEN>stream_count</GIVEN>
      <TABLE>0.22765256663820688 0.7723474333617931 0.11501142939545297 0.884988570604547 0.968845519194941 0.03115448080505891 0.9552238805970145 0.044776119402985454 1.0 0.0 1.0 0.0 0.6666666666666666 0.3333333333333333 1.0 0.0 1.0 0.0 1.0 0.0 1.0 0.0 1.0 0.0 1.0 0.0 1.0 0.0 1.0 0.0 0.5 0.5 1.0 0.0 1.0 0.0 0.5006225618628868 0.4993774381371132 0.5 0.5 0.5076359317926594 0.4923640682073406 0.5 0.5 1.0 0.0 1.0 0.0 1.0 0.0 1.0 0.0 1.0 0.0 1.0 0.0 1.0 0.0 1.0 0.0 0.17560531183891667 0.8243946881610833 0.9799820350358788 0.020017964964121275 1.0 0.0 1.0 0.0 1.0 0.0 0.5 0.5 1.0 0.0 0.5 0.5 1.0 0.0 0.5 0.5 1.0 0.0 0.5 0.5 1.0 0.0 1.0 0.0 1.0 0.0 0.5 0.5 0.5 0.5 0.5 0.5 0.50147051300226 0.49852948699774 0.5 0.5 0.5037746448839241 0.4962253551160759 0.5 0.5 0.5000965080859365 0.4999034919140635 0.5 0.5 1.0 0.0 0.5 0.5 0.5000316315556391 0.4999683684443608 1.0 0.0 0.5 0.5 0.5 0.5 0.3220797507079917 0.6779202492920083 0.9381861603363323 0.06181383966366776 0.9844546742633641 0.015545325736635933 1.0 0.0 1.0 0.0 1.0 0.0 0.9387755102040808 0.06122448979591929 1.0 0.0 1.0 0.0 1.0 0.0 1.0 0.0 1.0 0.0 1.0 0.0 1.0 0.0 1.0 0.0 0.5 0.5 1.0 0.0 1.0 0.0 0.5083066586034186 0.4916933413965814 0.5 0.5 0.5158541004439025 0.4841458995560976 0.5 0.5 1.0 0.0 1.0 0.0 1.0 0.0 1.0 0.0 1.0 0.0 1.0 0.0 1.0 0.0 0.5 0.5 0.7520762481670806 0.2479237518329194 0.3990623907369836 0.6009376092630163 0.7299325084173612 0.2700674915826389 0.9395161290322583 0.060483870967741694 0.9392857142857144 0.06071428571428564 0.9998529195469922 0.00014708045300779358 0.5 0.5 1.0 0.0 1.0 0.0 1.0 0.0 1.0 0.0 1.0 0.0 0.5 0.5 1.0 0.0 1.0 0.0 0.5 0.5 1.0 0.0 1.0 0.0 0.5006546723931742 0.49934532760682576 0.5 0.5 0.6261085062701811 0.3738914937298188 0.5 0.5 1.0 0.0 1.0 0.0 0.5 0.5 1.0 0.0 1.0 0.0 1.0 0.0 1.0 0.0 1.0 0.0 </TABLE>
    </DEFINITION>
    <DEFINITION>
      <FOR>memory_usage</FOR>
      <GIVEN>fps</GIVEN>
      <GIVEN>stream_count</GIVEN>
      <TABLE>0.3044680947417927 0.6955319052582073 0.0 1.0 0.0 1.0 0.0 1.0 0.0 1.0 0.0 1.0 1.0 0.0 0.0 1.0 0.0 1.0 0.0 1.0 0.0 1.0 0.0 1.0 0.9934532472374812 0.006546752762518751 0.0 1.0 0.0 1.0 0.5 0.5 0.0 1.0 0.0 1.0 0.4889981041710872 0.5110018958289129 0.5 0.5 0.3538337160899177 0.6461662839100824 0.5 0.5 0.0 1.0 0.0 1.0 1.0 0.0 0.0 1.0 0.0 1.0 0.0 1.0 0.0 1.0 0.0 1.0 </TABLE>
    </DEFINITION>
    <DEFINITION>
      <FOR>network</FOR>
      <TABLE>1.0 </TABLE>
    </DEFINITION>
    <DEFINITION>
      <FOR>pixel</FOR>
      <GIVEN>bitrate</GIVEN>
      <TABLE>0.0 0.0 0.0 0.0 0.0 1.0 0.0 0.0 0.0 0.0 0.0 1.0 1.0 0.0 0.0 0.0 0.0 0.0 0.0 1.0 0.0 0.0 0.0 0.0 1.0 0.0 0.0 0.0 0.0 0.0 0.0 0.0 1.0 0.0 0.0 0.0 1.0 0.0 0.0 0.0 0.0 0.0 0.0 1.0 0.0 0.0 0.0 0.0 0.0 0.0 0.0 1.0 0.0 0.0 0.0 0.0 1.0 0.0 0.0 0.0 0.0 0.0 0.0 0.0 1.0 0.0 0.0 0.0 1.0 0.0 0.0 0.0 0.0 0.0 0.0 1.0 0.0 0.0 0.0 0.0 0.0 0.0 0.0 1.0 0.0 0.0 0.0 0.0 1.0 0.0 0.0 0.0 0.0 1.0 0.0 0.0 0.0 0.0 0.0 0.0 0.0 1.0 0.0 0.0 0.0 0.0 1.0 0.0 0.0 0.0 0.0 0.0 0.0 1.0 0.0 0.0 0.0 0.0 1.0 0.0 </TABLE>
    </DEFINITION>
    <DEFINITION>
      <FOR>stream_count</FOR>
      <GIVEN>bitrate</GIVEN>
      <GIVEN>cpu_utilization</GIVEN>
      <TABLE>0.00012187104388864395 0.0 0.00014011489421325563 0.0 0.9995180602725721 0.00021995378932598885 0.1669206048840402 0.16661587902319197 0.16661587902319197 0.16661587902319197 0.16661587902319197 0.16661587902319197 0.002736094950506791 0.0 0.00034998836539992703 0.0 0.9968408641835121 7.305250058106768e-05 0.0 0.0 0.003142532205935669 0.0 0.9933642766515529 0.0034931911425112564 0.004830307832992625 0.09016574621586208 0.0033464837925216598 0.6424309417880192 0.16101026109975417 0.09821625927085025 0.0 0.0 6.326311127981314e-05 0.9999367368887201 0.0 0.0 0.32380221449085106 0.017042221815308022 0.00018965350193353978 0.6362429477714966 0.022722962420410716 0.0 0.0 0.0009464345009283749 0.029904636548416373 0.8981663413810277 0.04353598704270502 0.027446600526922667 0.0003481596231401719 0.0 0.0 0.0 0.9996518403768598 0.0 0.1699942393342213 0.16600115213315572 0.16600115213315572 0.16600115213315572 0.16600115213315572 0.16600115213315572 0.0005219516677119343 0.0 0.0 0.0 0.999478048332288 0.0 0.0 0.0 0.0 0.0 1.0 0.0 6.080136195050801e-05 0.0 0.22220871080845392 0.7777304878295956 0.0 0.0 0.0006076810889645187 0.0 0.9993923189110354 0.0 0.0 0.0 0.00018238190771475456 0.0 0.7498632135692161 0.24995440452306908 0.0 0.0 0.0 0.0 0.7692307692307685 0.23076923076923145 0.0 0.0 0.00018329573257100878 0.0 0.999816704267429 0.0 0.0 0.0 0.1676334638956431 0.16647330722087136 0.16647330722087136 0.16647330722087136 0.16647330722087136 0.16647330722087136 0.0013434558499521645 0.0 0.9986565441500479 0.0 0.0 0.0 0.0 0.0 1.0 0.0 0.0 0.0 0.014197276266845119 0.002518087917480636 0.9832122769492517 0.0 0.0 7.235886642252388e-05 0.23170591478026373 0.1539457336833551 0.1535870878840953 0.1535870878840953 0.1535870878840953 0.1535870878840953 0.03510016092561863 0.0003801738505997415 0.9643067626415086 0.0 0.0 0.00021290258227292587 0.015834701619340145 0.0007707950561834069 0.9826713127793048 0.0 0.0 0.0007231905451716965 0.10807517953641456 0.0 0.8916202311754171 0.0 0.00030458928816830006 0.0 1.0 0.0 0.0 0.0 0.0 0.0 0.8681566057411353 0.0 0.13153887965774844 0.0 0.0003045146011161316 0.0 0.0 0.0 0.9975678519840975 0.0 0.002432148015902481 0.0 0.9995828769859979 0.0 0.0 0.0 0.0004171230140020765 0.0 1.0 0.0 0.0 0.0 0.0 0.0 0.9998435299163168 0.0 0.0 0.0 0.00015647008368313643 0.0 0.166380063111187 0.166380063111187 0.166380063111187 0.166380063111187 0.168099684444065 0.166380063111187 0.09756097560975618 0.0 0.8780487804878047 0.024390243902439046 0.0 0.0 0.366666666666666 0.0 0.6333333333333341 0.0 0.0 0.0 0.534653465346537 0.0 0.4257425742574233 0.019801980198019754 0.0 0.019801980198019754 0.002252252252252256 0.0 0.9144144144144138 0.02477477477477493 0.0 0.05855855855855887 0.02829978428247623 0.0 0.23583153568730397 0.02829978428247623 0.6980613456344182 0.009507550113325306 0.08695652173913011 0.0 0.8695652173913049 0.0 0.04347826086956506 0.0 0.6802837243572651 0.0 0.19436677838779076 0.027766682626827195 0.027869330953659472 0.0697134836744574 0.0 0.0 0.7114225421534385 0.02899214121628405 0.15024163248361716 0.1093436841466603 0.229142297528152 0.0 0.23619234157282434 0.5346653608990236 0.0 0.0 0.9976133102842963 0.0 0.002386689715703605 0.0 0.0 0.0 0.9184730456096716 0.0 0.06351767898621728 0.018009275404111135 0.0 0.0 0.0 0.0 0.8007689899979027 0.19923101000209717 0.0 0.0 0.069747040714655 0.8137154750043146 0.11643517460857497 0.0 0.0001023096724553541 0.0 0.4443599439099705 0.4443599439099705 0.11128011218005886 0.0 0.0 0.0 0.893495125729897 0.03028797036372558 0.07591008214518442 0.0 0.00030682176119291066 0.0 0.0 0.08299579222547676 0.9151649784077014 0.0 0.001839229366821761 0.0 0.0 0.0 0.6000000000000004 0.0 0.3999999999999996 0.0 0.0 0.0 0.0 0.0 1.0 0.0 0.0 0.0 0.13333333333333416 0.0 0.8666666666666658 0.0 0.0 0.0 0.19083969465648803 0.0 0.8091603053435119 0.0 0.10673809346881769 0.7130900124928432 0.10845887461608213 0.05577679288397763 0.015467513993035807 0.00046871254524351 0.9298173711995745 0.06430468641414867 0.00014371421647018436 0.002293691267922634 0.003440536901883961 0.0 0.7743159139648248 0.14726266044569017 0.010034171087011533 0.032182237412928576 0.03620501708954479 0.0 0.03925749529752264 0.163634164557748 0.04644874832982586 0.33645101226763713 0.39476918772735836 0.019439391819907885 0.0 0.0 0.0 0.0 0.9998524420835179 0.00014755791648221752 0.16666666666666666 0.16666666666666666 0.16666666666666666 0.16666666666666666 0.16666666666666666 0.16666666666666666 0.0 0.0 0.0 0.0 0.9998526377836723 0.00014736221632773334 0.0 0.0 0.0 0.0 0.9976444605851196 0.0023555394148804592 0.0 0.0 0.9728728342070798 0.0 0.027127165792920214 0.0 0.16666666666666666 0.16666666666666666 0.16666666666666666 0.16666666666666666 0.16666666666666666 0.16666666666666666 0.0 0.0 0.3749035582901945 0.0 0.6250964417098056 0.0 0.0 0.0 0.25950559972355075 0.0 0.7404944002764493 0.0 0.0 0.14159292035398288 0.0 0.0 0.8230088495575215 0.03539823008849572 0.16666666666666666 0.16666666666666666 0.16666666666666666 0.16666666666666666 0.16666666666666666 0.16666666666666666 0.0 0.09090909090909047 0.0 0.0 0.27272727272727304 0.6363636363636365 0.0 0.013513513513513525 0.0 0.0 0.16216216216216223 0.8243243243243242 0.0 0.0 6.352836541515802e-05 0.0 0.8124483832031 0.1874880884314848 0.16665607860576412 0.16665607860576412 0.16671960697117955 0.16665607860576412 0.16665607860576412 0.16665607860576412 0.0 0.0 0.00025425895878935844 0.0 0.9442043109833658 0.055541430057844884 0.0 0.0 0.0024116348279611117 0.0 0.8240947364464665 0.17349362872557236 0.0 0.0 0.0 0.0 0.9999295526593871 7.044734061289172e-05 0.16666666666666666 0.16666666666666666 0.16666666666666666 0.16666666666666666 0.16666666666666666 0.16666666666666666 0.0 0.0 0.0 0.0 0.9996482785236179 0.000351721476382057 0.0 0.0 0.0 0.0 0.997330138111078 0.0026698618889220913 0.0011154426190469434 0.0 0.015124798108957655 0.0 0.001914190219244598 0.9818455690527509 0.16756686769647697 0.16494041014653732 0.17248043784156342 0.16494041014653732 0.16513146402234766 0.16494041014653732 0.013693273005804368 0.0 0.03115378513140781 0.0 0.004344097139619017 0.9508088447231687 0.001178790334928292 0.0 0.24966307439395555 0.0 0.027821478723085373 0.7213366565480307 </TABLE>
    </DEFINITION>
    <DEFINITION>
      <FOR>success</FOR>
      <GIVEN>distance</GIVEN>
      <GIVEN>pixel</GIVEN>
      <TABLE>0.7106381923551315 0.2893618076448686 6.0797665369649034e-05 0.9999392023346304 0.0020848855863613257 0.9979151144136386 0.0 1.0 0.0 1.0 0.15813052457218163 0.8418694754278183 0.918706126624019 0.08129387337598108 0.07257383583214375 0.9274261641678563 0.005124172828519331 0.9948758271714806 0.018058631970287974 0.981941368029712 0.006201991270464365 0.9937980087295357 0.008924385711767539 0.9910756142882325 </TABLE>
    </DEFINITION>
  </NETWORK>
</BIF>
