<?xml version='1.0' encoding='utf-8'?>
<BIF VERSION="0.3">
  <NETWORK>
    <NAME>UNTITLED</NAME>
    <VARIABLE TYPE="nature">
      <NAME>bitrate</NAME>
      <OUTCOME>10800</OUTCOME>
      <OUTCOME>10920</OUTCOME>
      <OUTCOME>12600</OUTCOME>
      <OUTCOME>2520</OUTCOME>
      <OUTCOME>2640</OUTCOME>
      <OUTCOME>3240</OUTCOME>
      <OUTCOME>3360</OUTCOME>
      <OUTCOME>3600</OUTCOME>
      <OUTCOME>3960</OUTCOME>
      <OUTCOME>4200</OUTCOME>
      <OUTCOME>5040</OUTCOME>
      <OUTCOME>5280</OUTCOME>
      <OUTCOME>5400</OUTCOME>
      <OUTCOME>5880</OUTCOME>
      <OUTCOME>6240</OUTCOME>
      <OUTCOME>6480</OUTCOME>
      <OUTCOME>6600</OUTCOME>
      <OUTCOME>7200</OUTCOME>
      <OUTCOME>7560</OUTCOME>
      <OUTCOME>7800</OUTCOME>
      <OUTCOME>7920</OUTCOME>
      <OUTCOME>9000</OUTCOME>
      <OUTCOME>9240</OUTCOME>
      <OUTCOME>9360</OUTCOME>
      <PROPERTY>weight = None</PROPERTY>
    </VARIABLE>
    <VARIABLE TYPE="nature">
      <NAME>consumption</NAME>
      <OUTCOME>19</OUTCOME>
      <OUTCOME>20</OUTCOME>
      <OUTCOME>21</OUTCOME>
      <OUTCOME>22</OUTCOME>
      <OUTCOME>23</OUTCOME>
      <OUTCOME>24</OUTCOME>
      <OUTCOME>25</OUTCOME>
      <PROPERTY>weight = None</PROPERTY>
    </VARIABLE>
    <VARIABLE TYPE="nature">
      <NAME>cpu_utilization</NAME>
      <OUTCOME>High</OUTCOME>
      <OUTCOME>Low</OUTCOME>
      <OUTCOME>Mid</OUTCOME>
      <OUTCOME>Very_High</OUTCOME>
      <PROPERTY>weight = None</PROPERTY>
    </VARIABLE>
    <VARIABLE TYPE="nature">
      <NAME>distance</NAME>
      <OUTCOME>False</OUTCOME>
      <OUTCOME>True</OUTCOME>
      <PROPERTY>weight = None</PROPERTY>
    </VARIABLE>
    <VARIABLE TYPE="nature">
      <NAME>fps</NAME>
      <OUTCOME>14</OUTCOME>
      <OUTCOME>18</OUTCOME>
      <OUTCOME>22</OUTCOME>
      <OUTCOME>26</OUTCOME>
      <OUTCOME>30</OUTCOME>
      <PROPERTY>weight = None</PROPERTY>
    </VARIABLE>
    <VARIABLE TYPE="nature">
      <NAME>in_time</NAME>
      <OUTCOME>False</OUTCOME>
      <OUTCOME>True</OUTCOME>
      <PROPERTY>weight = None</PROPERTY>
    </VARIABLE>
    <VARIABLE TYPE="nature">
      <NAME>memory_usage</NAME>
      <OUTCOME>Low</OUTCOME>
      <OUTCOME>Mid</OUTCOME>
      <PROPERTY>weight = None</PROPERTY>
    </VARIABLE>
    <VARIABLE TYPE="nature">
      <NAME>network</NAME>
      <OUTCOME>False</OUTCOME>
      <OUTCOME>True</OUTCOME>
      <PROPERTY>weight = None</PROPERTY>
    </VARIABLE>
    <VARIABLE TYPE="nature">
      <NAME>pixel</NAME>
      <OUTCOME>120</OUTCOME>
      <OUTCOME>180</OUTCOME>
      <OUTCOME>240</OUTCOME>
      <OUTCOME>300</OUTCOME>
      <OUTCOME>360</OUTCOME>
      <OUTCOME>420</OUTCOME>
      <PROPERTY>weight = None</PROPERTY>
    </VARIABLE>
    <VARIABLE TYPE="nature">
      <NAME>stream_count</NAME>
      <OUTCOME>1</OUTCOME>
      <OUTCOME>10</OUTCOME>
      <OUTCOME>11</OUTCOME>
      <OUTCOME>12</OUTCOME>
      <OUTCOME>13</OUTCOME>
      <OUTCOME>2</OUTCOME>
      <OUTCOME>3</OUTCOME>
      <OUTCOME>4</OUTCOME>
      <OUTCOME>5</OUTCOME>
      <OUTCOME>6</OUTCOME>
      <OUTCOME>7</OUTCOME>
      <OUTCOME>8</OUTCOME>
      <OUTCOME>9</OUTCOME>
      <PROPERTY>weight = None</PROPERTY>
    </VARIABLE>
    <VARIABLE TYPE="nature">
      <NAME>success</NAME>
      <OUTCOME>False</OUTCOME>
      <OUTCOME>True</OUTCOME>
      <PROPERTY>weight = None</PROPERTY>
    </VARIABLE>
    <DEFINITION>
      <FOR>bitrate</FOR>
      <GIVEN>pixel</GIVEN>
      <TABLE>0.0 0.0 0.0 0.0 0.10872406927352929 0.0 0.0 0.8912759307264707 0.0 0.0 0.0 0.0 0.0 0.0 0.0 0.0 0.0 0.0 0.0 0.0 0.0 0.0 0.0 0.0 0.0 0.0 0.0 0.13533789397042112 0.0 0.07562070948084522 0.0 0.0 0.542658224795301 0.0 0.0 0.0 0.24638317175343283 0.0 0.0 0.0 0.0 0.0 0.0 0.0 0.0 0.0 0.0 0.0 0.0 0.0 0.0 0.0 0.0 0.0 0.029470714259182837 0.0 0.0 0.0 0.0 0.12209282919947835 0.0 0.0 0.7267299708536141 0.0 0.0 0.12170648568772459 0.0 0.0 0.0 0.0 0.0 0.0 0.0 0.0 0.0 0.0 0.0 0.0 0.0 0.0 0.0 0.10585443598535192 0.0 0.0 0.008285740762354403 0.0 0.0 0.0 0.016596598971702983 0.0 0.0 0.725789947023072 0.0 0.14347327725751863 0.0 0.0 0.01420738719862571 0.0 0.0 0.0 0.0 0.0 0.0 0.0 0.0 0.0 0.06896085057729388 0.0 0.0 0.0 0.0 0.054513343606760536 0.0 0.0 0.0 0.0 0.06399565089769535 0.0 0.0 0.7983227677196245 0.0 0.02838928057176377 0.8332011279002992 0.0 0.0 0.0 0.0 0.0 0.0 0.0 0.0 0.0 0.0 0.07359484579383942 0.0 0.0 0.0 0.0 0.04573738315205752 0.0 0.0 0.0 0.019077362582040094 0.0 </TABLE>
    </DEFINITION>
    <DEFINITION>
      <FOR>consumption</FOR>
      <GIVEN>fps</GIVEN>
      <GIVEN>stream_count</GIVEN>
      <TABLE>0.0 0.0064596415676706825 0.2777645874098394 0.6124215059397593 0.05167713254136546 0.02583856627068273 0.02583856627068273 0.13948218504411553 0.13948218504411553 0.13948218504411553 0.16310688973530688 0.13948218504411553 0.13948218504411553 0.13948218504411553 0.14285714285714285 0.14285714285714285 0.14285714285714285 0.14285714285714285 0.14285714285714285 0.14285714285714285 0.14285714285714285 0.14285714285714285 0.14285714285714285 0.14285714285714285 0.14285714285714285 0.14285714285714285 0.14285714285714285 0.14285714285714285 0.14285714285714285 0.14285714285714285 0.14285714285714285 0.14285714285714285 0.14285714285714285 0.14285714285714285 0.14285714285714285 0.0 0.0 0.03549954597884507 0.7515031781480848 0.10649863793653516 0.03549954597884507 0.07099909195769014 0.1390442012848652 0.1390442012848652 0.1390442012848652 0.1657347922908089 0.1390442012848652 0.1390442012848652 0.1390442012848652 0.0 0.0 0.01133780627361228 0.7789127776645608 0.06802683764167357 0.03968232195764294 0.1020402564625104 0.0 0.0 0.0 0.30776777239844627 0.4845625593210876 0.06922322276015537 0.13844644552031074 0.0 0.0 0.0 0.41366497639447447 0.3793932505682811 0.1552063297779333 0.05173544325931108 0.13548130283091764 0.13548130283091764 0.13548130283091764 0.18711218301449412 0.13548130283091764 0.13548130283091764 0.13548130283091764 0.13871751430489404 0.13871751430489404 0.13871751430489404 0.1676949141706358 0.13871751430489404 0.13871751430489404 0.13871751430489404 0.13774659958417318 0.13774659958417318 0.13774659958417318 0.17352040249496087 0.13774659958417318 0.13774659958417318 0.13774659958417318 0.0 0.0048785012057132255 0.034149508439992586 0.6780189204229271 0.09269152290855132 0.043906510851419035 0.14635503617139678 0.14285714285714285 0.14285714285714285 0.14285714285714285 0.14285714285714285 0.14285714285714285 0.14285714285714285 0.14285714285714285 0.14285714285714285 0.14285714285714285 0.14285714285714285 0.14285714285714285 0.14285714285714285 0.14285714285714285 0.14285714285714285 0.14285714285714285 0.14285714285714285 0.14285714285714285 0.14285714285714285 0.14285714285714285 0.14285714285714285 0.14285714285714285 0.0 0.0 1.1193194537721064e-05 0.4443996716662935 0.4444668308335198 0.11111111111111109 1.1193194537721064e-05 0.0 0.018169942029531646 0.018169942029531646 0.6547711014388985 0.18169942029531655 0.0 0.12718959420672157 0.1406690654478265 0.1406690654478265 0.1406690654478265 0.15598560731304092 0.1406690654478265 0.1406690654478265 0.1406690654478265 0.0 0.0012345679012345683 0.022222222222222227 0.3753086419753085 0.38271604938271625 0.10246913580246915 0.11604938271604948 0.14285714285714285 0.14285714285714285 0.14285714285714285 0.14285714285714285 0.14285714285714285 0.14285714285714285 0.14285714285714285 0.0 0.0 0.015873015873015872 0.10317460317460318 0.6428571428571429 0.15873015873015872 0.07936507936507936 0.14285714285714285 0.14285714285714285 0.14285714285714285 0.14285714285714285 0.14285714285714285 0.14285714285714285 0.14285714285714285 0.14285714285714285 0.14285714285714285 0.14285714285714285 0.14285714285714285 0.14285714285714285 0.14285714285714285 0.14285714285714285 0.14285714285714285 0.14285714285714285 0.14285714285714285 0.14285714285714285 0.14285714285714285 0.14285714285714285 0.14285714285714285 0.0 0.022234120498224656 0.13340472298934788 0.5775517105337317 0.17342613988615227 0.048915065096094223 0.04446824099644931 0.14285714285714285 0.14285714285714285 0.14285714285714285 0.14285714285714285 0.14285714285714285 0.14285714285714285 0.14285714285714285 0.14285714285714285 0.14285714285714285 0.14285714285714285 0.14285714285714285 0.14285714285714285 0.14285714285714285 0.14285714285714285 0.0 0.0 0.015151515151515142 0.0 0.13636363636363635 0.6363636363636364 0.21212121212121218 0.14285714285714285 0.14285714285714285 0.14285714285714285 0.14285714285714285 0.14285714285714285 0.14285714285714285 0.14285714285714285 0.0 0.010967472894078397 0.021934945788156794 0.72581317764804 0.07677231025854879 0.07677231025854879 0.08773978315262718 0.14019189765458423 0.14019189765458423 0.14019189765458423 0.15884861407249468 0.14019189765458423 0.14019189765458423 0.14019189765458423 0.0 0.0 0.0 0.2945842606859556 0.5253095931062033 0.12007076413856073 0.060035382069280364 0.14249593642766842 0.14249593642766842 0.14249593642766842 0.14502438143398952 0.14249593642766842 0.14249593642766842 0.14249593642766842 0.0 0.0 0.01652892561983471 0.061983471074380146 0.615702479338843 0.23140495867768585 0.07438016528925621 0.14285714285714285 0.14285714285714285 0.14285714285714285 0.14285714285714285 0.14285714285714285 0.14285714285714285 0.14285714285714285 0.0 0.0 0.018101519931172927 0.04514482363062805 0.3348781187266992 0.5430455979351877 0.058829939776312005 0.0 0.0 0.01948051948051948 0.03246753246753247 0.15584415584415584 0.7207792207792207 0.07142857142857141 0.0012081218528488373 0.007248731117093017 0.05798984893674414 0.8634822306280813 0.03503553373261628 0.013289340381337205 0.021746193351279072 0.0 0.0 0.0076142131979695495 0.030847325263568905 0.17493166731745413 0.6858648965247949 0.10074189769621242 0.0 0.0 0.007381507381507378 0.038461538461538464 0.15967365967365968 0.6907536907536908 0.1037296037296038 0.0 0.0 0.0075337034099920725 0.030927835051546407 0.14512291831879462 0.7061855670103093 0.11022997620935757 0.0 0.0 7.752136143691083e-05 0.03830647648972565 0.42072764134320456 0.5015296404793229 0.039358720326309875 0.14275023232481066 0.14275023232481066 0.14275023232481066 0.14349860605113612 0.14275023232481066 0.14275023232481066 0.14275023232481066 0.0 0.0 0.0 0.2024618535227785 0.5696701046265867 0.15191202790042316 0.07595601395021158 0.1426434816908816 0.1426434816908816 0.1426434816908816 0.1441391098547104 0.1426434816908816 0.1426434816908816 0.1426434816908816 0.14275023232481066 0.14275023232481066 0.14275023232481066 0.14349860605113612 0.14275023232481066 0.14275023232481066 0.14275023232481066 0.0 0.0 0.014102564102564103 0.028205128205128206 0.3611111111111111 0.5038461538461538 0.09273504273504271 0.0 0.00019425019425019414 0.01825951825951825 0.03923853923853922 0.49242424242424243 0.3952991452991454 0.054584304584304535 0.0 0.00020585742285007434 0.021615029399257805 0.03555797394740183 0.35242790791932727 0.5420225943642457 0.048170636946917374 0.0 0.0 0.01066260472201066 0.03503427265803502 0.18507235338918515 0.6968773800456968 0.07235338918507234 0.00038329100306182316 0.007090883556643729 0.05404403143171705 0.7548854035419642 0.06036833298223714 0.03928732781383689 0.0839407296705393 0.0 0.0 0.022222222222222223 0.011111111111111112 0.23333333333333342 0.5777777777777777 0.15555555555555556 0.0 0.0 0.0 0.2666666666666667 0.2666666666666667 0.4333333333333333 0.03333333333333334 0.14285714285714285 0.14285714285714285 0.14285714285714285 0.14285714285714285 0.14285714285714285 0.14285714285714285 0.14285714285714285 0.14285714285714285 0.14285714285714285 0.14285714285714285 0.14285714285714285 0.14285714285714285 0.14285714285714285 0.14285714285714285 0.0001730248670166637 0.0032874724733166077 0.0276839787226662 0.7110484720821715 0.12959562539548114 0.03875757021173267 0.08945385624761513 0.0 0.0013308331335128557 0.020627913569449263 0.33741145365228714 0.46196545147064993 0.08949852822873954 0.08916581994536132 0.0 0.000476190476190476 0.015238095238095231 0.10809523809523805 0.611904761904762 0.16047619047619047 0.10380952380952384 0.0 0.0 0.01751227311916665 0.04799947653139788 0.5847431386266501 0.27986280279963466 0.0698823089231507 0.0 0.0007575757575757577 0.018560606060606066 0.04015151515151517 0.5715909090909089 0.2931818181818182 0.07575757575757579 0.0 0.0 0.03290678496274811 0.029249843598930785 0.5758687368480918 0.312614457146107 0.04936017744412216 0.0 0.0 0.01662357064873872 0.027521117048784696 0.23272998908234213 0.531954260759639 0.1911710624604954 0.0 0.00036231884057971015 0.015579710144927546 0.03297101449275362 0.3155797101449275 0.5786231884057971 0.056884057971014486 </TABLE>
    </DEFINITION>
    <DEFINITION>
      <FOR>cpu_utilization</FOR>
      <GIVEN>consumption</GIVEN>
      <GIVEN>stream_count</GIVEN>
      <TABLE>0.0 1.0 0.0 0.0 0.25 0.25 0.25 0.25 0.25 0.25 0.25 0.25 0.25 0.25 0.25 0.25 0.25 0.25 0.25 0.25 0.0 1.0 0.0 0.0 0.25 0.25 0.25 0.25 0.25 0.25 0.25 0.25 0.25 0.25 0.25 0.25 0.25 0.25 0.25 0.25 0.25 0.25 0.25 0.25 0.25 0.25 0.25 0.25 0.25 0.25 0.25 0.25 0.0 1.0 0.0 0.0 0.25 0.25 0.25 0.25 0.25 0.25 0.25 0.25 0.25 0.25 0.25 0.25 0.25 0.25 0.25 0.25 0.0 1.0 0.0 0.0 0.0 1.0 0.0 0.0 0.0 1.0 0.0 0.0 0.25 0.25 0.25 0.25 0.0 1.0 0.0 0.0 0.0 1.0 0.0 0.0 0.0 1.0 0.0 0.0 0.0 1.0 0.0 0.0 0.0 1.0 0.0 0.0 0.0 1.0 0.0 0.0 0.0 1.0 0.0 0.0 0.0 1.0 0.0 0.0 0.24997775054872215 0.25006674835383363 0.24997775054872215 0.24997775054872215 0.0 1.0 0.0 0.0 0.0 1.0 0.0 0.0 0.0 1.0 0.0 0.0 0.0 1.0 0.0 0.0 0.0 1.0 0.0 0.0 0.0 1.0 0.0 0.0 0.0 1.0 0.0 0.0 0.0 1.0 0.0 0.0 0.010021455858495997 0.37965735974198794 0.6075476222036922 0.002773562195823957 0.0026999662504218697 0.2829795995474585 0.6964894070899585 0.0178310271121611 0.0 0.15887850467289732 0.8411214953271027 0.0 0.0 0.23076923076923075 0.7692307692307693 0.0 0.0 3.34088689320222e-05 0.9999665911310681 0.0 0.025018831378456903 0.07753423695625289 0.8940572835430477 0.003389648122242548 0.029027962716378163 0.029080262461296576 0.9374177402018192 0.004474034620505992 0.028832057338328713 0.04424612014453966 0.9200803173860027 0.006841505131128847 0.01889929612592141 0.17772935081149083 0.7920927408584089 0.011278612204178907 0.013074440859018582 0.181749012838364 0.7904886638056774 0.014687882496940025 0.025852763385146804 0.26637635914648156 0.6878011019934149 0.019969775474956823 0.008353618057092277 0.2438937098576292 0.721225785605969 0.02652688647930958 0.010526608154649484 0.2540084198682417 0.7151338976520337 0.020331074325074992 0.2 0.0 0.8 0.0 0.6619411123227917 0.0 0.33805888767720826 0.0 0.6730310262529833 0.0 0.3269689737470167 0.0 0.6533333333333333 0.0 0.3466666666666667 0.0 0.5789096760753635 0.0 0.42109032392463647 0.0 0.09232769830949286 0.0 0.9076723016905072 0.0 0.14147564469914045 0.0 0.8585243553008596 0.0 0.24564400409976112 0.0 0.7543559959002389 0.0 0.33874181611158555 0.0 0.6612581838884145 0.0 0.41020721412125866 0.0 0.5897927858787414 0.0 0.6361867704280156 0.0 0.36381322957198436 0.0 0.6968026460859978 0.0 0.3031973539140022 0.0 0.6842867487328023 0.0 0.3157132512671977 0.0 1.0 0.0 0.0 0.0 1.0 0.0 0.0 0.0 1.0 0.0 0.0 0.0 1.0 0.0 0.0 0.0 1.0 0.0 0.0 0.0 1.0 0.0 0.0 0.0 1.0 0.0 0.0 0.0 1.0 0.0 0.0 0.0 1.0 0.0 0.0 0.0 1.0 0.0 0.0 0.0 1.0 0.0 0.0 0.0 1.0 0.0 0.0 0.0 1.0 0.0 0.0 0.0 0.05999999999999992 0.0 0.0 0.9400000000000002 0.20754716981132063 0.0 0.0 0.7924528301886793 0.21268656716417922 0.0 0.0 0.7873134328358207 0.2226027397260272 0.0 0.0 0.7773972602739728 0.0003553051335722792 0.0 0.0 0.9996446948664278 0.08426966292134837 0.0 0.0 0.9157303370786517 0.0743494423791821 0.0 0.0 0.9256505576208178 0.09601449275362323 0.0 0.0 0.9039855072463767 0.1306413301662707 0.0 0.0 0.8693586698337293 0.1785714285714285 0.0 0.0 0.8214285714285715 0.1267605633802817 0.0 0.0 0.8732394366197183 0.15555555555555556 0.0 0.0 0.8444444444444444 0.20111731843575428 0.0 0.0 0.7988826815642457 </TABLE>
    </DEFINITION>
    <DEFINITION>
      <FOR>distance</FOR>
      <GIVEN>fps</GIVEN>
      <GIVEN>in_time</GIVEN>
      <TABLE>0.12815821603645958 0.8718417839635405 0.38353596308496773 0.6164640369150324 0.08610858887075604 0.913891411129244 0.22496163233182365 0.7750383676681764 0.07809387289304903 0.921906127106951 0.15346807297158604 0.8465319270284138 0.041730837696271825 0.9582691623037282 0.06710597488902334 0.9328940251109766 0.029846270363832524 0.9701537296361675 0.03604652660089243 0.9639534733991076 </TABLE>
    </DEFINITION>
    <DEFINITION>
      <FOR>fps</FOR>
      <GIVEN>bitrate</GIVEN>
      <TABLE>0.0 0.0 0.0 0.0 1.0 0.0 0.0 0.0 1.0 0.0 0.0 0.0 0.0 0.0 1.0 1.0 0.0 0.0 0.0 0.0 0.0 0.0 1.0 0.0 0.0 0.0 1.0 0.0 0.0 0.0 1.0 0.0 0.0 0.0 0.0 0.0 0.0 0.0 0.0 1.0 0.0 0.0 1.0 0.0 0.0 1.0 0.0 0.0 0.0 0.0 1.0 0.0 0.0 0.0 0.0 0.0 0.0 1.0 0.0 0.0 0.0 0.5452196382428941 0.0 0.0 0.454780361757106 1.0 0.0 0.0 0.0 0.0 0.0 0.0 0.0 1.0 0.0 0.0 1.0 0.0 0.0 0.0 0.0 0.0 1.0 0.0 0.0 0.0 0.0 0.0 0.0 1.0 0.0 1.0 0.0 0.0 0.0 0.0 0.0 0.0 1.0 0.0 0.0 0.0 1.0 0.0 0.0 0.0 0.0 0.0 0.0 1.0 0.0 0.0 1.0 0.0 0.0 0.0 0.0 0.0 1.0 0.0 </TABLE>
    </DEFINITION>
    <DEFINITION>
      <FOR>in_time</FOR>
      <GIVEN>consumption</GIVEN>
      <GIVEN>stream_count</GIVEN>
      <TABLE>0.3333333333333333 0.6666666666666666 0.5 0.5 0.5 0.5 0.5 0.5 0.5 0.5 1.0 0.0 0.5 0.5 0.5 0.5 0.5 0.5 0.5 0.5 0.5 0.5 0.5 0.5 0.5 0.5 0.8 0.2 0.5 0.5 0.5 0.5 0.5 0.5 0.5 0.5 0.7619047619047619 0.23809523809523805 0.75 0.25 0.6666666666666666 0.3333333333333333 0.5 0.5 0.0 1.0 0.0 1.0 1.0 0.0 0.0 1.0 0.3195121951219512 0.6804878048780488 0.5609756097560975 0.43902439024390255 0.5789473684210525 0.4210526315789475 0.5499999999999998 0.45000000000000023 0.500011009895023 0.49998899010497705 0.8292682926829267 0.17073170731707324 0.7822580645161289 0.21774193548387116 0.7380952380952379 0.26190476190476214 0.819047619047619 0.18095238095238098 0.7727272727272729 0.22727272727272704 0.78125 0.21875 0.6936936936936937 0.3063063063063063 0.6216216216216216 0.37837837837837845 0.051619145628086636 0.9483808543719133 0.8350070152424981 0.16499298475750188 0.8130841121495326 0.1869158878504674 0.8205128205128203 0.17948717948717968 0.2223336397369423 0.7776663602630577 0.044705781293054234 0.9552942187069459 0.11539698073251725 0.8846030192674827 0.18144551877098866 0.8185544812290114 0.7230009013555335 0.27699909864446637 0.646468322110917 0.353531677889083 0.7549193285943999 0.2450806714056 0.742829016409244 0.257170983590756 0.8138232867742827 0.18617671322571727 0.1414634146341463 0.8585365853658536 0.2791712104689204 0.7208287895310797 0.23866348448687325 0.7613365155131269 0.3546666666666667 0.6453333333333333 0.0005454289324752003 0.9994545710675248 0.03250975292587777 0.9674902470741222 0.023638968481375363 0.9763610315186247 0.045439016057396676 0.9545609839426034 0.08539709649871902 0.914602903501281 0.07981580966999223 0.9201841903300078 0.07898832684824907 0.921011673151751 0.17254685777287765 0.8274531422271223 0.1947863866763214 0.8052136133236786 0.08750000000000002 0.9125000000000001 0.2701262272089761 0.7298737727910238 0.28754885538805136 0.7124511446119486 0.34393856280855734 0.6560614371914427 0.002229829650516462 0.9977701703494835 0.07327586206896554 0.9267241379310345 0.1143911439114392 0.8856088560885609 0.08549222797927461 0.9145077720207254 0.12447885646217983 0.8755211435378202 0.14229636898920522 0.8577036310107948 0.059396299902628985 0.9406037000973709 0.08519701810436636 0.9148029818956337 0.22357263990955367 0.7764273600904463 0.05799999999999999 0.9420000000000001 0.6509433962264151 0.3490566037735849 0.541044776119403 0.458955223880597 0.47602739726027404 0.5239726027397259 0.0008106113113669118 0.999189388688633 0.1198501872659175 0.8801498127340825 0.2713754646840149 0.728624535315985 0.3532608695652174 0.6467391304347826 0.4655581947743466 0.5344418052256533 0.5245535714285714 0.47544642857142855 0.44014084507042256 0.5598591549295774 0.5814814814814812 0.4185185185185188 0.5921787709497206 0.40782122905027934 </TABLE>
    </DEFINITION>
    <DEFINITION>
      <FOR>memory_usage</FOR>
      <TABLE>0.3533869533221009 0.6466130466778991 </TABLE>
    </DEFINITION>
    <DEFINITION>
      <FOR>network</FOR>
      <GIVEN>pixel</GIVEN>
      <GIVEN>stream_count</GIVEN>
      <TABLE>0.0 1.0 0.5 0.5 0.5 0.5 0.5 0.5 0.5 0.5 0.5 0.5 0.4995682956311518 0.5004317043688482 0.0 1.0 0.4978489072448804 0.5021510927551196 0.5 0.5 0.5 0.5 0.0 1.0 0.5 0.5 0.0 1.0 0.5 0.5 0.5 0.5 0.5 0.5 0.0 1.0 0.5 0.5 0.498965160400138 0.5010348395998621 0.0 1.0 0.49936708860759493 0.5006329113924051 0.0 1.0 0.5 0.5 0.5 0.5 0.0 1.0 0.0 1.0 0.5 0.5 0.5 0.5 0.0 1.0 0.5 0.5 0.0 1.0 0.49464265359626125 0.5053573464037387 0.0 1.0 0.4997984451482868 0.5002015548517132 0.0 1.0 0.0 1.0 0.0 1.0 0.0 1.0 0.0 1.0 0.0 1.0 0.5 0.5 0.0 1.0 0.5 0.5 0.0 1.0 0.49913733609385785 0.5008626639061422 0.0 1.0 0.49438906294502993 0.5056109370549701 0.0 1.0 0.0 1.0 0.0 1.0 0.0 1.0 0.0 1.0 0.0 1.0 0.0 1.0 0.0 1.0 0.0 1.0 0.0 1.0 0.4795027624309392 0.5204972375690607 0.0 1.0 0.0 1.0 0.0 1.0 0.0 1.0 0.0 1.0 0.0 1.0 0.0 1.0 0.0 1.0 1.0 0.0 0.5 0.5 0.5 0.5 0.0 1.0 0.0 1.0 0.0 1.0 0.0 1.0 0.0 1.0 0.4841570902599576 0.5158429097400424 0.0 1.0 0.0 1.0 </TABLE>
    </DEFINITION>
    <DEFINITION>
      <FOR>pixel</FOR>
      <TABLE>0.006931165598148373 0.021841236056117385 0.05550961793605794 0.17708207228819164 0.29699485435648826 0.44164105376499635 </TABLE>
    </DEFINITION>
    <DEFINITION>
      <FOR>stream_count</FOR>
      <GIVEN>bitrate</GIVEN>
      <TABLE>0.0008589589417625838 0.0 0.0 0.0 0.0 0.003435835767050335 0.0 0.662658191605108 0.0 0.0 0.0 0.0017179178835251675 0.331329095802554 0.708356409838736 0.035343704186349564 0.0 0.0 0.0 0.0 0.042014171689200186 0.0014823261117445836 0.0007411630558722918 0.07068740837269913 0.0 0.07068740837269913 0.07068740837269913 0.16718792154198178 0.0009635721113653545 0.0009635721113653545 0.0 0.0 0.1840422732707827 0.19766700972898082 0.09153935057970865 0.19175085016170565 0.08286720157742049 0.012677484787018254 0.0 0.07034076412967089 0.0011840324763193505 0.0 0.0 0.0 0.0 0.0 0.0 0.007104194857916103 0.0 0.9786874154262517 0.0 0.0 0.013024357239512856 0.0 0.0 0.0 0.0 0.0 0.0 0.0 1.0 0.0 0.0 0.0 0.0 0.0 0.0 0.0 0.0 0.0 0.997930320800276 0.0 0.002069679199724043 0.0 0.0 0.0 0.0 0.0 0.0 0.000795318979719366 0.0 0.0 0.0 0.0 0.49304095892745553 0.004771913878316196 0.006760211327614611 0.000397659489859683 0.49304095892745553 0.000397659489859683 0.000795318979719366 0.0 0.3327611854903307 0.0 0.0 0.0 0.0 0.0 0.0008582217645039478 0.33104474196132283 0.004291108822519739 0.0 0.0 0.33104474196132283 0.0 0.6668769716088329 0.0 0.0 0.0 0.0 0.0 0.0 0.0 0.0012618296529968455 0.0 0.0 0.0 0.3318611987381703 0.899880810488677 0.01051976991242162 0.0 0.0 0.0 0.0 0.0010882520599056849 0.0050785096128931955 0.009068767165880707 0.018500285018396644 0.030471057677359175 0.01487277815204436 0.01051976991242162 0.12543906906583338 0.0003771145350716517 0.0 0.0 0.0 0.005656718026074775 0.01998707035879754 0.7760155155694429 0.07101605430449302 0.0007542290701433034 0.0003771145350716517 0.0003771145350716517 0.0 0.21212020587746971 0.0 0.0 0.0 0.0 0.0 0.0 0.0 0.0 0.10479827328573801 0.0 0.42108583762244733 0.2619956832143449 0.0017226528854435831 0.0 0.0 0.0 0.0 0.40878552971576226 0.0005167958656330749 0.5889750215331611 0.0 0.0 0.0 0.0 0.0 0.9237837263649883 0.011153601019757807 0.0 0.0 0.0 0.0 0.0 0.00037178670065859357 0.011153601019757807 0.013012534523050776 0.018217548332271086 0.011153601019757807 0.011153601019757807 0.06216368013460952 0.0 0.0 0.010113192245037782 0.0 0.0 0.005938106657531119 0.0 0.0 0.8596213408282122 0.020226384490075563 0.02171091115445834 0.020226384490075563 0.11202552905609671 0.0 0.0 0.0 0.0 0.001007725898555593 0.003527040644944575 0.8834397044004032 0.0 0.0 0.0 0.0 0.0 0.0006309148264984228 0.0 0.0 0.49779179810725555 0.0 0.3331230283911672 0.0 0.0 0.0012618296529968455 0.16593059936908516 0.0 0.0012618296529968455 0.0 0.0017223561832586975 0.0 0.0 0.0 0.0 0.0017223561832586975 0.0 0.5694601643619901 0.0 0.14236504109049752 0.14236504109049752 0.0 0.14236504109049752 0.27643084489078346 0.0 0.0 0.0 0.0 0.016494501832722427 0.008997000999666778 0.4653851015178849 0.0 0.23269255075894246 0.0 0.0 0.0 0.008369347778724081 0.0 0.0 0.0 0.0 0.0 0.0 0.0 0.0 0.0 0.6704054348471945 0.3109112876072016 0.010313929766879913 0.013747758517632994 0.0 0.0 0.0 0.0 0.17393903167961747 0.016736401673640166 0.008368200836820083 0.0 0.6288105200239091 0.0 0.15839808726838014 0.0 0.0017179178835251675 0.04141613697531925 0.0 0.0 0.0 0.003435835767050335 0.0 0.600533986142129 0.0 0.0 0.0 0.04227509591708183 0.3106210273148943 0.4916096954630205 0.0 0.0 0.0 0.0 0.01678060907395898 0.001243008079552517 0.490366687383468 0.0 0.0 0.0 0.0 0.0 0.02689026671651549 0.32432387176000393 0.1638166495114305 0.15885250861714473 0.009528500841250363 0.0007308708607409906 0.0 0.0 0.0 0.004964140894285773 0.0016547136314285901 0.15369539581291217 0.15554308135428743 </TABLE>
    </DEFINITION>
    <DEFINITION>
      <FOR>success</FOR>
      <GIVEN>bitrate</GIVEN>
      <TABLE>0.011072935158143884 0.9889270648418562 0.010874985903492172 0.9891250140965078 9.635721113653553e-05 0.9999036427888635 0.107622108383272 0.892377891616728 1.0 0.0 0.055834964564150505 0.9441650354358495 0.07063325244885207 0.929366747551148 0.8285024983789144 0.1714975016210856 0.08359621451104111 0.9164037854889588 0.04075318887465851 0.9592468111253414 0.0004579247925870057 0.999542075207413 0.0 1.0 0.01530289979902383 0.9846971002009761 0.0011684724877841512 0.9988315275122158 0.013728106996349566 0.9862718930036504 0.0 1.0 0.015084599942644107 0.9849154000573559 0.009605826484917082 0.990394173515083 0.0 1.0 0.010003397541277072 0.9899966024587229 0.0037629734282453946 0.9962370265717546 0.006212420546297888 0.9937875794537021 0.011144697440533367 0.9888553025594666 0.008005295292650077 0.99199470470735 </TABLE>
    </DEFINITION>
  </NETWORK>
</BIF>
