<?xml version='1.0' encoding='utf-8'?>
<BIF VERSION="0.3">
  <NETWORK>
    <NAME>UNTITLED</NAME>
    <VARIABLE TYPE="nature">
      <NAME>bitrate</NAME>
      <OUTCOME>10800</OUTCOME>
      <OUTCOME>10920</OUTCOME>
      <OUTCOME>12600</OUTCOME>
      <OUTCOME>1680</OUTCOME>
      <OUTCOME>2520</OUTCOME>
      <OUTCOME>2640</OUTCOME>
      <OUTCOME>3120</OUTCOME>
      <OUTCOME>3360</OUTCOME>
      <OUTCOME>3600</OUTCOME>
      <OUTCOME>3960</OUTCOME>
      <OUTCOME>4200</OUTCOME>
      <OUTCOME>4320</OUTCOME>
      <OUTCOME>4680</OUTCOME>
      <OUTCOME>5040</OUTCOME>
      <OUTCOME>5280</OUTCOME>
      <OUTCOME>5400</OUTCOME>
      <OUTCOME>5880</OUTCOME>
      <OUTCOME>6240</OUTCOME>
      <OUTCOME>6480</OUTCOME>
      <OUTCOME>6600</OUTCOME>
      <OUTCOME>7200</OUTCOME>
      <OUTCOME>7560</OUTCOME>
      <OUTCOME>7800</OUTCOME>
      <OUTCOME>7920</OUTCOME>
      <OUTCOME>9000</OUTCOME>
      <OUTCOME>9240</OUTCOME>
      <OUTCOME>9360</OUTCOME>
      <PROPERTY>weight = None</PROPERTY>
    </VARIABLE>
    <VARIABLE TYPE="nature">
      <NAME>consumption</NAME>
      <OUTCOME>6</OUTCOME>
      <OUTCOME>7</OUTCOME>
      <PROPERTY>weight = None</PROPERTY>
    </VARIABLE>
    <VARIABLE TYPE="nature">
      <NAME>cpu_utilization</NAME>
      <OUTCOME>High</OUTCOME>
      <OUTCOME>Low</OUTCOME>
      <OUTCOME>Mid</OUTCOME>
      <OUTCOME>Very_High</OUTCOME>
      <PROPERTY>weight = None</PROPERTY>
    </VARIABLE>
    <VARIABLE TYPE="nature">
      <NAME>distance</NAME>
      <OUTCOME>False</OUTCOME>
      <OUTCOME>True</OUTCOME>
      <PROPERTY>weight = None</PROPERTY>
    </VARIABLE>
    <VARIABLE TYPE="nature">
      <NAME>fps</NAME>
      <OUTCOME>14</OUTCOME>
      <OUTCOME>18</OUTCOME>
      <OUTCOME>22</OUTCOME>
      <OUTCOME>26</OUTCOME>
      <OUTCOME>30</OUTCOME>
      <PROPERTY>weight = None</PROPERTY>
    </VARIABLE>
    <VARIABLE TYPE="nature">
      <NAME>in_time</NAME>
      <OUTCOME>False</OUTCOME>
      <OUTCOME>True</OUTCOME>
      <PROPERTY>weight = None</PROPERTY>
    </VARIABLE>
    <VARIABLE TYPE="nature">
      <NAME>memory_usage</NAME>
      <OUTCOME>High</OUTCOME>
      <OUTCOME>Mid</OUTCOME>
      <OUTCOME>Very_High</OUTCOME>
      <PROPERTY>weight = None</PROPERTY>
    </VARIABLE>
    <VARIABLE TYPE="nature">
      <NAME>network</NAME>
      <OUTCOME>False</OUTCOME>
      <OUTCOME>True</OUTCOME>
      <PROPERTY>weight = None</PROPERTY>
    </VARIABLE>
    <VARIABLE TYPE="nature">
      <NAME>pixel</NAME>
      <OUTCOME>120</OUTCOME>
      <OUTCOME>180</OUTCOME>
      <OUTCOME>240</OUTCOME>
      <OUTCOME>300</OUTCOME>
      <OUTCOME>360</OUTCOME>
      <OUTCOME>420</OUTCOME>
      <PROPERTY>weight = None</PROPERTY>
    </VARIABLE>
    <VARIABLE TYPE="nature">
      <NAME>stream_count</NAME>
      <OUTCOME>1</OUTCOME>
      <OUTCOME>10</OUTCOME>
      <OUTCOME>11</OUTCOME>
      <OUTCOME>12</OUTCOME>
      <OUTCOME>13</OUTCOME>
      <OUTCOME>14</OUTCOME>
      <OUTCOME>2</OUTCOME>
      <OUTCOME>3</OUTCOME>
      <OUTCOME>4</OUTCOME>
      <OUTCOME>5</OUTCOME>
      <OUTCOME>6</OUTCOME>
      <OUTCOME>7</OUTCOME>
      <OUTCOME>8</OUTCOME>
      <OUTCOME>9</OUTCOME>
      <PROPERTY>weight = None</PROPERTY>
    </VARIABLE>
    <VARIABLE TYPE="nature">
      <NAME>success</NAME>
      <OUTCOME>False</OUTCOME>
      <OUTCOME>True</OUTCOME>
      <PROPERTY>weight = None</PROPERTY>
    </VARIABLE>
    <DEFINITION>
      <FOR>bitrate</FOR>
      <GIVEN>fps</GIVEN>
      <TABLE>0.0 0.0 0.0 0.0024783147459727386 0.012391573729863693 0.0 0.0 0.0161090458488228 0.0 0.0 0.028500619578686496 0.0 0.0 0.7397769516728625 0.0 0.0 0.2007434944237918 0.0 0.0 0.0 0.0 0.0 0.0 0.0 0.0 0.0 0.0 0.0 0.0 0.0 0.0 0.0 0.0 0.0 0.0 0.0 0.0 0.0 0.020959879440572378 0.0 0.0 0.0 0.010336773520235284 0.0 0.0 0.6659835510894447 0.0 0.0 0.30271979594974757 0.0 0.0 0.0 0.0 0.0 0.0 0.0 0.0 0.0 0.0 0.021505376344086023 0.0 0.0 0.0 0.03225806451612903 0.0 0.0 0.0 0.0 0.11827956989247311 0.0 0.0 0.0 0.0 0.08064516129032258 0.0 0.0 0.0 0.08064516129032258 0.0 0.6666666666666666 0.0 0.0 0.20833333333333334 0.0 0.0 0.0 0.0 0.08333333333333333 0.0 0.0 0.0 0.0 0.0 0.08333333333333333 0.0 0.0 0.0 0.0 0.3333333333333333 0.0 0.0 0.0 0.0 0.125 0.0 0.0 0.0 0.16666666666666666 0.01447893432979652 0.0 0.6370731105110466 0.0 0.0 0.0 0.0 0.0 0.15926827762776166 0.0 0.0 0.0 0.0 0.0 0.0 0.02895786865959304 0.0 0.0 0.0 0.0 0.13126394021220905 0.0 0.0 0.0 0.02895786865959304 0.0 0.0 </TABLE>
    </DEFINITION>
    <DEFINITION>
      <FOR>consumption</FOR>
      <GIVEN>fps</GIVEN>
      <GIVEN>in_time</GIVEN>
      <GIVEN>stream_count</GIVEN>
      <TABLE>0.8552631578947368 0.14473684210526316 0.09257265877287404 0.9074273412271259 0.056708160442600276 0.9432918395573997 0.13818181818181818 0.8618181818181818 0.14285714285714285 0.8571428571428571 0.5 0.5 0.9333333333333333 0.06666666666666667 0.8962264150943396 0.10377358490566038 0.7922077922077922 0.2077922077922078 0.6363636363636364 0.36363636363636365 0.6536585365853659 0.3463414634146341 0.4551282051282051 0.5448717948717948 0.2869318181818182 0.7130681818181818 0.1956521739130435 0.8043478260869565 0.8239074550128535 0.17609254498714652 0.024062674874090653 0.9759373251259094 0.01920236336779911 0.9807976366322009 0.05148514851485148 0.9485148514851486 0.14285714285714285 0.8571428571428571 0.5 0.5 0.8465346534653465 0.15346534653465346 0.8754601226993866 0.1245398773006135 0.7887778136085134 0.21122218639148663 0.6949152542372882 0.3050847457627119 0.6068900424728645 0.3931099575271355 0.1570796460176991 0.8429203539823009 0.022456461961503207 0.9775435380384968 0.015287769784172664 0.9847122302158273 0.8529411764705882 0.14705882352941177 0.0 1.0 0.5 0.5 0.5 0.5 0.07178393745557923 0.9282160625444208 4.7722825827593336e-05 0.9999522771741725 0.7679180887372014 0.23208191126279865 0.7479674796747968 0.25203252032520324 0.7017543859649122 0.2982456140350877 0.6032482598607889 0.3967517401392111 0.30337078651685395 0.6966292134831461 0.17682926829268292 0.8231707317073171 0.05732484076433121 0.9426751592356688 0.5 0.5 0.845 0.155 0.0 1.0 0.5 0.5 0.5 0.5 0.024096385542168676 0.9759036144578312 0.0 1.0 0.8848771825984019 0.1151228174015981 0.8235294117647058 0.17647058823529413 0.5181518151815182 0.48184818481848185 0.5120931621379516 0.48790683786204836 0.04554455445544554 0.9544554455445544 0.024271844660194174 0.9757281553398058 0.017699115044247787 0.9823008849557522 0.5 0.5 0.8372093023255814 0.1627906976744186 0.5 0.5 0.5 0.5 0.12195121951219512 0.8780487804878049 0.5 0.5 0.5 0.5 0.5714285714285714 0.42857142857142855 0.6395939086294417 0.36040609137055835 0.2222222222222222 0.7777777777777778 0.5 0.5 0.5 0.5 0.5 0.5 0.5 0.5 0.5 0.5 0.9551706571574121 0.044829342842587876 0.5 0.5 0.5 0.5 0.3333333333333333 0.6666666666666666 0.5 0.5 0.5 0.5 0.8517350157728707 0.14826498422712933 0.7988645579886455 0.20113544201135442 0.7721518987341771 0.22784810126582278 0.5 0.5 0.5 0.5 0.5 0.5 0.5 0.5 0.5 0.5 0.8947368421052632 0.10526315789473682 0.5 0.5 0.5 0.5 0.07692307692307691 0.9230769230769231 0.5 0.5 0.5 0.5 0.625 0.375 0.5 0.5 0.5 0.5 0.5 0.5 0.5 0.5 0.5 0.5 0.5 0.5 0.5 0.5 0.9574468085106383 0.042553191489361694 0.5 0.5 0.5 0.5 0.5 0.5 0.5 0.5 0.5 0.5 0.9054054054054054 0.0945945945945946 0.5 0.5 0.5 0.5 0.5 0.5 0.5 0.5 0.5 0.5 0.5 0.5 0.5 0.5 0.5862068965517241 0.4137931034482759 0.5 0.5 0.5 0.5 0.03333333333333333 0.9666666666666667 0.5 0.5 0.49956295790092653 0.5004370420990735 0.5454545454545454 0.4545454545454546 0.6014492753623188 0.39855072463768115 0.5 0.5 0.5 0.5 0.5 0.5 0.5 0.5 0.04216867469879518 0.9578313253012049 0.5 0.5 0.9291958041958043 0.07080419580419581 0.5 0.5 0.5 0.5 0.5 0.5 0.5 0.5 0.4999920502424676 0.5000079497575324 0.8396624472573839 0.16033755274261605 0.6296296296296297 0.3703703703703703 0.5 0.5 0.5 0.5 0.5 0.5 0.5 0.5 0.07142857142857142 0.9285714285714286 0.5 0.5 </TABLE>
    </DEFINITION>
    <DEFINITION>
      <FOR>cpu_utilization</FOR>
      <GIVEN>consumption</GIVEN>
      <GIVEN>memory_usage</GIVEN>
      <GIVEN>stream_count</GIVEN>
      <TABLE>0.0 1.0 0.0 0.0 0.25 0.25 0.25 0.25 0.25 0.25 0.25 0.25 0.25 0.25 0.25 0.25 0.25 0.25 0.25 0.25 0.25 0.25 0.25 0.25 0.0 1.0 0.0 0.0 0.0 1.0 0.0 0.0 0.0 1.0 0.0 0.0 0.0 1.0 0.0 0.0 0.0 1.0 0.0 0.0 0.0 1.0 0.0 0.0 0.25 0.25 0.25 0.25 0.25 0.25 0.25 0.25 0.0 1.0 0.0 0.0 0.25 0.25 0.25 0.25 0.25 0.25 0.25 0.25 0.25 0.25 0.25 0.25 0.25 0.25 0.25 0.25 0.25 0.25 0.25 0.25 0.25 0.25 0.25 0.25 0.25 0.25 0.25 0.25 0.25 0.25 0.25 0.25 0.25 0.25 0.25 0.25 0.25 0.25 0.25 0.25 0.25 0.25 0.25 0.25 0.25 0.25 0.25 0.25 0.25 0.25 0.25 0.25 0.0 1.0 0.0 0.0 0.0 1.0 0.0 0.0 0.0 1.0 0.0 0.0 0.0 1.0 0.0 0.0 0.0 1.0 0.0 0.0 0.24998011738423137 0.2500596478473059 0.24998011738423137 0.24998011738423137 0.0 1.0 0.0 0.0 0.0 1.0 0.0 0.0 0.0 1.0 0.0 0.0 0.0 1.0 0.0 0.0 0.0 1.0 0.0 0.0 0.0 1.0 0.0 0.0 0.0 1.0 0.0 0.0 0.0 1.0 0.0 0.0 0.0 0.7768595041322314 0.2231404958677686 0.0 0.25 0.25 0.25 0.25 0.25 0.25 0.25 0.25 0.25 0.25 0.25 0.25 0.25 0.25 0.25 0.25 0.25 0.25 0.25 0.25 0.033582089552238806 0.6082089552238806 0.29850746268656714 0.05970149253731343 0.05555555555555556 0.5641025641025641 0.27350427350427353 0.10683760683760685 0.07317073170731708 0.5792682926829268 0.3079268292682927 0.039634146341463415 0.026901669758812613 0.6669758812615955 0.2987012987012987 0.0074211502782931356 0.028763183125599234 0.663470757430489 0.3010546500479387 0.006711409395973153 0.033775633293124246 0.6706875753920386 0.29312424607961407 0.0024125452352231603 0.0 0.5 0.5 0.0 0.25 0.25 0.25 0.25 0.0 0.8181818181818182 0.18181818181818177 0.0 0.25 0.25 0.25 0.25 0.25 0.25 0.25 0.25 0.25 0.25 0.25 0.25 0.25 0.25 0.25 0.25 0.25 0.25 0.25 0.25 0.25 0.25 0.25 0.25 0.25 0.25 0.25 0.25 0.25 0.25 0.25 0.25 0.25 0.25 0.25 0.25 0.25 0.25 0.25 0.25 0.25 0.25 0.25 0.25 0.25 0.25 0.25 0.25 0.25 0.25 0.25 0.25 0.23024054982817868 0.2508591065292096 0.17869415807560138 0.3402061855670103 0.02897445672893633 0.6816622188333968 0.2817384674037362 0.007624857033930613 0.12035661218424966 0.6329866270430906 0.24368499257057954 0.002971768202080238 0.09770992366412214 0.6030534351145038 0.28931297709923665 0.009923664122137405 0.08267477203647416 0.6796352583586627 0.23586626139817626 0.00182370820668693 0.00011125112318477741 0.7776541644073924 0.22223458446942274 0.0 0.19740259740259739 0.34805194805194806 0.16623376623376623 0.28831168831168824 0.1605351170568562 0.5150501672240803 0.1688963210702341 0.15551839464882944 0.13321492007104796 0.5275310834813499 0.216696269982238 0.12255772646536411 0.08411214953271028 0.6488651535380507 0.2162883845126836 0.0507343124165554 0.14567901234567898 0.5506172839506172 0.20493827160493833 0.09876543209876541 0.024029574861367836 0.6825323475046211 0.2795748613678373 0.013863216266173753 0.03163881976537505 0.6118023462495557 0.34518307856381086 0.011375755421258443 0.03542549095109743 0.673084328070851 0.28301886792452835 0.008471313053523296 </TABLE>
    </DEFINITION>
    <DEFINITION>
      <FOR>distance</FOR>
      <GIVEN>fps</GIVEN>
      <GIVEN>in_time</GIVEN>
      <TABLE>0.006388318503308237 0.9936116814966918 0.015318728380826882 0.9846812716191731 0.006798447330858707 0.9932015526691413 0.013521931347889059 0.986478068652111 0.01609657947686117 0.9839034205231388 0.011404728789986092 0.9885952712100139 0.05660377358490566 0.9433962264150944 0.05604203152364273 0.9439579684763573 0.10126947757150752 0.8987305224284925 0.030185775672955655 0.9698142243270443 </TABLE>
    </DEFINITION>
    <DEFINITION>
      <FOR>fps</FOR>
      <TABLE>0.5429173934375615 0.29308086183515786 0.09831908187053028 0.014992939170872653 0.0506897236858776 </TABLE>
    </DEFINITION>
    <DEFINITION>
      <FOR>in_time</FOR>
      <GIVEN>fps</GIVEN>
      <GIVEN>stream_count</GIVEN>
      <TABLE>0.08899297423887588 0.9110070257611241 0.34204712812960236 0.6579528718703976 0.5164285714285715 0.4835714285714286 0.6203007518796992 0.37969924812030076 0.6875 0.3125 0.5 0.5 0.06912442396313365 0.9308755760368663 0.06105990783410139 0.9389400921658986 0.06932773109243698 0.930672268907563 0.15714285714285714 0.8428571428571429 0.08820998278829605 0.9117900172117039 0.10317460317460317 0.8968253968253969 0.13891081294396213 0.8610891870560379 0.18534798534798536 0.8146520146520148 0.14529914529914534 0.8547008547008547 0.6111111111111112 0.3888888888888889 0.5 0.5 0.5 0.5 0.8496376811594203 0.15036231884057974 0.9444444444444444 0.05555555555555555 0.07979302832244009 0.9202069716775599 0.12424242424242424 0.8757575757575758 0.15833333333333333 0.8416666666666667 0.11402116402116402 0.8859788359788359 0.14983164983164987 0.8501683501683501 0.2847222222222222 0.7152777777777778 0.5814814814814815 0.4185185185185185 0.5 0.5 0.09871441689623509 0.9012855831037649 0.5 0.5 0.5 0.5 0.9318181818181819 0.06818181818181818 0.5 0.5 0.5 0.5 0.09943181818181819 0.9005681818181819 0.13776223776223775 0.8622377622377623 0.10227272727272728 0.8977272727272727 0.5 0.5 0.5 0.5 0.5 0.5 0.5 0.5 0.5 0.5 0.042986425339366516 0.9570135746606334 0.5 0.5 0.5 0.5 1.0 0.0 0.5 0.5 0.5 0.5 0.05128205128205128 0.9487179487179487 0.5 0.5 0.5 0.5 0.5 0.5 0.5 0.5 0.5 0.5 0.5 0.5 0.5 0.5 0.09206349206349207 0.9079365079365079 0.5 0.5 0.5 0.5 1.0 0.0 0.5 0.5 0.5004608734346195 0.49953912656538046 0.12222222222222222 0.8777777777777778 0.45999999999999996 0.54 0.5 0.5 0.5 0.5 0.5 0.5 0.5 0.5 0.9222222222222222 0.07777777777777778 0.5 0.5 </TABLE>
    </DEFINITION>
    <DEFINITION>
      <FOR>memory_usage</FOR>
      <GIVEN>bitrate</GIVEN>
      <TABLE>1.0 0.0 0.0 0.4 0.2 0.4 0.045454545454545456 0.045454545454545456 0.9090909090909091 1.0 0.0 0.0 0.1 0.0 0.9 1.0 0.0 0.0 1.0 0.0 0.0 0.3076923076923077 0.0 0.6923076923076923 0.18181818181818177 0.0 0.8181818181818182 0.5 0.5 0.0 0.23913043478260868 0.0 0.7608695652173914 0.9997136675998982 0.0 0.0002863324001018071 1.0 0.0 0.0 0.2756640344580043 0.0016750418760469012 0.7226609236659488 0.09090909090909088 0.09090909090909088 0.8181818181818182 0.8064516129032258 0.0 0.1935483870967742 0.16666666666666666 0.006172839506172838 0.8271604938271605 0.75 0.25 0.0 0.34811529933481156 0.0 0.6518847006651884 0.13333333333333333 0.13333333333333333 0.7333333333333333 0.3330154895853199 0.0 0.6669845104146802 0.6493224932249322 0.0 0.3506775067750678 0.3333333333333333 0.6666666666666666 0.0 0.13333333333333333 0.13333333333333333 0.7333333333333333 1.0 0.0 0.0 0.5883431085043989 0.12133431085043989 0.2903225806451613 0.5 0.5 0.0 </TABLE>
    </DEFINITION>
    <DEFINITION>
      <FOR>network</FOR>
      <GIVEN>fps</GIVEN>
      <GIVEN>stream_count</GIVEN>
      <TABLE>0.0 1.0 0.0 1.0 0.0 1.0 0.0 1.0 0.0 1.0 0.5 0.5 0.0 1.0 0.0 1.0 0.0 1.0 0.0 1.0 0.0 1.0 0.0 1.0 0.0 1.0 0.0 1.0 0.0 1.0 0.0 1.0 0.5 0.5 0.5 0.5 0.0 1.0 0.0 1.0 0.0 1.0 0.0 1.0 0.0 1.0 0.0 1.0 0.0 1.0 0.0 1.0 0.0 1.0 0.5 0.5 0.0 1.0 0.5 0.5 0.5 0.5 0.0 1.0 0.5 0.5 0.5 0.5 0.0 1.0 0.0 1.0 0.0 1.0 0.5 0.5 0.5 0.5 0.5 0.5 0.5 0.5 0.5 0.5 0.0 1.0 0.5 0.5 0.5 0.5 1.0 0.0 0.5 0.5 0.5 0.5 0.0 1.0 0.5 0.5 0.5 0.5 0.5 0.5 0.5 0.5 0.5 0.5 0.5 0.5 0.5 0.5 0.0 1.0 0.5 0.5 0.5 0.5 1.0 0.0 0.5 0.5 0.4995232343779798 0.5004767656220203 0.0 1.0 0.0 1.0 0.5 0.5 0.5 0.5 0.5 0.5 0.5 0.5 0.0 1.0 0.5 0.5 </TABLE>
    </DEFINITION>
    <DEFINITION>
      <FOR>pixel</FOR>
      <GIVEN>bitrate</GIVEN>
      <TABLE>0.0 0.0 0.0 0.0 1.0 0.0 0.0 0.0 0.0 0.0 0.0 1.0 0.0 0.0 0.0 0.0 0.0 1.0 1.0 0.0 0.0 0.0 0.0 0.0 0.0 1.0 0.0 0.0 0.0 0.0 1.0 0.0 0.0 0.0 0.0 0.0 1.0 0.0 0.0 0.0 0.0 0.0 0.0 0.0 1.0 0.0 0.0 0.0 1.0 0.0 0.0 0.0 0.0 0.0 0.0 1.0 0.0 0.0 0.0 0.0 0.0 0.0 0.0 1.0 0.0 0.0 0.0 0.0 1.0 0.0 0.0 0.0 0.0 1.0 0.0 0.0 0.0 0.0 0.0 0.0 0.0 0.0 1.0 0.0 0.0 0.0 1.0 0.0 0.0 0.0 0.0 0.3225806451612903 0.0 0.6774193548387096 0.0 0.0 0.0 0.0 0.0 0.0 0.0 1.0 0.0 0.0 1.0 0.0 0.0 0.0 0.0 0.0 0.0 0.0 1.0 0.0 0.0 0.0 0.0 1.0 0.0 0.0 0.0 0.0 1.0 0.0 0.0 0.0 0.0 0.0 0.0 0.0 0.0 1.0 0.0 0.0 0.0 1.0 0.0 0.0 0.0 0.0 0.0 0.0 1.0 0.0 0.0 0.0 0.0 1.0 0.0 0.0 0.0 0.0 0.0 0.0 0.0 1.0 0.0 0.0 0.0 0.0 1.0 0.0 </TABLE>
    </DEFINITION>
    <DEFINITION>
      <FOR>stream_count</FOR>
      <GIVEN>bitrate</GIVEN>
      <GIVEN>memory_usage</GIVEN>
      <TABLE>1.0 0.0 0.0 0.0 0.0 0.0 0.0 0.0 0.0 0.0 0.0 0.0 0.0 0.0 0.07142857142857144 0.07142857142857144 0.07142857142857144 0.07142857142857144 0.07142857142857144 0.07142857142857144 0.07142857142857144 0.07142857142857144 0.07142857142857144 0.07142857142857144 0.07142857142857144 0.07142857142857144 0.07142857142857144 0.07142857142857144 0.07142857142857144 0.07142857142857144 0.07142857142857144 0.07142857142857144 0.07142857142857144 0.07142857142857144 0.07142857142857144 0.07142857142857144 0.07142857142857144 0.07142857142857144 0.07142857142857144 0.07142857142857144 0.07142857142857144 0.07142857142857144 0.0 0.0 0.0 0.0 0.0 0.0 1.0 0.0 0.0 0.0 0.0 0.0 0.0 0.0 1.0 0.0 0.0 0.0 0.0 0.0 0.0 0.0 0.0 0.0 0.0 0.0 0.0 0.0 0.5 0.0 0.0 0.5 0.0 0.0 0.0 0.0 0.0 0.0 0.0 0.0 0.0 0.0 1.0 0.0 0.0 0.0 0.0 0.0 0.0 0.0 0.0 0.0 0.0 0.0 0.0 0.0 1.0 0.0 0.0 0.0 0.0 0.0 0.0 0.0 0.0 0.0 0.0 0.0 0.0 0.0 0.725 0.0 0.0 0.05 0.0 0.0 0.2 0.025 0.0 0.0 0.0 0.0 0.0 0.0 0.0 0.0 0.0 0.0 0.0 0.0 0.0 0.5 0.0 0.0 0.5 0.0 0.0 0.0 0.07142857142857144 0.07142857142857144 0.07142857142857144 0.07142857142857144 0.07142857142857144 0.07142857142857144 0.07142857142857144 0.07142857142857144 0.07142857142857144 0.07142857142857144 0.07142857142857144 0.07142857142857144 0.07142857142857144 0.07142857142857144 0.07142857142857144 0.07142857142857144 0.07142857142857144 0.07142857142857144 0.07142857142857144 0.07142857142857144 0.07142857142857144 0.07142857142857144 0.07142857142857144 0.07142857142857144 0.07142857142857144 0.07142857142857144 0.07142857142857144 0.07142857142857144 0.0 0.0 0.0 0.0 0.0 0.0 1.0 0.0 0.0 0.0 0.0 0.0 0.0 0.0 0.07142857142857144 0.07142857142857144 0.07142857142857144 0.07142857142857144 0.07142857142857144 0.07142857142857144 0.07142857142857144 0.07142857142857144 0.07142857142857144 0.07142857142857144 0.07142857142857144 0.07142857142857144 0.07142857142857144 0.07142857142857144 0.0 0.0 0.0 0.0 0.0 0.0 0.0 0.0 1.0 0.0 0.0 0.0 0.0 0.0 0.0 0.0 0.0 0.0 0.0 0.0 0.0 0.5 0.5 0.0 0.0 0.0 0.0 0.0 0.07142857142857144 0.07142857142857144 0.07142857142857144 0.07142857142857144 0.07142857142857144 0.07142857142857144 0.07142857142857144 0.07142857142857144 0.07142857142857144 0.07142857142857144 0.07142857142857144 0.07142857142857144 0.07142857142857144 0.07142857142857144 0.07142857142857144 0.07142857142857144 0.07142857142857144 0.07142857142857144 0.07142857142857144 0.07142857142857144 0.07142857142857144 0.07142857142857144 0.07142857142857144 0.07142857142857144 0.07142857142857144 0.07142857142857144 0.07142857142857144 0.07142857142857144 0.0 0.0 0.0 0.0 0.0 0.0 1.0 0.0 0.0 0.0 0.0 0.0 0.0 0.0 0.07142857142857144 0.07142857142857144 0.07142857142857144 0.07142857142857144 0.07142857142857144 0.07142857142857144 0.07142857142857144 0.07142857142857144 0.07142857142857144 0.07142857142857144 0.07142857142857144 0.07142857142857144 0.07142857142857144 0.07142857142857144 0.07142857142857144 0.07142857142857144 0.07142857142857144 0.07142857142857144 0.07142857142857144 0.07142857142857144 0.07142857142857144 0.07142857142857144 0.07142857142857144 0.07142857142857144 0.07142857142857144 0.07142857142857144 0.07142857142857144 0.07142857142857144 0.0 0.0 0.0 0.0 0.0 0.0 0.75 0.25 0.0 0.0 0.0 0.0 0.0 0.0 0.07142857142857144 0.07142857142857144 0.07142857142857144 0.07142857142857144 0.07142857142857144 0.07142857142857144 0.07142857142857144 0.07142857142857144 0.07142857142857144 0.07142857142857144 0.07142857142857144 0.07142857142857144 0.07142857142857144 0.07142857142857144 0.0 0.0 0.1111111111111111 0.1111111111111111 0.05555555555555555 0.0 0.0 0.0 0.0 0.0 0.0 0.7222222222222222 0.0 0.0 1.0 0.0 0.0 0.0 0.0 0.0 0.0 0.0 0.0 0.0 0.0 0.0 0.0 0.0 0.07142857142857144 0.07142857142857144 0.07142857142857144 0.07142857142857144 0.07142857142857144 0.07142857142857144 0.07142857142857144 0.07142857142857144 0.07142857142857144 0.07142857142857144 0.07142857142857144 0.07142857142857144 0.07142857142857144 0.07142857142857144 0.0 0.0 0.0 0.0 0.0 0.0 0.0 1.0 0.0 0.0 0.0 0.0 0.0 0.0 1.0 0.0 0.0 0.0 0.0 0.0 0.0 0.0 0.0 0.0 0.0 0.0 0.0 0.0 1.0 0.0 0.0 0.0 0.0 0.0 0.0 0.0 0.0 0.0 0.0 0.0 0.0 0.0 0.07142857142857144 0.07142857142857144 0.07142857142857144 0.07142857142857144 0.07142857142857144 0.07142857142857144 0.07142857142857144 0.07142857142857144 0.07142857142857144 0.07142857142857144 0.07142857142857144 0.07142857142857144 0.07142857142857144 0.07142857142857144 0.0 0.0 0.0 0.0 0.0 0.0 0.7272727272727273 0.2727272727272727 0.0 0.0 0.0 0.0 0.0 0.0 0.07142857142857144 0.07142857142857144 0.07142857142857144 0.07142857142857144 0.07142857142857144 0.07142857142857144 0.07142857142857144 0.07142857142857144 0.07142857142857144 0.07142857142857144 0.07142857142857144 0.07142857142857144 0.07142857142857144 0.07142857142857144 0.0 0.0 0.0 0.0 0.0 0.0 0.0 0.0 0.0 0.0 0.9714285714285714 0.02857142857142857 0.0 0.0 0.0 0.0 0.0 0.0 0.0 0.0 0.5 0.5 0.0 0.0 0.0 0.0 0.0 0.0 0.07142857142857144 0.07142857142857144 0.07142857142857144 0.07142857142857144 0.07142857142857144 0.07142857142857144 0.07142857142857144 0.07142857142857144 0.07142857142857144 0.07142857142857144 0.07142857142857144 0.07142857142857144 0.07142857142857144 0.07142857142857144 0.07140811911427845 0.07140811911427845 0.07140811911427845 0.07140811911427845 0.07140811911427845 0.07169445151438027 0.07140811911427845 0.07140811911427845 0.07140811911427845 0.07140811911427845 0.07140811911427845 0.07140811911427845 0.07140811911427845 0.07140811911427845 0.0 0.0 0.0 0.0 0.0 0.0 1.0 0.0 0.0 0.0 0.0 0.0 0.0 0.0 0.07142857142857144 0.07142857142857144 0.07142857142857144 0.07142857142857144 0.07142857142857144 0.07142857142857144 0.07142857142857144 0.07142857142857144 0.07142857142857144 0.07142857142857144 0.07142857142857144 0.07142857142857144 0.07142857142857144 0.07142857142857144 0.07142857142857144 0.07142857142857144 0.07142857142857144 0.07142857142857144 0.07142857142857144 0.07142857142857144 0.07142857142857144 0.07142857142857144 0.07142857142857144 0.07142857142857144 0.07142857142857144 0.07142857142857144 0.07142857142857144 0.07142857142857144 0.0 0.0 0.0 0.0 0.0 0.0 0.012152777777777778 0.3038194444444444 0.3038194444444444 0.0030381944444444445 0.30078125 0.07638888888888888 0.0 0.0 1.0 0.0 0.0 0.0 0.0 0.0 0.0 0.0 0.0 0.0 0.0 0.0 0.0 0.0 0.03824503311258278 0.15182119205298014 0.11357615894039734 0.10546357615894039 0.002317880794701987 0.0 0.0011589403973509935 0.0 0.10314569536423841 0.002317880794701987 0.0 0.17251655629139073 0.1587748344370861 0.15066225165562913 1.0 0.0 0.0 0.0 0.0 0.0 0.0 0.0 0.0 0.0 0.0 0.0 0.0 0.0 1.0 0.0 0.0 0.0 0.0 0.0 0.0 0.0 0.0 0.0 0.0 0.0 0.0 0.0 0.0 0.0 0.0 0.0 0.0 0.0 0.0 1.0 0.0 0.0 0.0 0.0 0.0 0.0 0.4 0.0 0.0 0.0 0.0 0.0 0.6 0.0 0.0 0.0 0.0 0.0 0.0 0.0 0.07142857142857144 0.07142857142857144 0.07142857142857144 0.07142857142857144 0.07142857142857144 0.07142857142857144 0.07142857142857144 0.07142857142857144 0.07142857142857144 0.07142857142857144 0.07142857142857144 0.07142857142857144 0.07142857142857144 0.07142857142857144 0.0 0.0 0.0 0.0 1.0 0.0 0.0 0.0 0.0 0.0 0.0 0.0 0.0 0.0 0.037037037037037035 0.0 0.0 0.0 0.0 0.0 0.0 0.3148148148148148 0.574074074074074 0.037037037037037035 0.0 0.037037037037037035 0.0 0.0 1.0 0.0 0.0 0.0 0.0 0.0 0.0 0.0 0.0 0.0 0.0 0.0 0.0 0.0 0.08208955223880596 0.23507462686567163 0.0 0.007462686567164178 0.018656716417910446 0.0 0.03731343283582089 0.0 0.0 0.0 0.11567164179104478 0.09701492537313433 0.16417910447761191 0.2425373134328358 1.0 0.0 0.0 0.0 0.0 0.0 0.0 0.0 0.0 0.0 0.0 0.0 0.0 0.0 1.0 0.0 0.0 0.0 0.0 0.0 0.0 0.0 0.0 0.0 0.0 0.0 0.0 0.0 0.07142857142857144 0.07142857142857144 0.07142857142857144 0.07142857142857144 0.07142857142857144 0.07142857142857144 0.07142857142857144 0.07142857142857144 0.07142857142857144 0.07142857142857144 0.07142857142857144 0.07142857142857144 0.07142857142857144 0.07142857142857144 0.006369426751592357 0.0 0.0 0.0 0.0 0.0 0.4968152866242038 0.006369426751592357 0.0 0.47770700636942676 0.012738853503184714 0.0 0.0 0.0 0.07142857142857144 0.07142857142857144 0.07142857142857144 0.07142857142857144 0.07142857142857144 0.07142857142857144 0.07142857142857144 0.07142857142857144 0.07142857142857144 0.07142857142857144 0.07142857142857144 0.07142857142857144 0.07142857142857144 0.07142857142857144 0.027210884353741496 0.0 0.0 0.0 0.2687074829931973 0.003401360544217687 0.25510204081632654 0.15646258503401364 0.034013605442176874 0.24829931972789115 0.006802721088435374 0.0 0.0 0.0 1.0 0.0 0.0 0.0 0.0 0.0 0.0 0.0 0.0 0.0 0.0 0.0 0.0 0.0 1.0 0.0 0.0 0.0 0.0 0.0 0.0 0.0 0.0 0.0 0.0 0.0 0.0 0.0 0.0 0.0 0.0 0.0 0.0 0.0 0.0 1.0 0.0 0.0 0.0 0.0 0.0 0.0 0.6666666666666666 0.0 0.0 0.0 0.0 0.0 0.3333333333333333 0.0 0.0 0.0 0.0 0.0 0.0 0.0 0.07142857142857144 0.07142857142857144 0.07142857142857144 0.07142857142857144 0.07142857142857144 0.07142857142857144 0.07142857142857144 0.07142857142857144 0.07142857142857144 0.07142857142857144 0.07142857142857144 0.07142857142857144 0.07142857142857144 0.07142857142857144 0.0 0.0 0.0 0.0 0.0 0.0009535312440404298 0.0 0.0 0.0 0.0 0.0 0.0 0.9990464687559596 0.0 0.007512520868113524 0.0 0.0 0.0 0.0 0.0 0.10517529215358933 0.0 0.0 0.4282136894824708 0.21786310517529217 0.24040066777963276 0.0008347245409015026 0.0 0.07142857142857144 0.07142857142857144 0.07142857142857144 0.07142857142857144 0.07142857142857144 0.07142857142857144 0.07142857142857144 0.07142857142857144 0.07142857142857144 0.07142857142857144 0.07142857142857144 0.07142857142857144 0.07142857142857144 0.07142857142857144 0.04173106646058733 0.02782071097372488 0.0 0.0 0.15301391035548687 0.0 0.34775888717156106 0.01391035548686244 0.13910355486862444 0.06955177743431222 0.0 0.0 0.20710973724884083 0.0 1.0 0.0 0.0 0.0 0.0 0.0 0.0 0.0 0.0 0.0 0.0 0.0 0.0 0.0 1.0 0.0 0.0 0.0 0.0 0.0 0.0 0.0 0.0 0.0 0.0 0.0 0.0 0.0 0.07142857142857144 0.07142857142857144 0.07142857142857144 0.07142857142857144 0.07142857142857144 0.07142857142857144 0.07142857142857144 0.07142857142857144 0.07142857142857144 0.07142857142857144 0.07142857142857144 0.07142857142857144 0.07142857142857144 0.07142857142857144 1.0 0.0 0.0 0.0 0.0 0.0 0.0 0.0 0.0 0.0 0.0 0.0 0.0 0.0 1.0 0.0 0.0 0.0 0.0 0.0 0.0 0.0 0.0 0.0 0.0 0.0 0.0 0.0 0.0 0.0 0.0 0.18181818181818177 0.0 0.0 0.8181818181818182 0.0 0.0 0.0 0.0 0.0 0.0 0.0 1.0 0.0 0.0 0.0 0.0 0.0 0.0 0.0 0.0 0.0 0.0 0.0 0.0 0.0 0.07142857142857144 0.07142857142857144 0.07142857142857144 0.07142857142857144 0.07142857142857144 0.07142857142857144 0.07142857142857144 0.07142857142857144 0.07142857142857144 0.07142857142857144 0.07142857142857144 0.07142857142857144 0.07142857142857144 0.07142857142857144 0.07142857142857144 0.07142857142857144 0.07142857142857144 0.07142857142857144 0.07142857142857144 0.07142857142857144 0.07142857142857144 0.07142857142857144 0.07142857142857144 0.07142857142857144 0.07142857142857144 0.07142857142857144 0.07142857142857144 0.07142857142857144 0.9040498442367602 0.0 0.0 0.0 0.0 0.0 0.09595015576323987 0.0 0.0 0.0 0.0 0.0 0.0 0.0 1.0 0.0 0.0 0.0 0.0 0.0 0.0 0.0 0.0 0.0 0.0 0.0 0.0 0.0 0.0 0.0 0.0 0.0 0.0 0.0 0.0 0.9444444444444444 0.05555555555555555 0.0 0.0 0.0 0.0 0.0 1.0 0.0 0.0 0.0 0.0 0.0 0.0 0.0 0.0 0.0 0.0 0.0 0.0 0.0 1.0 0.0 0.0 0.0 0.0 0.0 0.0 0.0 0.0 0.0 0.0 0.0 0.0 0.0 0.07142857142857144 0.07142857142857144 0.07142857142857144 0.07142857142857144 0.07142857142857144 0.07142857142857144 0.07142857142857144 0.07142857142857144 0.07142857142857144 0.07142857142857144 0.07142857142857144 0.07142857142857144 0.07142857142857144 0.07142857142857144 </TABLE>
    </DEFINITION>
    <DEFINITION>
      <FOR>success</FOR>
      <GIVEN>bitrate</GIVEN>
      <GIVEN>consumption</GIVEN>
      <TABLE>0.03333333333333333 0.9666666666666667 0.5 0.5 0.0 1.0 0.0 1.0 0.0 1.0 0.0 1.0 1.0 0.0 0.9444444444444444 0.05555555555555555 0.14084507042253522 0.8591549295774649 0.1343283582089552 0.8656716417910447 0.9864864864864865 0.013513513513513514 1.0 0.0 0.9591836734693878 0.04081632653061225 1.0 0.0 0.02962962962962963 0.9703703703703703 0.026200873362445413 0.9737991266375546 0.8451327433628318 0.15486725663716813 0.8365384615384616 0.16346153846153844 0.07751937984496124 0.9224806201550387 0.0 1.0 0.006993006993006993 0.993006993006993 0.05581395348837209 0.9441860465116279 0.008810152128137625 0.9911898478718624 0.0 1.0 0.08333333333333333 0.9166666666666667 0.25 0.75 0.0033403656821378337 0.9966596343178621 0.009521218715995648 0.9904787812840044 0.0024813895781637717 0.9975186104218362 0.024691358024691353 0.9753086419753086 0.03267973856209152 0.9673202614379085 0.0 1.0 0.00723589001447178 0.9927641099855282 0.0212428662016487 0.9787571337983513 0.0 1.0 0.0 1.0 0.0 1.0 0.0 1.0 0.0 1.0 0.018518518518518517 0.9814814814814815 0.0 1.0 0.04440347661478586 0.9555965233852142 0.0 1.0 0.0 1.0 0.0 1.0 0.0 1.0 0.007874015748031496 0.9921259842519685 0.0 1.0 0.05263157894736842 0.9473684210526316 0.0 1.0 0.0 1.0 0.0 1.0 0.0 1.0 0.0 1.0 </TABLE>
    </DEFINITION>
  </NETWORK>
</BIF>
