<?xml version='1.0' encoding='utf-8'?>
<BIF VERSION="0.3">
  <NETWORK>
    <NAME>UNTITLED</NAME>
    <VARIABLE TYPE="nature">
      <NAME>bitrate</NAME>
      <OUTCOME>12600</OUTCOME>
      <OUTCOME>3600</OUTCOME>
      <OUTCOME>3960</OUTCOME>
      <OUTCOME>4200</OUTCOME>
      <OUTCOME>5280</OUTCOME>
      <OUTCOME>5400</OUTCOME>
      <OUTCOME>5880</OUTCOME>
      <OUTCOME>7920</OUTCOME>
      <PROPERTY>weight = None</PROPERTY>
    </VARIABLE>
    <VARIABLE TYPE="nature">
      <NAME>consumption</NAME>
      <OUTCOME>20</OUTCOME>
      <OUTCOME>21</OUTCOME>
      <OUTCOME>22</OUTCOME>
      <OUTCOME>23</OUTCOME>
      <OUTCOME>24</OUTCOME>
      <OUTCOME>25</OUTCOME>
      <PROPERTY>weight = None</PROPERTY>
    </VARIABLE>
    <VARIABLE TYPE="nature">
      <NAME>cpu_utilization</NAME>
      <OUTCOME>High</OUTCOME>
      <OUTCOME>Low</OUTCOME>
      <OUTCOME>Mid</OUTCOME>
      <OUTCOME>Very_High</OUTCOME>
      <PROPERTY>weight = None</PROPERTY>
    </VARIABLE>
    <VARIABLE TYPE="nature">
      <NAME>distance</NAME>
      <OUTCOME>False</OUTCOME>
      <OUTCOME>True</OUTCOME>
      <PROPERTY>weight = None</PROPERTY>
    </VARIABLE>
    <VARIABLE TYPE="nature">
      <NAME>fps</NAME>
      <OUTCOME>14</OUTCOME>
      <OUTCOME>18</OUTCOME>
      <OUTCOME>22</OUTCOME>
      <OUTCOME>30</OUTCOME>
      <PROPERTY>weight = None</PROPERTY>
    </VARIABLE>
    <VARIABLE TYPE="nature">
      <NAME>in_time</NAME>
      <OUTCOME>False</OUTCOME>
      <OUTCOME>True</OUTCOME>
      <PROPERTY>weight = None</PROPERTY>
    </VARIABLE>
    <VARIABLE TYPE="nature">
      <NAME>memory_usage</NAME>
      <OUTCOME>High</OUTCOME>
      <PROPERTY>weight = None</PROPERTY>
    </VARIABLE>
    <VARIABLE TYPE="nature">
      <NAME>network</NAME>
      <OUTCOME>True</OUTCOME>
      <PROPERTY>weight = None</PROPERTY>
    </VARIABLE>
    <VARIABLE TYPE="nature">
      <NAME>pixel</NAME>
      <OUTCOME>120</OUTCOME>
      <OUTCOME>180</OUTCOME>
      <OUTCOME>240</OUTCOME>
      <OUTCOME>300</OUTCOME>
      <OUTCOME>360</OUTCOME>
      <OUTCOME>420</OUTCOME>
      <PROPERTY>weight = None</PROPERTY>
    </VARIABLE>
    <VARIABLE TYPE="nature">
      <NAME>stream_count</NAME>
      <OUTCOME>1</OUTCOME>
      <PROPERTY>weight = None</PROPERTY>
    </VARIABLE>
    <VARIABLE TYPE="nature">
      <NAME>success</NAME>
      <OUTCOME>False</OUTCOME>
      <OUTCOME>True</OUTCOME>
      <PROPERTY>weight = None</PROPERTY>
    </VARIABLE>
    <DEFINITION>
      <FOR>bitrate</FOR>
      <GIVEN>fps</GIVEN>
      <TABLE>0.0 0.0 0.0 0.3588342440801457 0.0 0.0 0.6411657559198544 0.0 0.0 0.0 0.0 0.0 0.0 1.0 0.0 0.0 0.0 0.0 0.2857142857142857 0.0 0.2857142857142857 0.0 0.0 0.42857142857142855 0.5 0.5 0.0 0.0 0.0 0.0 0.0 0.0 </TABLE>
    </DEFINITION>
    <DEFINITION>
      <FOR>consumption</FOR>
      <GIVEN>bitrate</GIVEN>
      <TABLE>0.0 0.0 0.85 0.13333333333333333 0.0 0.016666666666666666 0.0 0.0 0.6 0.23333333333333334 0.05000000000000001 0.11666666666666667 0.0 0.0 0.8863636363636364 0.11363636363636365 0.0 0.0 0.06869633099141295 0.06869633099141295 0.5495706479313036 0.14558938329430132 0.07962529274004686 0.08782201405152223 0.04545454545454545 0.0 0.7954545454545455 0.15909090909090912 0.0 0.0 0.023211567732115676 0.032343987823439876 0.8588280060882801 0.08561643835616438 0.0 0.0 0.03571428571428571 0.03571428571428571 0.5357142857142857 0.39285714285714285 0.0 0.0 0.0 0.0 0.16666666666666666 0.43939393939393934 0.10606060606060606 0.2878787878787879 </TABLE>
    </DEFINITION>
    <DEFINITION>
      <FOR>cpu_utilization</FOR>
      <GIVEN>consumption</GIVEN>
      <TABLE>0.0 1.0 0.0 0.0 0.0 1.0 0.0 0.0 0.0 0.13833519303510813 0.8616648069648919 0.0 0.12882273852915413 0.0 0.871177261470846 0.0 1.0 0.0 0.0 0.0 0.04337445284520493 0.0 0.0 0.9566255471547951 </TABLE>
    </DEFINITION>
    <DEFINITION>
      <FOR>distance</FOR>
      <GIVEN>fps</GIVEN>
      <TABLE>0.06869633099141297 0.9313036690085871 0.032343987823439876 0.96765601217656 0.025974025974025986 0.974025974025974 0.2583333333333334 0.7416666666666666 </TABLE>
    </DEFINITION>
    <DEFINITION>
      <FOR>fps</FOR>
      <TABLE>0.1278538812785388 0.2465753424657534 0.3515981735159817 0.27397260273972596 </TABLE>
    </DEFINITION>
    <DEFINITION>
      <FOR>in_time</FOR>
      <GIVEN>consumption</GIVEN>
      <TABLE>0.2 0.8 0.9974218932446975 0.0025781067553023967 0.08146913887582373 0.9185308611241763 0.11095987918987497 0.8890401208101251 0.6292134831460674 0.3707865168539327 0.7465181058495821 0.2534818941504178 </TABLE>
    </DEFINITION>
    <DEFINITION>
      <FOR>memory_usage</FOR>
      <TABLE>1.0 </TABLE>
    </DEFINITION>
    <DEFINITION>
      <FOR>network</FOR>
      <TABLE>1.0 </TABLE>
    </DEFINITION>
    <DEFINITION>
      <FOR>pixel</FOR>
      <GIVEN>bitrate</GIVEN>
      <TABLE>0.0 0.0 0.0 0.0 0.0 1.0 1.0 0.0 0.0 0.0 0.0 0.0 0.0 1.0 0.0 0.0 0.0 0.0 0.0 0.0 0.0 1.0 0.0 0.0 0.0 0.0 1.0 0.0 0.0 0.0 0.0 0.0 0.0 1.0 0.0 0.0 0.0 0.0 0.0 0.0 0.0 1.0 0.0 0.0 0.0 0.0 1.0 0.0 </TABLE>
    </DEFINITION>
    <DEFINITION>
      <FOR>stream_count</FOR>
      <TABLE>1.0 </TABLE>
    </DEFINITION>
    <DEFINITION>
      <FOR>success</FOR>
      <GIVEN>bitrate</GIVEN>
      <TABLE>0.0 1.0 0.9666666666666667 0.03333333333333333 0.0681818181818182 0.9318181818181819 0.0 1.0 0.0681818181818182 0.9318181818181819 0.0 1.0 0.0 1.0 0.0 1.0 </TABLE>
    </DEFINITION>
  </NETWORK>
</BIF>
