<?xml version='1.0' encoding='utf-8'?>
<BIF VERSION="0.3">
  <NETWORK>
    <NAME>UNTITLED</NAME>
    <VARIABLE TYPE="nature">
      <NAME>bitrate</NAME>
      <OUTCOME>10800</OUTCOME>
      <OUTCOME>10920</OUTCOME>
      <OUTCOME>12600</OUTCOME>
      <OUTCOME>2520</OUTCOME>
      <OUTCOME>2640</OUTCOME>
      <OUTCOME>3120</OUTCOME>
      <OUTCOME>3240</OUTCOME>
      <OUTCOME>3360</OUTCOME>
      <OUTCOME>3600</OUTCOME>
      <OUTCOME>3960</OUTCOME>
      <OUTCOME>4200</OUTCOME>
      <OUTCOME>5040</OUTCOME>
      <OUTCOME>5280</OUTCOME>
      <OUTCOME>5400</OUTCOME>
      <OUTCOME>5880</OUTCOME>
      <OUTCOME>6240</OUTCOME>
      <OUTCOME>6480</OUTCOME>
      <OUTCOME>6600</OUTCOME>
      <OUTCOME>7200</OUTCOME>
      <OUTCOME>7560</OUTCOME>
      <OUTCOME>7800</OUTCOME>
      <OUTCOME>7920</OUTCOME>
      <OUTCOME>9000</OUTCOME>
      <OUTCOME>9240</OUTCOME>
      <OUTCOME>9360</OUTCOME>
      <PROPERTY>weight = None</PROPERTY>
    </VARIABLE>
    <VARIABLE TYPE="nature">
      <NAME>consumption</NAME>
      <OUTCOME>19</OUTCOME>
      <OUTCOME>20</OUTCOME>
      <OUTCOME>21</OUTCOME>
      <OUTCOME>22</OUTCOME>
      <OUTCOME>23</OUTCOME>
      <OUTCOME>24</OUTCOME>
      <OUTCOME>25</OUTCOME>
      <OUTCOME>7</OUTCOME>
      <PROPERTY>weight = None</PROPERTY>
    </VARIABLE>
    <VARIABLE TYPE="nature">
      <NAME>cpu_utilization</NAME>
      <OUTCOME>High</OUTCOME>
      <OUTCOME>Low</OUTCOME>
      <OUTCOME>Mid</OUTCOME>
      <OUTCOME>Very_High</OUTCOME>
      <PROPERTY>weight = None</PROPERTY>
    </VARIABLE>
    <VARIABLE TYPE="nature">
      <NAME>distance</NAME>
      <OUTCOME>False</OUTCOME>
      <OUTCOME>True</OUTCOME>
      <PROPERTY>weight = None</PROPERTY>
    </VARIABLE>
    <VARIABLE TYPE="nature">
      <NAME>fps</NAME>
      <OUTCOME>14</OUTCOME>
      <OUTCOME>18</OUTCOME>
      <OUTCOME>22</OUTCOME>
      <OUTCOME>26</OUTCOME>
      <OUTCOME>30</OUTCOME>
      <PROPERTY>weight = None</PROPERTY>
    </VARIABLE>
    <VARIABLE TYPE="nature">
      <NAME>in_time</NAME>
      <OUTCOME>False</OUTCOME>
      <OUTCOME>True</OUTCOME>
      <PROPERTY>weight = None</PROPERTY>
    </VARIABLE>
    <VARIABLE TYPE="nature">
      <NAME>memory_usage</NAME>
      <OUTCOME>High</OUTCOME>
      <OUTCOME>Very_High</OUTCOME>
      <PROPERTY>weight = None</PROPERTY>
    </VARIABLE>
    <VARIABLE TYPE="nature">
      <NAME>network</NAME>
      <OUTCOME>False</OUTCOME>
      <OUTCOME>True</OUTCOME>
      <PROPERTY>weight = None</PROPERTY>
    </VARIABLE>
    <VARIABLE TYPE="nature">
      <NAME>pixel</NAME>
      <OUTCOME>120</OUTCOME>
      <OUTCOME>180</OUTCOME>
      <OUTCOME>240</OUTCOME>
      <OUTCOME>300</OUTCOME>
      <OUTCOME>360</OUTCOME>
      <OUTCOME>420</OUTCOME>
      <PROPERTY>weight = None</PROPERTY>
    </VARIABLE>
    <VARIABLE TYPE="nature">
      <NAME>stream_count</NAME>
      <OUTCOME>1</OUTCOME>
      <OUTCOME>10</OUTCOME>
      <OUTCOME>2</OUTCOME>
      <OUTCOME>3</OUTCOME>
      <OUTCOME>4</OUTCOME>
      <OUTCOME>5</OUTCOME>
      <OUTCOME>6</OUTCOME>
      <OUTCOME>7</OUTCOME>
      <OUTCOME>8</OUTCOME>
      <OUTCOME>9</OUTCOME>
      <PROPERTY>weight = None</PROPERTY>
    </VARIABLE>
    <VARIABLE TYPE="nature">
      <NAME>success</NAME>
      <OUTCOME>False</OUTCOME>
      <OUTCOME>True</OUTCOME>
      <PROPERTY>weight = None</PROPERTY>
    </VARIABLE>
    <DEFINITION>
      <FOR>bitrate</FOR>
      <GIVEN>fps</GIVEN>
      <TABLE>0.0 0.0 0.0 0.0096039064959597 0.0 0.0 0.0 0.09123711171161729 0.0 0.0 0.2653011530590827 0.4225718858222269 0.0 0.0 0.21128594291111344 0.0 0.0 0.0 0.0 0.0 0.0 0.0 0.0 0.0 0.0 0.0 0.0 0.0 0.0 0.0 0.0 0.04462144760951396 0.0 0.0 0.0 0.0 0.0 0.0 0.47941644455567 0.0 0.0 0.2826025015269218 0.0 0.0 0.19335960630789414 0.0 0.0 0.0 0.0 0.0 0.0 0.0 0.0 0.0 0.05424634197915644 0.0 0.0 0.0 0.0 0.06780792747394555 0.0 0.0 0.23054695341141476 0.0 0.0 0.0 0.0 0.3544074299367254 0.0 0.0 0.0 0.09493109846352375 0.0 0.19806024873523403 0.0 0.0 0.5836019700927626 0.0 0.0 0.0 0.056477610008977046 0.0 0.0 0.0 0.0 0.0 0.0 0.0 0.0 0.0 0.1904875898713294 0.0 0.0 0.0 0.0 0.018825870002992337 0.0 0.0 0.0 0.1506069600239387 0.007326007326007328 0.0 0.9304029304029304 0.0 0.0 0.0 0.0 0.0 0.018315018315018316 0.0 0.0 0.0 0.0 0.014652014652014655 0.0 0.0 0.0 0.0 0.014652014652014655 0.0 0.0 0.0 0.014652014652014655 0.0 0.0 </TABLE>
    </DEFINITION>
    <DEFINITION>
      <FOR>consumption</FOR>
      <GIVEN>bitrate</GIVEN>
      <GIVEN>stream_count</GIVEN>
      <TABLE>0.125 0.125 0.125 0.125 0.125 0.125 0.125 0.125 0.125 0.125 0.125 0.125 0.125 0.125 0.125 0.125 0.125 0.125 0.125 0.125 0.125 0.125 0.125 0.125 0.0 0.0 0.0 0.0 0.04999999999999993 0.06666666666666662 0.8833333333333334 0.0 0.125 0.125 0.125 0.125 0.125 0.125 0.125 0.125 0.125 0.125 0.125 0.125 0.125 0.125 0.125 0.125 0.125 0.125 0.125 0.125 0.125 0.125 0.125 0.125 0.125 0.125 0.125 0.125 0.125 0.125 0.125 0.125 0.125 0.125 0.125 0.125 0.125 0.125 0.125 0.125 0.125 0.125 0.125 0.125 0.125 0.125 0.125 0.125 0.0 0.0 0.005769230769230768 0.0 0.001923076923076923 0.09038461538461527 0.001923076923076923 0.9000000000000001 0.125 0.125 0.125 0.125 0.125 0.125 0.125 0.125 0.0 0.0 0.0 0.0 0.0 0.0 0.0 1.0 0.0 0.0 0.009615384615384616 0.0 0.019230769230769232 0.1057692307692308 0.6153846153846154 0.25 0.0 0.0 0.0 0.009615384615384616 0.0 0.038461538461538464 0.20192307692307693 0.75 0.0 0.0 0.0 0.0 0.0 0.0 0.0 1.0 0.125 0.125 0.125 0.125 0.125 0.125 0.125 0.125 0.125 0.125 0.125 0.125 0.125 0.125 0.125 0.125 0.125 0.125 0.125 0.125 0.125 0.125 0.125 0.125 0.125 0.125 0.125 0.125 0.125 0.125 0.125 0.125 0.0 0.0020356234096692107 0.007124681933842247 0.013486005089058522 0.018829516539440205 0.4959287531806615 0.11145038167938914 0.3511450381679392 0.125 0.125 0.125 0.125 0.125 0.125 0.125 0.125 0.0 0.0 0.0 0.003703703703703708 0.003703703703703708 0.007407407407407416 0.09629629629629634 0.8888888888888888 0.0 0.0 0.0 0.0 0.0 0.0 0.0 1.0 0.0 0.0 0.0 0.0 0.0 0.0 0.0 1.0 0.0 0.0 0.0 0.0 0.0 0.0 0.0 1.0 0.0 0.0 0.006060606060606069 0.018181818181818188 0.02323232323232325 0.08383838383838386 0.8686868686868687 0.0 0.0 0.0 0.0 0.016666666666666666 0.10000000000000002 0.3 0.5833333333333334 0.0 0.125 0.125 0.125 0.125 0.125 0.125 0.125 0.125 0.125 0.125 0.125 0.125 0.125 0.125 0.125 0.125 0.125 0.125 0.125 0.125 0.125 0.125 0.125 0.125 0.125 0.125 0.125 0.125 0.125 0.125 0.125 0.125 0.125 0.125 0.125 0.125 0.125 0.125 0.125 0.125 0.125 0.125 0.125 0.125 0.125 0.125 0.125 0.125 0.125 0.125 0.125 0.125 0.125 0.125 0.125 0.125 0.125 0.125 0.125 0.125 0.125 0.125 0.125 0.125 0.125 0.125 0.125 0.125 0.125 0.125 0.125 0.125 0.125 0.125 0.125 0.125 0.125 0.125 0.125 0.125 0.125 0.125 0.125 0.125 0.125 0.125 0.125 0.125 0.0 0.0 0.0 0.0 0.0 0.0 0.0 1.0 0.125 0.125 0.125 0.125 0.125 0.125 0.125 0.125 0.125 0.125 0.125 0.125 0.125 0.125 0.125 0.125 0.125 0.125 0.125 0.125 0.125 0.125 0.125 0.125 0.0 0.0 0.0 0.06060606060606061 0.10606060606060606 0.6212121212121212 0.21212121212121213 0.0 0.125 0.125 0.125 0.125 0.125 0.125 0.125 0.125 0.0 0.0 0.0 0.0 0.0 0.0 0.0 1.0 0.125 0.125 0.125 0.125 0.125 0.125 0.125 0.125 0.125 0.125 0.125 0.125 0.125 0.125 0.125 0.125 0.125 0.125 0.125 0.125 0.125 0.125 0.125 0.125 0.125 0.125 0.125 0.125 0.125 0.125 0.125 0.125 0.125 0.125 0.125 0.125 0.125 0.125 0.125 0.125 0.125 0.125 0.125 0.125 0.125 0.125 0.125 0.125 0.125 0.125 0.125 0.125 0.125 0.125 0.125 0.125 0.125 0.125 0.125 0.125 0.125 0.125 0.125 0.125 0.125 0.125 0.125 0.125 0.125 0.125 0.125 0.125 0.125 0.125 0.125 0.125 0.125 0.125 0.125 0.125 0.0 0.0 0.0 0.025641025641025654 0.0641025641025641 0.3333333333333334 0.5769230769230769 0.0 0.125 0.125 0.125 0.125 0.125 0.125 0.125 0.125 0.125 0.125 0.125 0.125 0.125 0.125 0.125 0.125 0.125 0.125 0.125 0.125 0.125 0.125 0.125 0.125 0.125 0.125 0.125 0.125 0.125 0.125 0.125 0.125 0.125 0.125 0.125 0.125 0.125 0.125 0.125 0.125 0.125 0.125 0.125 0.125 0.125 0.125 0.125 0.125 0.125 0.125 0.125 0.125 0.125 0.125 0.125 0.125 0.125 0.125 0.125 0.125 0.125 0.125 0.125 0.125 0.125 0.125 0.125 0.125 0.125 0.125 0.125 0.125 0.0 0.0 0.0 0.07407407407407406 0.03703703703703703 0.4074074074074075 0.48148148148148134 0.0 0.125 0.125 0.125 0.125 0.125 0.125 0.125 0.125 0.125 0.125 0.125 0.125 0.125 0.125 0.125 0.125 0.125 0.125 0.125 0.125 0.125 0.125 0.125 0.125 0.125 0.125 0.125 0.125 0.125 0.125 0.125 0.125 0.125 0.125 0.125 0.125 0.125 0.125 0.125 0.125 0.125 0.125 0.125 0.125 0.125 0.125 0.125 0.125 0.125 0.125 0.125 0.125 0.125 0.125 0.125 0.125 0.125 0.125 0.125 0.125 0.125 0.125 0.125 0.125 0.125 0.125 0.125 0.125 0.125 0.125 0.125 0.125 0.125 0.125 0.125 0.125 0.125 0.125 0.125 0.125 0.0 0.0 0.0 0.0 0.0 0.0 0.0 1.0 0.125 0.125 0.125 0.125 0.125 0.125 0.125 0.125 0.0 0.0 0.0 0.0 0.0 0.0 0.0 1.0 0.0 0.0 0.0 0.0 0.0 0.0 0.0 1.0 0.125 0.125 0.125 0.125 0.125 0.125 0.125 0.125 0.125 0.125 0.125 0.125 0.125 0.125 0.125 0.125 0.0 0.0 0.03333333333333332 0.04444444444444443 0.011111111111111108 0.6888888888888893 0.22222222222222185 0.0 0.125 0.125 0.125 0.125 0.125 0.125 0.125 0.125 0.125 0.125 0.125 0.125 0.125 0.125 0.125 0.125 0.125 0.125 0.125 0.125 0.125 0.125 0.125 0.125 0.125 0.125 0.125 0.125 0.125 0.125 0.125 0.125 0.125 0.125 0.125 0.125 0.125 0.125 0.125 0.125 0.125 0.125 0.125 0.125 0.125 0.125 0.125 0.125 0.125 0.125 0.125 0.125 0.125 0.125 0.125 0.125 0.125 0.125 0.125 0.125 0.125 0.125 0.125 0.125 0.0 0.0 0.0 0.0 0.0 0.0 0.0 1.0 0.0 0.0 0.045454545454545456 0.011363636363636364 0.0 0.7840909090909091 0.15909090909090906 0.0 0.125 0.125 0.125 0.125 0.125 0.125 0.125 0.125 0.125 0.125 0.125 0.125 0.125 0.125 0.125 0.125 0.125 0.125 0.125 0.125 0.125 0.125 0.125 0.125 0.125 0.125 0.125 0.125 0.125 0.125 0.125 0.125 0.125 0.125 0.125 0.125 0.125 0.125 0.125 0.125 0.125 0.125 0.125 0.125 0.125 0.125 0.125 0.125 0.125 0.125 0.125 0.125 0.125 0.125 0.125 0.125 0.0 0.0 0.0 0.0 0.0 0.0 0.0 1.0 0.125 0.125 0.125 0.125 0.125 0.125 0.125 0.125 0.125 0.125 0.125 0.125 0.125 0.125 0.125 0.125 0.1248507844474761 0.1248507844474761 0.1248507844474761 0.12497868349249658 0.12489341746248295 0.12510658253751705 0.12561817871759887 0.1248507844474761 0.125 0.125 0.125 0.125 0.125 0.125 0.125 0.125 0.125 0.125 0.125 0.125 0.125 0.125 0.125 0.125 0.0 0.0 0.0 0.0 0.0 0.0 0.0 1.0 0.0 0.0 0.0 0.0 0.0 0.0 0.0 1.0 0.0 0.0 0.0 0.0 0.0 0.0 0.0 1.0 0.125 0.125 0.125 0.125 0.125 0.125 0.125 0.125 0.125 0.125 0.125 0.125 0.125 0.125 0.125 0.125 0.0 0.0 0.0 0.035714285714285726 0.0 0.7499999999999998 0.21428571428571458 0.0 0.0 0.0 0.0238095238095238 0.0238095238095238 0.0238095238095238 0.30952380952380953 0.6190476190476191 0.0 0.125 0.125 0.125 0.125 0.125 0.125 0.125 0.125 0.0 0.0 0.0 0.0 0.0 0.0 0.0 1.0 0.0 0.0 0.0026785714285714277 0.028571428571428602 0.03571428571428574 0.08482142857142859 0.8482142857142857 0.0 0.0 0.0 0.0 0.0 0.0714285714285714 0.0714285714285714 0.8571428571428572 0.0 0.125 0.125 0.125 0.125 0.125 0.125 0.125 0.125 0.125 0.125 0.125 0.125 0.125 0.125 0.125 0.125 0.0 0.01818181818181818 0.00909090909090909 0.0 0.045454545454545456 0.31818181818181823 0.00909090909090909 0.6 0.125 0.125 0.125 0.125 0.125 0.125 0.125 0.125 0.0 0.0 0.0 0.0 0.0 0.0 0.0 1.0 0.0 0.0 0.0 0.0 0.0 0.0 0.0 1.0 0.0 0.0 0.01515151515151514 0.025252525252525238 0.02020202020202019 0.116161616161616 0.8232323232323234 0.0 0.125 0.125 0.125 0.125 0.125 0.125 0.125 0.125 0.125 0.125 0.125 0.125 0.125 0.125 0.125 0.125 0.125 0.125 0.125 0.125 0.125 0.125 0.125 0.125 0.125 0.125 0.125 0.125 0.125 0.125 0.125 0.125 0.125 0.125 0.125 0.125 0.125 0.125 0.125 0.125 0.125 0.125 0.125 0.125 0.125 0.125 0.125 0.125 0.125 0.125 0.125 0.125 0.125 0.125 0.125 0.125 0.125 0.125 0.125 0.125 0.125 0.125 0.125 0.125 0.125 0.125 0.125 0.125 0.125 0.125 0.125 0.125 0.0 0.0 0.0 0.0 0.0 0.0 0.0 1.0 0.0 3.873088469798465e-05 0.003767498219449363 0.02229863589488608 0.04429091836796209 0.0507118443283856 0.8124559947526758 0.06643637755194301 0.0 0.0 0.0 0.010416666666666664 0.05208333333333334 0.09375 0.84375 0.0 0.125 0.125 0.125 0.125 0.125 0.125 0.125 0.125 0.125 0.125 0.125 0.125 0.125 0.125 0.125 0.125 0.125 0.125 0.125 0.125 0.125 0.125 0.125 0.125 0.0 0.0 0.017857142857142856 0.05357142857142863 0.14285714285714285 0.26785714285714285 0.017857142857142856 0.5 0.125 0.125 0.125 0.125 0.125 0.125 0.125 0.125 0.125 0.125 0.125 0.125 0.125 0.125 0.125 0.125 0.125 0.125 0.125 0.125 0.125 0.125 0.125 0.125 0.125 0.125 0.125 0.125 0.125 0.125 0.125 0.125 0.0 0.0 0.0 0.0 0.0 0.0 0.0 1.0 0.0 0.0 0.0 0.0 0.0 0.0 0.0 1.0 0.0 0.0 0.0 0.0 0.0 0.0 0.0 1.0 0.0 0.0 0.0 0.0 0.0 0.0 0.0 1.0 0.0 0.0 0.0 0.0 0.0 0.0 0.0 1.0 0.125 0.125 0.125 0.125 0.125 0.125 0.125 0.125 0.125 0.125 0.125 0.125 0.125 0.125 0.125 0.125 0.125 0.125 0.125 0.125 0.125 0.125 0.125 0.125 0.125 0.125 0.125 0.125 0.125 0.125 0.125 0.125 0.0 0.0038375811929176706 0.0038375811929176706 0.03462395726862079 0.026905931616604574 0.10779517953114184 0.8229997691977975 0.0 0.125 0.125 0.125 0.125 0.125 0.125 0.125 0.125 0.125 0.125 0.125 0.125 0.125 0.125 0.125 0.125 0.125 0.125 0.125 0.125 0.125 0.125 0.125 0.125 0.125 0.125 0.125 0.125 0.125 0.125 0.125 0.125 0.125 0.125 0.125 0.125 0.125 0.125 0.125 0.125 0.125 0.125 0.125 0.125 0.125 0.125 0.125 0.125 0.125 0.125 0.125 0.125 0.125 0.125 0.125 0.125 0.125 0.125 0.125 0.125 0.125 0.125 0.125 0.125 0.125 0.125 0.125 0.125 0.125 0.125 0.125 0.125 0.0 0.0 0.005555555555555554 0.0499999999999999 0.0 0.10555555555555557 0.8388888888888889 0.0 0.0 0.0 0.0 0.0 0.027777777777777762 0.027777777777777762 0.4444444444444442 0.5000000000000003 0.0 0.0 0.0 0.0 0.0 0.0 0.0 1.0 0.125 0.125 0.125 0.125 0.125 0.125 0.125 0.125 0.125 0.125 0.125 0.125 0.125 0.125 0.125 0.125 0.125 0.125 0.125 0.125 0.125 0.125 0.125 0.125 0.0 0.0 0.003787878787878797 0.0018939393939393985 0.01325757575757577 0.06439393939393948 0.0 0.9166666666666666 0.125 0.125 0.125 0.125 0.125 0.125 0.125 0.125 0.125 0.125 0.125 0.125 0.125 0.125 0.125 0.125 0.0 0.0 0.02272727272727272 0.0 0.06818181818181815 0.1136363636363636 0.7954545454545455 0.0 0.1247659574468085 0.1247659574468085 0.1247659574468085 0.12489361702127662 0.12480851063829795 0.12497872340425535 0.1262553191489362 0.1247659574468085 0.125 0.125 0.125 0.125 0.125 0.125 0.125 0.125 0.125 0.125 0.125 0.125 0.125 0.125 0.125 0.125 0.125 0.125 0.125 0.125 0.125 0.125 0.125 0.125 0.125 0.125 0.125 0.125 0.125 0.125 0.125 0.125 0.125 0.125 0.125 0.125 0.125 0.125 0.125 0.125 0.125 0.125 0.125 0.125 0.125 0.125 0.125 0.125 0.125 0.125 0.125 0.125 0.125 0.125 0.125 0.125 0.125 0.125 0.125 0.125 0.125 0.125 0.125 0.125 0.125 0.125 0.125 0.125 0.125 0.125 0.125 0.125 0.0 0.0 0.0 0.0 0.06666666666666661 0.033333333333333305 0.9 0.0 0.125 0.125 0.125 0.125 0.125 0.125 0.125 0.125 0.0 0.0 0.0 0.0 0.01666666666666668 0.13333333333333344 0.8499999999999999 0.0 0.125 0.125 0.125 0.125 0.125 0.125 0.125 0.125 0.125 0.125 0.125 0.125 0.125 0.125 0.125 0.125 0.125 0.125 0.125 0.125 0.125 0.125 0.125 0.125 0.0 0.0 0.05555555555555555 0.027777777777777776 0.1944444444444447 0.7222222222222219 0.0 0.0 0.125 0.125 0.125 0.125 0.125 0.125 0.125 0.125 0.125 0.125 0.125 0.125 0.125 0.125 0.125 0.125 0.0 0.0 0.0 0.08333333333333336 0.02777777777777778 0.36111111111111105 0.5277777777777778 0.0 0.0 0.0 0.0 0.0 0.0 0.0 0.0 1.0 0.0 0.0 0.0 0.0 0.0 0.0 0.0 1.0 0.125 0.125 0.125 0.125 0.125 0.125 0.125 0.125 0.125 0.125 0.125 0.125 0.125 0.125 0.125 0.125 0.125 0.125 0.125 0.125 0.125 0.125 0.125 0.125 0.125 0.125 0.125 0.125 0.125 0.125 0.125 0.125 0.125 0.125 0.125 0.125 0.125 0.125 0.125 0.125 0.125 0.125 0.125 0.125 0.125 0.125 0.125 0.125 0.125 0.125 0.125 0.125 0.125 0.125 0.125 0.125 0.0 0.0 0.0 0.03846153846153848 0.11538461538461535 0.0 0.8461538461538463 0.0 0.125 0.125 0.125 0.125 0.125 0.125 0.125 0.125 0.125 0.125 0.125 0.125 0.125 0.125 0.125 0.125 0.125 0.125 0.125 0.125 0.125 0.125 0.125 0.125 0.125 0.125 0.125 0.125 0.125 0.125 0.125 0.125 0.125 0.125 0.125 0.125 0.125 0.125 0.125 0.125 0.125 0.125 0.125 0.125 0.125 0.125 0.125 0.125 0.00909090909090909 0.0 0.0 0.00909090909090909 0.10909090909090913 0.2727272727272727 0.0 0.6 0.125 0.125 0.125 0.125 0.125 0.125 0.125 0.125 0.125 0.125 0.125 0.125 0.125 0.125 0.125 0.125 0.0 0.0 0.02272727272727272 0.04545454545454544 0.02272727272727272 0.02272727272727272 0.8863636363636364 0.0 0.125 0.125 0.125 0.125 0.125 0.125 0.125 0.125 0.125 0.125 0.125 0.125 0.125 0.125 0.125 0.125 0.125 0.125 0.125 0.125 0.125 0.125 0.125 0.125 0.125 0.125 0.125 0.125 0.125 0.125 0.125 0.125 0.125 0.125 0.125 0.125 0.125 0.125 0.125 0.125 0.125 0.125 0.125 0.125 0.125 0.125 0.125 0.125 0.125 0.125 0.125 0.125 0.125 0.125 0.125 0.125 0.125 0.125 0.125 0.125 0.125 0.125 0.125 0.125 0.125 0.125 0.125 0.125 0.125 0.125 0.125 0.125 0.0 0.0 0.0 0.0 0.03333333333333334 0.2666666666666667 0.7 0.0 0.0 0.0 0.0 0.0 0.06666666666666668 0.06666666666666668 0.8666666666666666 0.0 0.125 0.125 0.125 0.125 0.125 0.125 0.125 0.125 0.125 0.125 0.125 0.125 0.125 0.125 0.125 0.125 0.0 0.0 0.0 0.016666666666666677 0.0 0.016666666666666677 0.9666666666666667 0.0 0.125 0.125 0.125 0.125 0.125 0.125 0.125 0.125 0.125 0.125 0.125 0.125 0.125 0.125 0.125 0.125 0.0 0.0 0.011363636363636364 0.045454545454545456 0.125 0.31818181818181823 0.0 0.5 0.125 0.125 0.125 0.125 0.125 0.125 0.125 0.125 0.0 0.0 0.0 0.0303030303030303 0.0303030303030303 0.4393939393939394 0.49999999999999994 0.0 0.0 0.0 0.0 0.0 0.015151515151515154 0.18181818181818185 0.13636363636363644 0.6666666666666665 0.0 4.0594504723179664e-05 0.000965751312143566 0.0014111896632371887 0.0009671793349786193 0.005061769098940395 0.026037476255587708 0.9655160398303892 0.12489160425699644 0.12489160425699644 0.12489160425699644 0.12493102089081594 0.12489160425699644 0.12493102089081594 0.12567993693338583 0.12489160425699644 0.125 0.125 0.125 0.125 0.125 0.125 0.125 0.125 0.125 0.125 0.125 0.125 0.125 0.125 0.125 0.125 0.125 0.125 0.125 0.125 0.125 0.125 0.125 0.125 0.125 0.125 0.125 0.125 0.125 0.125 0.125 0.125 0.0 0.012820512820512815 0.0 0.012820512820512815 0.038461538461538484 0.26282051282051294 0.006410256410256407 0.6666666666666665 0.125 0.125 0.125 0.125 0.125 0.125 0.125 0.125 0.125 0.125 0.125 0.125 0.125 0.125 0.125 0.125 0.0 0.01923076923076924 0.01923076923076924 0.01923076923076924 0.03846153846153848 0.057692307692307696 0.8461538461538461 0.0 0.125 0.125 0.125 0.125 0.125 0.125 0.125 0.125 0.125 0.125 0.125 0.125 0.125 0.125 0.125 0.125 0.125 0.125 0.125 0.125 0.125 0.125 0.125 0.125 0.125 0.125 0.125 0.125 0.125 0.125 0.125 0.125 0.125 0.125 0.125 0.125 0.125 0.125 0.125 0.125 0.125 0.125 0.125 0.125 0.125 0.125 0.125 0.125 </TABLE>
    </DEFINITION>
    <DEFINITION>
      <FOR>cpu_utilization</FOR>
      <GIVEN>consumption</GIVEN>
      <GIVEN>stream_count</GIVEN>
      <TABLE>0.0 1.0 0.0 0.0 0.25 0.25 0.25 0.25 0.25 0.25 0.25 0.25 0.25 0.25 0.25 0.25 0.25 0.25 0.25 0.25 0.25 0.25 0.25 0.25 0.25 0.25 0.25 0.25 0.25 0.25 0.25 0.25 0.25 0.25 0.25 0.25 0.25 0.25 0.25 0.25 0.0 1.0 0.0 0.0 0.25 0.25 0.25 0.25 0.25 0.25 0.25 0.25 0.0 1.0 0.0 0.0 0.0 1.0 0.0 0.0 0.24999028409311722 0.25002914772064827 0.24999028409311722 0.24999028409311722 0.25 0.25 0.25 0.25 0.25 0.25 0.25 0.25 0.25 0.25 0.25 0.25 0.25 0.25 0.25 0.25 0.0 1.0 0.0 0.0 0.25 0.25 0.25 0.25 0.25 0.25 0.25 0.25 0.0 1.0 0.0 0.0 0.0 1.0 0.0 0.0 0.0 1.0 0.0 0.0 0.0 1.0 0.0 0.0 0.25 0.25 0.25 0.25 0.25 0.25 0.25 0.25 0.25 0.25 0.25 0.25 0.0 0.3076923076923076 0.6923076923076923 0.0 0.25 0.25 0.25 0.25 0.0 0.25 0.75 0.0 0.0 0.23529411764705876 0.7647058823529412 0.0 0.0 0.04204860935553214 0.9579513906444678 0.0 0.0 0.16675067763070908 0.833249322369291 0.0 0.0 0.14035087719298248 0.8596491228070176 0.0 0.0 0.0 1.0 0.0 0.25 0.25 0.25 0.25 0.25 0.25 0.25 0.25 0.6641221374045805 0.0 0.3358778625954195 0.0 0.25 0.25 0.25 0.25 0.6666666666666666 0.0 0.3333333333333333 0.0 0.3076923076923076 0.0 0.6923076923076923 0.0 0.17664869552372478 0.0 0.8233513044762751 0.0 0.24000000000000024 0.0 0.7599999999999997 0.0 0.2631578947368421 0.0 0.7368421052631579 0.0 0.5714285714285713 0.0 0.42857142857142866 0.0 0.25 0.25 0.25 0.25 0.25 0.25 0.25 0.25 1.0 0.0 0.0 0.0 0.25 0.25 0.25 0.25 1.0 0.0 0.0 0.0 1.0 0.0 0.0 0.0 1.0 0.0 0.0 0.0 1.0 0.0 0.0 0.0 1.0 0.0 0.0 0.0 1.0 0.0 0.0 0.0 0.25 0.25 0.25 0.25 0.25 0.25 0.25 0.25 0.2307692307692307 0.0 0.0 0.7692307692307693 0.25 0.25 0.25 0.25 0.1692307692307692 0.0 0.0 0.8307692307692307 0.1157894736842104 0.0 0.0 0.8842105263157897 0.09941343191014554 0.0 0.0 0.9005865680898544 0.024721854986783025 0.0 0.0 0.975278145013217 0.06607054148037753 0.0 0.0 0.9339294585196225 0.0380952380952381 0.0 0.0 0.9619047619047618 0.25 0.25 0.25 0.25 0.25 0.25 0.25 0.25 0.8940740740740739 0.016296296296296302 0.04370370370370365 0.045925925925926016 0.6904761904761904 0.0036630036630036647 0.02564102564102564 0.28021978021978033 0.8779761904761904 0.035714285714285705 0.029761904761904788 0.056547619047619124 0.6666666666666665 0.02083333333333333 0.04166666666666666 0.2708333333333335 0.42608695652173895 0.017391304347826087 0.026086956521739157 0.5304347826086957 0.24100449775112462 0.004122938530734634 0.011994002998500756 0.7428785607196399 0.43167701863354074 0.01863354037267081 0.06521739130434782 0.4844720496894407 0.5109890109890107 0.008241758241758237 0.049450549450549504 0.4313186813186815 0.37499999999999994 0.017857142857142853 0.05952380952380957 0.5476190476190477 0.469924812030075 0.0 0.03759398496240601 0.4924812030075191 </TABLE>
    </DEFINITION>
    <DEFINITION>
      <FOR>distance</FOR>
      <GIVEN>bitrate</GIVEN>
      <TABLE>0.0 1.0 0.028535980148883366 0.9714640198511167 0.013123359580052481 0.9868766404199475 0.0 1.0 0.75 0.25 0.9743589743589745 0.025641025641025616 0.03703703703703702 0.9629629629629629 0.060150375939849655 0.9398496240601503 0.25333333333333347 0.7466666666666666 0.027272727272727275 0.9727272727272727 0.19093699615527715 0.809063003844723 0.10795454545454554 0.8920454545454544 0.04545454545454546 0.9545454545454546 0.03579546204307271 0.9642045379569273 0.11201298701298716 0.8879870129870128 0.038504401727719344 0.9614955982722806 0.08771929824561403 0.912280701754386 0.042007141794375806 0.9579928582056242 0.05000000000000001 0.95 0.06837606837606837 0.9316239316239316 0.0 1.0 0.05194805194805193 0.948051948051948 0.06666666666666668 0.9333333333333333 0.015658864710036708 0.9843411352899634 0.014423076923076924 0.9855769230769231 </TABLE>
    </DEFINITION>
    <DEFINITION>
      <FOR>fps</FOR>
      <TABLE>0.18376894728190724 0.07908756368966299 0.13495863239749542 0.08855622572335349 0.5136286309075808 </TABLE>
    </DEFINITION>
    <DEFINITION>
      <FOR>in_time</FOR>
      <GIVEN>cpu_utilization</GIVEN>
      <GIVEN>network</GIVEN>
      <GIVEN>stream_count</GIVEN>
      <TABLE>0.5 0.5 0.5 0.5 0.5 0.5 0.5 0.5 0.16666666666666655 0.8333333333333335 0.46458333333333324 0.5354166666666668 0.871951219512195 0.12804878048780496 0.8846153846153847 0.11538461538461527 0.5 0.5 0.1428571428571428 0.8571428571428572 0.03910149750415971 0.9608985024958403 0.5809018567639258 0.41909814323607414 0.05000000000000001 0.95 0.17179487179487174 0.8282051282051283 0.24810883154549027 0.7518911684545098 0.14408438403744558 0.8559156159625544 0.24258760107816685 0.7574123989218332 0.3670212765957444 0.6329787234042556 0.34920634920634935 0.6507936507936507 0.4322033898305084 0.5677966101694917 0.5 0.5 0.5 0.5 0.5 0.5 0.5 0.5 0.5 0.5 1.0 0.0 0.8888888888888888 0.1111111111111111 0.5 0.5 0.5 0.5 0.5 0.5 0.8086956521739129 0.19130434782608702 1.0 0.0 0.8461538461538461 0.1538461538461539 0.85 0.15 0.8180837641642649 0.18191623583573518 0.5556585321276278 0.44434146787237216 0.5714285714285713 0.42857142857142866 0.0 1.0 0.6666666666666666 0.3333333333333333 0.5 0.5 0.5 0.5 0.5 0.5 0.5 0.5 0.5 0.5 1.0 0.0 1.0 0.0 1.0 0.0 0.8 0.2 0.5 0.5 1.0 0.0 0.6618357487922707 0.3381642512077293 0.7142857142857144 0.2857142857142855 0.7857142857142854 0.21428571428571458 0.810810810810811 0.18918918918918912 0.8775553455779371 0.12244465442206284 0.7727447083639232 0.22725529163607683 0.5555555555555557 0.44444444444444425 0.44444444444444425 0.5555555555555557 0.10000000000000002 0.9 0.6666666666666666 0.3333333333333333 0.5 0.5 0.5 0.5 0.5 0.5 0.5 0.5 0.125 0.875 0.44953627932351337 0.5504637206764866 0.7189873417721522 0.28101265822784793 0.7752808988764043 0.22471910112359578 0.5 0.5 0.10000000000000002 0.9 0.316810344827586 0.6831896551724139 0.16993464052287602 0.830065359477124 0.1506849315068494 0.8493150684931505 0.1786666666666667 0.8213333333333334 0.2252501188550793 0.7747498811449207 0.07921790582699 0.9207820941730099 0.12760834670947038 0.8723916532905297 0.08284023668639054 0.9171597633136095 0.03260869565217391 0.967391304347826 0.08108108108108097 0.9189189189189191 </TABLE>
    </DEFINITION>
    <DEFINITION>
      <FOR>memory_usage</FOR>
      <GIVEN>bitrate</GIVEN>
      <GIVEN>stream_count</GIVEN>
      <TABLE>0.5 0.5 0.5 0.5 0.5 0.5 1.0 0.0 0.5 0.5 0.5 0.5 0.5 0.5 0.5 0.5 0.5 0.5 0.5 0.5 1.0 0.0 0.5 0.5 1.0 0.0 1.0 0.0 1.0 0.0 1.0 0.0 0.5 0.5 0.5 0.5 0.5 0.5 0.5 0.5 1.0 0.0 0.5 0.5 1.0 0.0 1.0 0.0 1.0 0.0 1.0 0.0 0.5757575757575758 0.4242424242424243 1.0 0.0 0.5 0.5 0.5 0.5 0.5 0.5 0.5 0.5 0.5 0.5 0.5 0.5 0.5 0.5 0.5 0.5 0.5 0.5 0.5 0.5 0.5 0.5 1.0 0.0 0.5 0.5 0.5 0.5 0.5 0.5 1.0 0.0 0.5 0.5 1.0 0.0 0.5 0.5 0.5 0.5 0.5 0.5 0.5 0.5 0.5 0.5 0.5 0.5 0.5 0.5 0.5 0.5 0.5 0.5 0.5 0.5 1.0 0.0 0.5 0.5 0.5 0.5 0.5 0.5 0.5 0.5 0.5 0.5 0.5 0.5 0.5 0.5 0.5 0.5 0.5 0.5 1.0 0.0 0.5 0.5 0.5 0.5 0.5 0.5 0.5 0.5 0.5 0.5 0.5 0.5 0.5 0.5 0.5 0.5 0.5 0.5 0.5 0.5 1.0 0.0 0.5 0.5 1.0 0.0 1.0 0.0 0.5 0.5 0.5 0.5 1.0 0.0 0.5 0.5 0.5 0.5 0.5 0.5 0.5 0.5 0.5 0.5 0.5 0.5 0.5 0.5 0.5 0.5 1.0 0.0 1.0 0.0 0.5 0.5 0.5 0.5 0.5 0.5 0.5 0.5 0.5 0.5 0.5 0.5 0.5 0.5 1.0 0.0 0.5 0.5 0.5 0.5 0.5005968622100956 0.49940313778990436 0.5 0.5 0.5 0.5 1.0 0.0 1.0 0.0 1.0 0.0 0.5 0.5 0.5 0.5 1.0 0.0 1.0 0.0 0.5 0.5 1.0 0.0 0.12857142857142856 0.8714285714285714 0.0 1.0 0.5 0.5 0.5 0.5 1.0 0.0 0.5 0.5 1.0 0.0 1.0 0.0 1.0 0.0 0.5 0.5 0.5 0.5 0.5 0.5 0.5 0.5 0.5 0.5 0.5 0.5 0.5 0.5 0.5 0.5 0.5 0.5 1.0 0.0 0.4352907908084841 0.5647092091915159 0.8125 0.1875 0.5 0.5 0.5 0.5 0.5 0.5 1.0 0.0 0.5 0.5 0.5 0.5 0.5 0.5 0.5 0.5 1.0 0.0 1.0 0.0 1.0 0.0 1.0 0.0 1.0 0.0 0.5 0.5 0.5 0.5 0.5 0.5 0.5 0.5 1.0 0.0 0.5 0.5 0.5 0.5 0.5 0.5 0.5 0.5 0.5 0.5 0.5 0.5 0.5 0.5 0.5 0.5 0.5 0.5 1.0 0.0 1.0 0.0 1.0 0.0 0.5 0.5 0.5 0.5 0.5 0.5 1.0 0.0 0.5 0.5 0.5 0.5 1.0 0.0 0.5009361702127659 0.49906382978723407 0.5 0.5 0.5 0.5 0.5 0.5 0.5 0.5 0.5 0.5 0.5 0.5 0.5 0.5 0.5 0.5 0.5 0.5 1.0 0.0 0.5 0.5 1.0 0.0 0.5 0.5 0.5 0.5 0.5 0.5 1.0 0.0 0.5 0.5 0.5 0.5 1.0 0.0 1.0 0.0 1.0 0.0 0.5 0.5 0.5 0.5 0.5 0.5 0.5 0.5 0.5 0.5 0.5 0.5 0.5 0.5 1.0 0.0 0.5 0.5 0.5 0.5 0.5 0.5 0.5 0.5 0.5 0.5 0.5 0.5 1.0 0.0 0.5 0.5 0.5 0.5 1.0 0.0 0.5 0.5 0.5 0.5 0.5 0.5 0.5 0.5 0.5 0.5 0.5 0.5 0.5 0.5 0.5 0.5 0.5 0.5 1.0 0.0 1.0 0.0 0.5 0.5 0.5 0.5 0.0 1.0 0.5 0.5 0.5 0.5 1.0 0.0 0.5 0.5 1.0 0.0 1.0 0.0 0.9953354502445029 0.004664549755497049 0.5004335829720142 0.4995664170279858 0.5 0.5 0.5 0.5 0.5 0.5 0.5 0.5 1.0 0.0 0.5 0.5 0.5 0.5 1.0 0.0 0.5 0.5 0.5 0.5 0.5 0.5 0.5 0.5 0.5 0.5 0.5 0.5 </TABLE>
    </DEFINITION>
    <DEFINITION>
      <FOR>network</FOR>
      <GIVEN>bitrate</GIVEN>
      <TABLE>0.0 1.0 0.03225806451612908 0.9677419354838709 0.4448818897637795 0.5551181102362205 0.0 1.0 0.0 1.0 0.0 1.0 0.0 1.0 0.0 1.0 0.0 1.0 0.0 1.0 0.0 1.0 0.0 1.0 0.0 1.0 0.0 1.0 0.04545454545454546 0.9545454545454546 0.0 1.0 0.0 1.0 0.0 1.0 0.0 1.0 0.0 1.0 0.0 1.0 0.0 1.0 0.5 0.5 0.0 1.0 0.0 1.0 </TABLE>
    </DEFINITION>
    <DEFINITION>
      <FOR>pixel</FOR>
      <GIVEN>bitrate</GIVEN>
      <TABLE>0.0 0.0 0.0 0.0 1.0 0.0 0.0 0.0 0.0 0.0 0.0 1.0 0.0 0.0 0.0 0.0 0.0 1.0 0.0 1.0 0.0 0.0 0.0 0.0 1.0 0.0 0.0 0.0 0.0 0.0 1.0 0.0 0.0 0.0 0.0 0.0 0.0 1.0 0.0 0.0 0.0 0.0 0.0 0.0 1.0 0.0 0.0 0.0 1.0 0.0 0.0 0.0 0.0 0.0 0.0 1.0 0.0 0.0 0.0 0.0 0.0 0.0 0.0 1.0 0.0 0.0 0.0 0.0 0.0 0.0 1.0 0.0 0.0 0.0 1.0 0.0 0.0 0.0 0.0 0.1718182178067489 0.0 0.828181782193251 0.0 0.0 0.0 0.0 0.0 0.0 0.0 1.0 0.0 0.0 1.0 0.0 0.0 0.0 0.0 0.0 0.0 0.0 1.0 0.0 0.0 0.0 0.0 1.0 0.0 0.0 0.0 0.0 1.0 0.0 0.0 0.0 0.0 0.0 0.0 0.0 0.0 1.0 0.0 0.0 0.0 1.0 0.0 0.0 0.0 0.0 0.0 0.0 1.0 0.0 0.0 0.0 0.0 1.0 0.0 0.0 0.0 0.0 0.0 0.0 0.0 1.0 0.0 0.0 0.0 0.0 1.0 0.0 </TABLE>
    </DEFINITION>
    <DEFINITION>
      <FOR>stream_count</FOR>
      <GIVEN>bitrate</GIVEN>
      <GIVEN>network</GIVEN>
      <TABLE>0.1 0.1 0.1 0.1 0.1 0.1 0.1 0.1 0.1 0.1 0.0 0.0 0.0 1.0 0.0 0.0 0.0 0.0 0.0 0.0 0.0 0.0 0.0 0.0 0.0 1.0 0.0 0.0 0.0 0.0 0.6666666666666669 0.0 0.06666666666666662 0.13333333333333325 0.13333333333333325 0.0 0.0 0.0 0.0 0.0 0.0 0.0 0.0 0.0 0.008849557522123895 0.6814159292035399 0.2920353982300884 0.01769911504424779 0.0 0.0 0.9290780141843972 0.0 0.06382978723404256 0.007092198581560282 0.0 0.0 0.0 0.0 0.0 0.0 0.1 0.1 0.1 0.1 0.1 0.1 0.1 0.1 0.1 0.1 0.0 0.0 0.0 0.0 0.0 0.0 0.0 0.0 0.0 1.0 0.1 0.1 0.1 0.1 0.1 0.1 0.1 0.1 0.1 0.1 0.0 0.0 0.0 0.75 0.0 0.25 0.0 0.0 0.0 0.0 0.1 0.1 0.1 0.1 0.1 0.1 0.1 0.1 0.1 0.1 0.0 0.0 0.0 0.0 0.0 0.0 1.0 0.0 0.0 0.0 0.1 0.1 0.1 0.1 0.1 0.1 0.1 0.1 0.1 0.1 0.0 0.0 0.0 0.0 0.0 0.0 1.0 0.0 0.0 0.0 0.1 0.1 0.1 0.1 0.1 0.1 0.1 0.1 0.1 0.1 0.0 0.0 0.0 0.0 0.0 0.0 0.0 0.47368421052631576 0.0 0.5263157894736843 0.1 0.1 0.1 0.1 0.1 0.1 0.1 0.1 0.1 0.1 0.4000000000000001 0.0 0.0 0.6 0.0 0.0 0.0 0.0 0.0 0.0 0.1 0.1 0.1 0.1 0.1 0.1 0.1 0.1 0.1 0.1 0.0 0.0 0.2 0.8 0.0 0.0 0.0 0.0 0.0 0.0 0.1 0.1 0.1 0.1 0.1 0.1 0.1 0.1 0.1 0.1 0.0 0.708244449956592 0.0 0.0 0.001193724420190996 0.0 0.0 0.09080057050725539 0.1089606846087064 0.09080057050725539 0.1 0.1 0.1 0.1 0.1 0.1 0.1 0.1 0.1 0.1 0.0 0.0 0.022727272727272728 0.034090909090909095 0.0 0.022727272727272728 0.9090909090909091 0.011363636363636364 0.0 0.0 0.1 0.1 0.1 0.1 0.1 0.1 0.1 0.1 0.1 0.1 0.2941176470588236 0.0 0.058823529411764684 0.11764705882352937 0.5294117647058824 0.0 0.0 0.0 0.0 0.0 0.1 0.1 0.1 0.1 0.1 0.1 0.1 0.1 0.1 0.1 0.0 0.0 0.0 0.0 0.08590910890337462 0.7766363168512259 0.13745457424539942 0.0 0.0 0.0 0.0 0.0 0.0 0.0 0.0 0.0 0.0 0.0 0.0 1.0 0.0952380952380952 0.0 0.0 0.0 0.0 0.14285714285714282 0.3333333333333334 0.28571428571428564 0.14285714285714282 0.0 0.1 0.1 0.1 0.1 0.1 0.1 0.1 0.1 0.1 0.1 0.0 0.0 0.0 0.0 1.0 0.0 0.0 0.0 0.0 0.0 0.1 0.1 0.1 0.1 0.1 0.1 0.1 0.1 0.1 0.1 0.0 0.0 0.0 0.0 0.5263157894736841 0.10526315789473671 0.36842105263157915 0.0 0.0 0.0 0.1 0.1 0.1 0.1 0.1 0.1 0.1 0.1 0.1 0.1 0.9213486088379705 0.0 0.0 0.07677905073649761 0.0018723404255319158 0.0 0.0 0.0 0.0 0.0 0.1 0.1 0.1 0.1 0.1 0.1 0.1 0.1 0.1 0.1 0.0 0.0 0.0 0.0 0.5 0.0 0.5 0.0 0.0 0.0 0.1 0.1 0.1 0.1 0.1 0.1 0.1 0.1 0.1 0.1 0.15384615384615385 0.0 0.0 0.15384615384615385 0.07692307692307693 0.6153846153846154 0.0 0.0 0.0 0.0 0.1 0.1 0.1 0.1 0.1 0.1 0.1 0.1 0.1 0.1 0.0 0.0 0.0 1.0 0.0 0.0 0.0 0.0 0.0 0.0 0.1 0.1 0.1 0.1 0.1 0.1 0.1 0.1 0.1 0.1 0.7142857142857144 0.0 0.0 0.2857142857142855 0.0 0.0 0.0 0.0 0.0 0.0 0.0 0.0 0.0 0.0 0.0 0.0 0.0 1.0 0.0 0.0 0.0 0.0 0.0 0.5 0.5 0.0 0.0 0.0 0.0 0.0 0.1 0.1 0.1 0.1 0.1 0.1 0.1 0.1 0.1 0.1 0.3215595924007449 0.0 0.24116969430055893 0.24116969430055893 0.1952338530541089 0.00086716594402838 0.0 0.0 0.0 0.0 0.1 0.1 0.1 0.1 0.1 0.1 0.1 0.1 0.1 0.1 0.75 0.0 0.0 0.25 0.0 0.0 0.0 0.0 0.0 0.0 </TABLE>
    </DEFINITION>
    <DEFINITION>
      <FOR>success</FOR>
      <GIVEN>bitrate</GIVEN>
      <GIVEN>distance</GIVEN>
      <TABLE>0.5 0.5 0.0 1.0 0.0 1.0 0.0025542784163473838 0.9974457215836525 0.0 1.0 0.0 1.0 0.5 0.5 0.0714285714285714 0.9285714285714286 1.0 0.0 1.0 0.0 0.9342105263157896 0.0657894736842105 0.5 0.5 0.0 1.0 0.25 0.75 0.125 0.875 0.003999999999999999 0.996 0.8947368421052633 0.10526315789473677 0.9642857142857143 0.03571428571428568 0.0 1.0 0.09345794392523356 0.9065420560747665 0.12241763532510434 0.8775823646748956 0.0 1.0 0.0 1.0 0.0 1.0 0.0 1.0 0.01680672268907563 0.9831932773109243 0.0 1.0 0.0074258246145986985 0.9925741753854014 0.05797101449275361 0.9420289855072463 0.001828153564899453 0.9981718464351006 0.0 1.0 0.015966390877523905 0.9840336091224761 0.0 1.0 0.0 1.0 0.0 1.0 0.011014917574506324 0.9889850824254937 0.16666666666666655 0.8333333333333335 0.06140350877192984 0.9385964912280701 0.0 1.0 0.0 1.0 0.5 0.5 0.0 1.0 0.0 1.0 0.013698630136986292 0.9863013698630138 0.0 1.0 0.0 1.0 0.0 1.0 0.00036093060471187923 0.9996390693952881 0.0 1.0 0.0 1.0 </TABLE>
    </DEFINITION>
  </NETWORK>
</BIF>
