<?xml version='1.0' encoding='utf-8'?>
<BIF VERSION="0.3">
  <NETWORK>
    <NAME>UNTITLED</NAME>
    <VARIABLE TYPE="nature">
      <NAME>bitrate</NAME>
      <OUTCOME>10800</OUTCOME>
      <OUTCOME>10920</OUTCOME>
      <OUTCOME>12600</OUTCOME>
      <OUTCOME>1680</OUTCOME>
      <OUTCOME>2160</OUTCOME>
      <OUTCOME>2520</OUTCOME>
      <OUTCOME>2640</OUTCOME>
      <OUTCOME>3120</OUTCOME>
      <OUTCOME>3240</OUTCOME>
      <OUTCOME>3360</OUTCOME>
      <OUTCOME>3600</OUTCOME>
      <OUTCOME>3960</OUTCOME>
      <OUTCOME>4200</OUTCOME>
      <OUTCOME>4320</OUTCOME>
      <OUTCOME>4680</OUTCOME>
      <OUTCOME>5040</OUTCOME>
      <OUTCOME>5280</OUTCOME>
      <OUTCOME>5400</OUTCOME>
      <OUTCOME>5880</OUTCOME>
      <OUTCOME>6240</OUTCOME>
      <OUTCOME>6480</OUTCOME>
      <OUTCOME>6600</OUTCOME>
      <OUTCOME>7200</OUTCOME>
      <OUTCOME>7560</OUTCOME>
      <OUTCOME>7800</OUTCOME>
      <OUTCOME>7920</OUTCOME>
      <OUTCOME>9000</OUTCOME>
      <OUTCOME>9240</OUTCOME>
      <OUTCOME>9360</OUTCOME>
      <PROPERTY>weight = None</PROPERTY>
    </VARIABLE>
    <VARIABLE TYPE="nature">
      <NAME>consumption</NAME>
      <OUTCOME>7</OUTCOME>
      <PROPERTY>weight = None</PROPERTY>
    </VARIABLE>
    <VARIABLE TYPE="nature">
      <NAME>cpu_utilization</NAME>
      <OUTCOME>High</OUTCOME>
      <OUTCOME>Low</OUTCOME>
      <OUTCOME>Mid</OUTCOME>
      <OUTCOME>Very_High</OUTCOME>
      <PROPERTY>weight = None</PROPERTY>
    </VARIABLE>
    <VARIABLE TYPE="nature">
      <NAME>distance</NAME>
      <OUTCOME>False</OUTCOME>
      <OUTCOME>True</OUTCOME>
      <PROPERTY>weight = None</PROPERTY>
    </VARIABLE>
    <VARIABLE TYPE="nature">
      <NAME>fps</NAME>
      <OUTCOME>14</OUTCOME>
      <OUTCOME>18</OUTCOME>
      <OUTCOME>22</OUTCOME>
      <OUTCOME>26</OUTCOME>
      <OUTCOME>30</OUTCOME>
      <PROPERTY>weight = None</PROPERTY>
    </VARIABLE>
    <VARIABLE TYPE="nature">
      <NAME>in_time</NAME>
      <OUTCOME>False</OUTCOME>
      <OUTCOME>True</OUTCOME>
      <PROPERTY>weight = None</PROPERTY>
    </VARIABLE>
    <VARIABLE TYPE="nature">
      <NAME>memory_usage</NAME>
      <OUTCOME>Low</OUTCOME>
      <OUTCOME>Mid</OUTCOME>
      <PROPERTY>weight = None</PROPERTY>
    </VARIABLE>
    <VARIABLE TYPE="nature">
      <NAME>network</NAME>
      <OUTCOME>True</OUTCOME>
      <PROPERTY>weight = None</PROPERTY>
    </VARIABLE>
    <VARIABLE TYPE="nature">
      <NAME>pixel</NAME>
      <OUTCOME>120</OUTCOME>
      <OUTCOME>180</OUTCOME>
      <OUTCOME>240</OUTCOME>
      <OUTCOME>300</OUTCOME>
      <OUTCOME>360</OUTCOME>
      <OUTCOME>420</OUTCOME>
      <PROPERTY>weight = None</PROPERTY>
    </VARIABLE>
    <VARIABLE TYPE="nature">
      <NAME>stream_count</NAME>
      <OUTCOME>1</OUTCOME>
      <OUTCOME>10</OUTCOME>
      <OUTCOME>2</OUTCOME>
      <OUTCOME>3</OUTCOME>
      <OUTCOME>4</OUTCOME>
      <OUTCOME>5</OUTCOME>
      <OUTCOME>6</OUTCOME>
      <OUTCOME>7</OUTCOME>
      <OUTCOME>8</OUTCOME>
      <OUTCOME>9</OUTCOME>
      <PROPERTY>weight = None</PROPERTY>
    </VARIABLE>
    <VARIABLE TYPE="nature">
      <NAME>success</NAME>
      <OUTCOME>False</OUTCOME>
      <OUTCOME>True</OUTCOME>
      <PROPERTY>weight = None</PROPERTY>
    </VARIABLE>
    <DEFINITION>
      <FOR>bitrate</FOR>
      <GIVEN>memory_usage</GIVEN>
      <GIVEN>stream_count</GIVEN>
      <TABLE>0.0 0.0 0.08110970983298818 0.0 0.0 0.0 0.0 0.0 0.0 0.0 0.0 0.05948045387752467 0.0 0.0 0.0 0.037851197922061146 0.05948045387752467 0.0 0.037851197922061146 0.0 0.09968222085383129 0.0 0.0 0.0 0.0 0.6245447657140089 0.0 0.0 0.0 0.03448275862068967 0.03448275862068967 0.03448275862068967 0.03448275862068967 0.03448275862068967 0.03448275862068967 0.03448275862068967 0.03448275862068967 0.03448275862068967 0.03448275862068967 0.03448275862068967 0.03448275862068967 0.03448275862068967 0.03448275862068967 0.03448275862068967 0.03448275862068967 0.03448275862068967 0.03448275862068967 0.03448275862068967 0.03448275862068967 0.03448275862068967 0.03448275862068967 0.03448275862068967 0.03448275862068967 0.03448275862068967 0.03448275862068967 0.03448275862068967 0.03448275862068967 0.03448275862068967 0.0 0.0 0.0 0.0 0.0 0.0 0.0 0.0 0.0 0.0 0.0 0.0 0.0 0.0 0.0 0.0 0.0 0.0 0.0 0.0 0.0 0.06748466257668712 0.0 0.05521472392638037 0.0 0.03374233128834356 0.0 0.843558282208589 0.0 0.0 0.3534743202416918 0.31722054380664655 0.0 0.0 0.0 0.0 0.0 0.0 0.2537764350453172 0.0 0.0 0.04229607250755287 0.0 0.0 0.0 0.0 0.0 0.0 0.0 0.0 0.0 0.0 0.0 0.0 0.0 0.0 0.03323262839879154 0.0 0.0 0.0 0.0 0.0 0.0 0.09999999999999999 0.0 0.0 0.0 0.09999999999999999 0.0 0.0 0.0 0.0 0.0 0.7999999999999999 0.0 0.0 0.0 0.0 0.0 0.0 0.0 0.0 0.0 0.0 0.0 0.0 0.0 0.0 0.0 0.0 0.0 0.0 0.0 0.0 0.0 0.0 0.0 0.0 0.0 0.06666666666666668 0.0 0.0 0.03333333333333334 0.0 0.0 0.9 0.0 0.0 0.0 0.0 0.0 0.0 0.0 0.0 0.0 0.0 0.0 0.0 0.0 0.0 0.0 0.0 0.0 0.0 0.0 0.0 0.0 0.0 0.8333333333333334 0.0 0.0 0.0 0.0 0.0 0.16666666666666666 0.0 0.0 0.0 0.0 0.0 0.0 0.0 0.0 0.0 0.0 0.0 0.0 0.1814516129032258 0.0 0.0 0.0 0.0 0.0 0.0 0.0 0.0 0.0 0.6491935483870968 0.0 0.0 0.0 0.0 0.0 0.1693548387096774 0.0 0.0 0.0 0.0 0.0 0.0 0.0 0.0 0.0 0.0 0.10067114093959731 0.0 0.0 0.0 0.0 0.0 0.0 0.0 0.0 0.046979865771812075 0.0 0.0 0.2818791946308726 0.0 0.0 0.0 0.11073825503355704 0.0 0.0 0.087248322147651 0.0 0.0738255033557047 0.0 0.0 0.087248322147651 0.0738255033557047 0.050335570469798654 0.0 0.087248322147651 0.0 0.0 0.0 0.0 0.0 0.967741935483871 0.0 0.0 0.0 0.0 0.0 0.0 0.03225806451612903 0.0 0.0 0.0 0.0 0.0 0.0 0.0 0.0 0.0 0.0 0.0 0.0 0.0 0.0 0.0 0.0 0.014548981571290007 0.025218234723569346 0.029097963142580015 0.0 0.008729388942774004 0.020368574199806012 0.0 0.0 0.0 0.01357904946653734 0.029097963142580015 0.03200775945683802 0.00678952473326867 0.008729388942774004 0.0 0.0 0.021338506304558677 0.029097963142580015 0.020368574199806012 0.025218234723569346 0.017458777885548008 0.010669253152279339 0.029097963142580015 0.18331716779825413 0.025218234723569346 0.021338506304558677 0.029097963142580015 0.021338506304558677 0.3782735208535402 0.0 0.0 0.0 0.0 0.0 0.0 0.0 0.0 0.0 0.0 0.0 0.0 0.4833333333333334 0.0 0.0 0.016666666666666666 0.0 0.0 0.5 0.0 0.0 0.0 0.0 0.0 0.0 0.0 0.0 0.0 0.0 0.060606060606060615 0.0 0.0 0.0 0.0 0.0 0.0 0.02626262626262627 0.0 0.0 0.0 0.0 0.0 0.036363636363636355 0.02626262626262627 0.10606060606060609 0.0 0.018181818181818177 0.0 0.0 0.018181818181818177 0.0 0.030303030303030307 0.28181818181818186 0.0 0.3 0.060606060606060615 0.022222222222222227 0.013131313131313134 0.0 0.0 0.0 0.0 0.0 0.0 0.0 0.011828935395814375 0.03275705186533212 0.0 0.01364877161055505 0.0 0.006369426751592357 0.0 0.0 0.33757961783439494 0.0 0.00818926296633303 0.0 0.094631483166515 0.05732484076433121 0.0 0.0 0.14740673339399457 0.0 0.28025477707006374 0.0 0.010009099181073705 0.0 0.0 0.04024767801857586 0.0 0.0 0.0 0.0 0.017027863777089782 0.0 0.0 0.0 0.0 0.0 0.15170278637770898 0.0 0.0 0.5417956656346749 0.0 0.0 0.010835913312693499 0.0 0.0 0.0 0.0 0.0 0.0 0.238390092879257 0.0 0.0 0.0 0.0 0.02620967741935484 0.0 0.04233870967741936 0.0 0.0 0.0 0.0 0.0 0.01411290322580645 0.15120967741935482 0.04435483870967743 0.32459677419354843 0.0 0.0 0.3104838709677419 0.0 0.0 0.04233870967741936 0.0 0.0 0.04435483870967743 0.0 0.0 0.0 0.0 0.0 0.0 0.0 0.0 0.0 0.0 0.0 0.0 0.0 0.0 0.0 0.0 0.0 0.0 0.0 0.4212962962962963 0.0 0.06018518518518518 0.032407407407407406 0.0 0.0 0.4861111111111111 0.0 0.0 0.0 0.0 0.0 0.0 0.0 0.0 0.0 0.0 0.0 0.0 0.0 0.0 0.0 0.0 0.0 0.0 0.0 0.016666666666666666 0.0 0.0 0.48333333333333334 0.0 0.0 0.016666666666666666 0.0 0.0 0.48333333333333334 0.0 0.0 0.0 0.0 0.0 0.0 0.0 0.0 0.0 0.0 0.0 0.0 0.0 0.0 0.0 0.0 0.0 0.0 0.0 0.0 0.0 0.0 0.4833333333333334 0.0 0.0 0.016666666666666666 0.0 0.0 0.5 0.0 0.0 0.0 0.0 0.0 0.0 0.0 0.0 0.0 0.0 0.0 0.0 0.0 0.0 0.0 0.03333333333333333 0.0 0.0 0.0 0.0 0.0 0.0 0.4666666666666667 0.0 0.0 0.0 0.0 0.0 0.5 0.0 0.0 0.0 0.0 0.0 0.0 0.0 0.0 0.0 0.0 </TABLE>
    </DEFINITION>
    <DEFINITION>
      <FOR>consumption</FOR>
      <TABLE>1.0 </TABLE>
    </DEFINITION>
    <DEFINITION>
      <FOR>cpu_utilization</FOR>
      <GIVEN>bitrate</GIVEN>
      <GIVEN>in_time</GIVEN>
      <GIVEN>stream_count</GIVEN>
      <TABLE>0.25 0.0 0.75 0.0 0.25 0.25 0.25 0.25 0.025 0.26666666666666666 0.6916666666666667 0.016666666666666666 0.25 0.25 0.25 0.25 0.25 0.25 0.25 0.25 0.25 0.25 0.25 0.25 0.25 0.25 0.25 0.25 0.25 0.25 0.25 0.25 0.43333333333333335 0.049999999999999996 0.03333333333333333 0.48333333333333334 0.25 0.25 0.25 0.25 0.7307692307692307 0.0 0.2692307692307692 0.0 0.25 0.25 0.25 0.25 0.25 0.25 0.25 0.25 0.25 0.25 0.25 0.25 0.25 0.25 0.25 0.25 0.25 0.25 0.25 0.25 0.25 0.25 0.25 0.25 0.25 0.25 0.25 0.25 0.25 0.25 0.25 0.25 0.25 0.25 0.25 0.25 0.0 0.4 0.6 0.0 0.25 0.25 0.25 0.25 0.25 0.25 0.25 0.25 0.4330357142857143 0.13839285714285712 0.4017857142857143 0.026785714285714284 0.6046511627906976 0.13953488372093023 0.0 0.2558139534883721 0.5 0.05 0.05 0.4 0.25 0.25 0.25 0.25 0.25 0.25 0.25 0.25 0.25 0.25 0.25 0.25 0.25 0.25 0.25 0.25 0.4893617021276596 0.0 0.5106382978723404 0.0 0.25 0.25 0.25 0.25 0.25 0.25 0.25 0.25 1.0 0.0 0.0 0.0 0.8888888888888888 0.0 0.0 0.1111111111111111 0.5 0.0 0.0 0.5 0.25 0.25 0.25 0.25 0.25 0.25 0.25 0.25 0.25 0.25 0.25 0.25 0.25 0.25 0.25 0.25 0.1590909090909091 0.11363636363636363 0.7272727272727273 0.0 0.25 0.25 0.25 0.25 0.25 0.25 0.25 0.25 0.638095238095238 0.10476190476190475 0.21904761904761902 0.0380952380952381 0.25 0.25 0.25 0.25 0.25 0.25 0.25 0.25 0.25 0.25 0.25 0.25 0.7111111111111112 0.03333333333333333 0.12222222222222222 0.13333333333333333 0.25 0.25 0.25 0.25 0.25 0.25 0.25 0.25 0.4375 0.0 0.5625 0.0 0.25 0.25 0.25 0.25 0.25 0.25 0.25 0.25 0.25 0.25 0.25 0.25 0.25 0.25 0.25 0.25 0.25 0.25 0.25 0.25 0.25 0.25 0.25 0.25 0.25 0.25 0.25 0.25 0.25 0.25 0.25 0.25 0.25 0.25 0.25 0.25 0.25 0.25 0.25 0.25 0.25 0.25 0.25 0.25 0.25 0.25 0.25 0.25 0.25 0.25 0.25 0.25 0.25 0.25 0.25 0.25 0.1 0.29999999999999993 0.4 0.2 0.25 0.25 0.25 0.25 0.25 0.25 0.25 0.25 0.25 0.25 0.25 0.25 0.25 0.25 0.25 0.25 0.25 0.25 0.25 0.25 0.25 0.25 0.25 0.25 0.25 0.25 0.25 0.25 0.25 0.25 0.25 0.25 0.25 0.25 0.25 0.25 0.59375 0.0625 0.25 0.09375 0.25 0.25 0.25 0.25 0.25 0.25 0.25 0.25 0.25 0.25 0.25 0.25 0.25 0.25 0.25 0.25 0.0 0.6 0.2 0.2 0.25 0.25 0.25 0.25 0.25 0.25 0.25 0.25 0.25 0.25 0.25 0.25 0.25 0.25 0.25 0.25 0.25 0.25 0.25 0.25 0.25 0.25 0.25 0.25 0.25 0.25 0.25 0.25 0.25 0.25 0.25 0.25 0.25 0.25 0.25 0.25 0.0 0.7692307692307693 0.23076923076923078 0.0 0.25 0.25 0.25 0.25 0.25 0.25 0.25 0.25 0.25 0.25 0.25 0.25 0.25 0.25 0.25 0.25 0.25 0.25 0.25 0.25 0.25 0.25 0.25 0.25 0.25 0.25 0.25 0.25 0.25 0.25 0.25 0.25 0.25 0.25 0.25 0.25 0.0 0.8181818181818182 0.0 0.1818181818181818 0.25 0.25 0.25 0.25 0.25 0.25 0.25 0.25 0.25 0.25 0.25 0.25 0.0 0.5384615384615384 0.38461538461538464 0.07692307692307693 0.25 0.25 0.25 0.25 0.25 0.25 0.25 0.25 0.25 0.25 0.25 0.25 0.25 0.25 0.25 0.25 0.2553191489361702 0.3723404255319149 0.0851063829787234 0.2872340425531915 0.06451612903225805 0.8709677419354839 0.06451612903225805 0.0 0.25 0.25 0.25 0.25 0.25 0.25 0.25 0.25 0.25 0.25 0.25 0.25 0.41379310344827586 0.06896551724137931 0.4827586206896552 0.034482758620689655 0.25 0.25 0.25 0.25 0.25 0.25 0.25 0.25 0.25 0.25 0.25 0.25 0.25 0.25 0.25 0.25 0.6836158192090396 0.07062146892655367 0.01694915254237288 0.22881355932203384 0.25 0.25 0.25 0.25 0.25 0.25 0.25 0.25 0.25 0.25 0.25 0.25 0.25 0.25 0.25 0.25 0.0 0.0 0.8571428571428571 0.14285714285714285 0.25 0.25 0.25 0.25 0.25 0.25 0.25 0.25 0.25 0.25 0.25 0.25 0.25 0.25 0.25 0.25 0.25 0.25 0.25 0.25 0.25 0.25 0.25 0.25 0.25 0.25 0.25 0.25 0.25 0.25 0.25 0.25 0.25 0.25 0.25 0.25 0.6666666666666666 0.0 0.0 0.3333333333333333 0.25 0.25 0.25 0.25 0.25 0.25 0.25 0.25 0.25 0.25 0.25 0.25 0.25 0.25 0.25 0.25 0.25 0.25 0.25 0.25 0.25 0.25 0.25 0.25 0.25 0.25 0.25 0.25 0.0 0.7999999999999999 0.19999999999999998 0.0 0.0 0.6 0.0 0.4 0.25 0.25 0.25 0.25 0.25 0.25 0.25 0.25 0.25 0.25 0.25 0.25 0.25 0.25 0.25 0.25 0.25 0.25 0.25 0.25 0.25 0.25 0.25 0.25 0.25 0.25 0.25 0.25 0.25 0.25 0.25 0.25 0.1276595744680851 0.02127659574468085 0.851063829787234 0.0 0.8571428571428571 0.0 0.0 0.14285714285714285 0.25 0.25 0.25 0.25 0.25 0.25 0.25 0.25 0.25 0.25 0.25 0.25 0.25 0.25 0.25 0.25 0.25 0.25 0.25 0.25 0.25 0.25 0.25 0.25 0.25 0.25 0.25 0.25 0.25 0.25 0.25 0.25 0.25 0.25 0.25 0.25 0.0 0.34375 0.640625 0.015625 0.25 0.25 0.25 0.25 0.25 0.25 0.25 0.25 0.25 0.25 0.25 0.25 0.25 0.25 0.25 0.25 0.25 0.25 0.25 0.25 0.25 0.25 0.25 0.25 0.25 0.25 0.25 0.25 0.25 0.25 0.25 0.25 0.25 0.25 0.25 0.25 0.25 0.25 0.5 0.0 0.25 0.25 0.25 0.25 0.25 0.25 0.25 0.25 0.25 0.25 0.25 0.25 0.25 0.25 0.25 0.25 0.25 0.25 0.25 0.25 0.25 0.25 0.25 0.25 0.0 0.8333333333333334 0.0 0.16666666666666666 0.25 0.25 0.25 0.25 0.25 0.25 0.25 0.25 0.0 0.5925925925925927 0.07407407407407408 0.3333333333333333 0.06666666666666667 0.26666666666666666 0.5333333333333333 0.13333333333333333 0.25 0.0 0.5 0.25 0.25 0.25 0.25 0.25 0.6666666666666666 0.0 0.3333333333333333 0.0 0.29411764705882354 0.11764705882352942 0.17647058823529413 0.4117647058823529 0.25 0.25 0.25 0.25 0.09090909090909091 0.8181818181818182 0.045454545454545456 0.045454545454545456 0.25 0.25 0.25 0.25 0.25 0.25 0.25 0.25 0.23404255319148937 0.028368794326241127 0.6453900709219859 0.09219858156028367 0.6666666666666666 0.0 0.07407407407407408 0.25925925925925936 0.4 0.1 0.1 0.4 0.25 0.25 0.25 0.25 0.625 0.0 0.0 0.375 0.0909090909090909 0.0909090909090909 0.0 0.8181818181818182 0.25 0.25 0.25 0.25 0.0 0.6 0.4 0.0 0.25 0.25 0.25 0.25 0.25 0.25 0.25 0.25 0.7692307692307693 0.15384615384615385 0.0 0.07692307692307693 0.25 0.25 0.25 0.25 0.5135135135135135 0.06756756756756759 0.3445945945945946 0.07432432432432433 0.25 0.25 0.25 0.25 0.25 0.25 0.25 0.25 0.25 0.25 0.25 0.25 0.25 0.25 0.25 0.25 0.0 0.4181818181818182 0.5818181818181818 0.0 0.25 0.25 0.25 0.25 0.25 0.25 0.25 0.25 1.0 0.0 0.0 0.0 0.25 0.25 0.25 0.25 1.0 0.0 0.0 0.0 0.25 0.25 0.25 0.25 0.25 0.25 0.25 0.25 0.25 0.25 0.25 0.25 0.25 0.25 0.25 0.25 0.0 0.9777777777777777 0.022222222222222227 0.0 0.25 0.25 0.25 0.25 0.25 0.25 0.25 0.25 0.25 0.25 0.25 0.25 0.25 0.25 0.25 0.25 0.72 0.19999999999999998 0.0 0.08000000000000002 0.25 0.25 0.25 0.25 0.25 0.25 0.25 0.25 0.25 0.25 0.25 0.25 0.25 0.25 0.25 0.25 0.015384615384615384 0.8923076923076922 0.0923076923076923 0.0 0.25 0.25 0.25 0.25 0.25 0.25 0.25 0.25 0.25 0.25 0.25 0.25 0.25 0.25 0.25 0.25 0.8947368421052633 0.052631578947368425 0.0 0.052631578947368425 0.25 0.25 0.25 0.25 0.25 0.25 0.25 0.25 0.25 0.25 0.25 0.25 0.25 0.25 0.25 0.25 0.0 1.0 0.0 0.0 0.14427860696517414 0.05472636815920398 0.18905472636815918 0.6119402985074627 0.25 0.25 0.25 0.25 0.16666666666666666 0.16666666666666666 0.3333333333333333 0.3333333333333333 0.17647058823529413 0.022058823529411766 0.7720588235294118 0.029411764705882356 0.14285714285714288 0.4 0.14285714285714288 0.31428571428571433 0.29914529914529914 0.2692307692307692 0.1794871794871795 0.25213675213675213 0.22456140350877193 0.20350877192982456 0.09473684210526316 0.47719298245614034 0.18110236220472442 0.13385826771653545 0.10236220472440945 0.5826771653543308 0.15217391304347827 0.08695652173913042 0.13043478260869565 0.6304347826086957 0.07692307692307696 0.6923076923076922 0.1538461538461539 0.07692307692307696 0.03902439024390244 0.004878048780487805 0.048780487804878044 0.9073170731707317 0.25 0.25 0.25 0.25 0.3888888888888889 0.055555555555555546 0.49999999999999994 0.055555555555555546 0.4166666666666667 0.0 0.48333333333333334 0.1 0.5357142857142858 0.06071428571428572 0.0071428571428571435 0.39642857142857146 0.4375 0.03333333333333333 0.041666666666666664 0.4875 0.3047404063205418 0.04063205417607223 0.015801354401805866 0.6388261851015801 0.159375 0.034375 0.015625 0.790625 0.08108108108108109 0.02702702702702703 0.036036036036036036 0.8558558558558559 0.125 0.625 0.125 0.125 0.25 0.25 0.25 0.25 0.0 0.2830188679245283 0.6981132075471699 0.01886792452830189 0.25 0.25 0.25 0.25 0.25 0.25 0.25 0.25 0.25 0.25 0.25 0.25 0.25 0.25 0.25 0.25 0.25 0.25 0.25 0.25 0.25 0.25 0.25 0.25 0.25 0.25 0.25 0.25 0.0 0.6 0.4 0.0 0.25 0.25 0.25 0.25 0.26315789473684204 0.0 0.6842105263157895 0.05263157894736842 0.25 0.25 0.25 0.25 0.25 0.25 0.25 0.25 0.25 0.25 0.25 0.25 0.25 0.25 0.25 0.25 0.25 0.25 0.25 0.25 0.25 0.25 0.25 0.25 0.25 0.25 0.25 0.25 0.25 0.25 0.25 0.25 0.25 0.25 0.25 0.25 0.1111111111111111 0.4444444444444444 0.4444444444444444 0.0 0.25 0.25 0.25 0.25 0.25 0.25 0.25 0.25 0.25 0.25 0.25 0.25 0.6222222222222222 0.15555555555555556 0.02222222222222222 0.19999999999999998 0.25 0.25 0.25 0.25 0.25 0.25 0.25 0.25 0.25 0.25 0.25 0.25 0.25 0.25 0.25 0.25 0.25 0.25 0.25 0.25 0.09302325581395349 0.0 0.9069767441860466 0.0 0.25 0.25 0.25 0.25 0.25 0.25 0.25 0.25 0.25 0.25 0.25 0.25 0.7142857142857143 0.0 0.0 0.2857142857142857 0.25 0.25 0.25 0.25 0.25 0.25 0.25 0.25 0.25 0.25 0.25 0.25 0.0 0.7999999999999999 0.0 0.19999999999999998 0.125 0.0 0.25 0.625 0.021739130434782605 0.5 0.391304347826087 0.08695652173913042 0.10305343511450384 0.2900763358778626 0.5038167938931297 0.10305343511450384 0.15384615384615388 0.36013986013986016 0.3356643356643357 0.15034965034965037 0.26829268292682923 0.3170731707317073 0.13414634146341461 0.28048780487804875 0.1111111111111111 0.3333333333333333 0.3333333333333333 0.2222222222222222 0.3333333333333333 0.0 0.16666666666666666 0.5 0.14285714285714285 0.2857142857142857 0.14285714285714285 0.42857142857142855 0.25 0.25 0.25 0.25 0.043478260869565216 0.8695652173913042 0.043478260869565216 0.043478260869565216 0.0 0.0 0.0 1.0 0.07926829268292683 0.6280487804878049 0.2439024390243902 0.04878048780487805 0.3 0.016666666666666666 0.6208333333333333 0.0625 0.7973333333333333 0.023999999999999994 0.04266666666666665 0.136 0.5 0.029166666666666667 0.008333333333333333 0.4625 0.42105263157894735 0.0 0.0 0.5789473684210527 0.5 0.125 0.0 0.375 0.2857142857142857 0.0 0.0 0.7142857142857143 0.25 0.25 0.25 0.25 0.0 0.8181818181818182 0.1818181818181818 0.0 0.25 0.25 0.25 0.25 0.25 0.25 0.25 0.25 0.25 0.25 0.25 0.25 0.25 0.25 0.25 0.25 0.25 0.25 0.25 0.25 0.25 0.25 0.25 0.25 0.25 0.25 0.25 0.25 0.29090909090909095 0.07272727272727274 0.12727272727272726 0.509090909090909 0.25 0.25 0.25 0.25 0.051948051948051945 0.1558441558441558 0.7922077922077924 0.0 0.25 0.25 0.25 0.25 0.25 0.25 0.25 0.25 0.25 0.25 0.25 0.25 0.25 0.25 0.25 0.25 0.25 0.25 0.25 0.25 0.25 0.25 0.25 0.25 0.25 0.25 0.25 0.25 0.1818181818181818 0.0 0.0 0.8181818181818182 0.25 0.25 0.25 0.25 0.0 1.0 0.0 0.0 0.25 0.25 0.25 0.25 0.0 0.7999999999999999 0.19999999999999998 0.0 0.13333333333333336 0.13333333333333336 0.7333333333333333 0.0 0.25 0.25 0.25 0.25 0.25 0.25 0.25 0.25 0.25 0.25 0.25 0.25 0.25 0.25 0.25 0.25 0.25 0.25 0.25 0.25 0.25 0.25 0.25 0.25 0.0 0.425925925925926 0.574074074074074 0.0 0.25 0.25 0.25 0.25 0.1935483870967742 0.0 0.8064516129032258 0.0 0.3333333333333333 0.0 0.6666666666666666 0.0 0.25 0.25 0.25 0.25 0.25 0.25 0.25 0.25 0.25 0.25 0.25 0.25 0.25 0.25 0.25 0.25 0.25 0.25 0.25 0.25 0.25 0.25 0.25 0.25 0.0 0.9090909090909092 0.0 0.09090909090909093 0.19730941704035873 0.026905829596412557 0.16591928251121074 0.609865470852018 0.25 0.25 0.25 0.25 0.25 0.25 0.25 0.25 0.0 0.5 0.5 0.0 0.24615384615384617 0.32307692307692304 0.23846153846153847 0.19230769230769232 0.34545454545454546 0.2 0.24242424242424243 0.21212121212121213 0.30288461538461536 0.12980769230769235 0.17307692307692304 0.3942307692307693 0.24545454545454543 0.0818181818181818 0.10454545454545452 0.5681818181818182 0.15566037735849056 0.04245283018867924 0.14622641509433962 0.6556603773584906 0.050847457627118654 0.864406779661017 0.08474576271186442 0.0 0.07106598984771573 0.0 0.02538071065989847 0.9035532994923857 0.25 0.25 0.25 0.25 0.25 0.25 0.25 0.25 0.7999999999999999 0.0 0.09999999999999999 0.09999999999999999 0.6586206896551724 0.027586206896551724 0.06551724137931035 0.2482758620689655 0.38153846153846155 0.02153846153846154 0.02153846153846154 0.5753846153846153 0.2553191489361702 0.01773049645390071 0.024822695035460994 0.7021276595744681 0.14000000000000004 0.0 0.03 0.83 0.125 0.019230769230769235 0.014423076923076924 0.8413461538461539 0.4444444444444444 0.4444444444444444 0.1111111111111111 0.0 0.25 0.25 0.25 0.25 0.25 0.25 0.25 0.25 0.08629441624365483 0.2030456852791878 0.6954314720812184 0.015228426395939089 0.25 0.25 0.25 0.25 0.25 0.25 0.25 0.25 0.25 0.25 0.25 0.25 0.25 0.25 0.25 0.25 0.2549019607843137 0.0392156862745098 0.058823529411764705 0.6470588235294118 0.25 0.25 0.25 0.25 0.20930232558139536 0.0 0.7906976744186046 0.0 0.25 0.25 0.25 0.25 0.25 0.25 0.25 0.25 1.0 0.0 0.0 0.0 0.25 0.25 0.25 0.25 0.25 0.25 0.25 0.25 0.25 0.25 0.25 0.25 0.25 0.25 0.25 0.25 0.0 0.0 0.0 1.0 0.25 0.25 0.25 0.25 3.26317506934247e-05 0.8887545643036681 0.11104939934641744 0.0001634045992210027 0.25 0.25 0.25 0.25 0.14285714285714285 0.7142857142857143 0.0 0.14285714285714285 0.05172413793103448 0.06896551724137931 0.8706896551724138 0.008620689655172414 0.25 0.25 0.25 0.25 0.25 0.25 0.25 0.25 0.25 0.25 0.25 0.25 0.25 0.25 0.25 0.25 0.25 0.25 0.25 0.25 0.25 0.25 0.25 0.25 0.06049718745629518 0.7476017372414077 0.19183570045726034 6.537484503681564e-05 0.25 0.25 0.25 0.25 0.20689655172413796 0.0 0.7931034482758621 0.0 0.19999999999999998 0.09999999999999999 0.6 0.09999999999999999 0.25 0.25 0.25 0.25 0.25 0.25 0.25 0.25 0.25 0.25 0.25 0.25 0.25 0.25 0.25 0.25 0.25 0.25 0.25 0.25 0.25 0.25 0.25 0.25 0.0 0.6666666666666666 0.3333333333333333 0.0 0.25 0.25 0.25 0.25 0.38461538461538464 0.38461538461538464 0.23076923076923078 0.0 0.25 0.25 0.25 0.25 0.25 0.25 0.25 0.25 0.4838709677419355 0.06451612903225806 0.06451612903225806 0.3870967741935484 0.25 0.25 0.25 0.25 0.25 0.25 0.25 0.25 0.29729729729729726 0.054054054054054064 0.08108108108108109 0.5675675675675675 0.25 0.25 0.25 0.25 0.15789473684210525 0.15789473684210525 0.6842105263157895 0.0 0.25 0.25 0.25 0.25 0.5161290322580645 0.0 0.4516129032258065 0.03225806451612903 0.25 0.25 0.25 0.25 0.25 0.25 0.25 0.25 0.8461538461538461 0.07692307692307693 0.0 0.07692307692307693 0.25 0.25 0.25 0.25 0.25 0.25 0.25 0.25 0.0 0.0 0.0 1.0 0.25 0.25 0.25 0.25 0.16000000000000003 0.12000000000000001 0.72 0.0 0.25 0.25 0.25 0.25 0.0 0.3666666666666666 0.6166666666666667 0.016666666666666666 0.25 0.25 0.25 0.25 0.25 0.25 0.25 0.25 0.25 0.25 0.25 0.25 0.25 0.25 0.25 0.25 0.25 0.25 0.25 0.25 0.25 0.25 0.25 0.25 0.25 0.25 0.25 0.25 0.4 0.0 0.6 0.0 0.25 0.25 0.25 0.25 0.25 0.25 0.25 0.25 0.25 0.25 0.25 0.25 0.25 0.25 0.25 0.25 0.25 0.25 0.25 0.25 0.25 0.25 0.25 0.25 0.25 0.25 0.25 0.25 0.25 0.25 0.25 0.25 0.25 0.25 0.25 0.25 0.0 0.6181818181818182 0.05454545454545454 0.32727272727272727 0.25 0.25 0.25 0.25 0.1 0.51 0.08999999999999998 0.3 0.08680555555555557 0.20138888888888892 0.6979166666666666 0.01388888888888889 0.25 0.25 0.25 0.25 0.25 0.25 0.25 0.25 0.25 0.25 0.25 0.25 0.25 0.25 0.25 0.25 0.25 0.25 0.25 0.25 0.25 0.25 0.25 0.25 0.06501547987616099 0.7801857585139319 0.13312693498452013 0.021671826625386997 0.25 0.25 0.25 0.25 0.27732793522267213 0.006072874493927125 0.6720647773279351 0.044534412955465584 0.6388888888888888 0.0 0.3611111111111111 0.0 0.25 0.25 0.25 0.25 0.25 0.25 0.25 0.25 0.25 0.25 0.25 0.25 0.25 0.25 0.25 0.25 0.25 0.25 0.25 0.25 0.25 0.25 0.25 0.25 0.125 0.25 0.625 0.0 0.25 0.25 0.25 0.25 0.25 0.25 0.25 0.25 0.25 0.25 0.25 0.25 0.25 0.25 0.25 0.25 0.25 0.25 0.25 0.25 0.25 0.25 0.25 0.25 0.25 0.25 0.25 0.25 0.21568627450980393 0.0392156862745098 0.058823529411764705 0.6862745098039216 0.25 0.25 0.25 0.25 0.1818181818181818 0.0 0.8181818181818182 0.0 0.25 0.25 0.25 0.25 0.25 0.25 0.25 0.25 0.25 0.25 0.25 0.25 0.25 0.25 0.25 0.25 0.25 0.25 0.25 0.25 0.25 0.25 0.25 0.25 0.25 0.25 0.25 0.25 0.0 0.0 0.0 1.0 0.25 0.25 0.25 0.25 0.0833333333333333 0.6547619047619048 0.11904761904761904 0.1428571428571429 0.25 0.25 0.25 0.25 0.13084112149532712 0.5046728971962616 0.10280373831775702 0.26168224299065423 0.6201550387596899 0.2131782945736434 0.015503875968992246 0.1511627906976744 0.5989304812834224 0.12299465240641713 0.0213903743315508 0.25668449197860965 0.25 0.25 0.25 0.25 0.25 0.25 0.25 0.25 0.25 0.25 0.25 0.25 0.275 0.025 0.1 0.6 0.25 0.25 0.25 0.25 0.06635071090047392 0.27725118483412325 0.6540284360189572 0.0023696682464454982 0.25 0.25 0.25 0.25 0.7976424361493123 0.001964636542239685 0.1827111984282907 0.01768172888015717 0.9273743016759776 0.008379888268156423 0.02793296089385474 0.03631284916201116 0.8181818181818181 0.024793388429752056 0.0 0.1570247933884297 0.25 0.25 0.25 0.25 0.25 0.25 0.25 0.25 0.25 0.25 0.25 0.25 0.0 0.0 0.0 1.0 0.25 0.25 0.25 0.25 0.3333333333333333 0.2777777777777778 0.3888888888888889 0.0 0.25 0.25 0.25 0.25 0.168141592920354 0.35398230088495575 0.4690265486725664 0.008849557522123892 0.25 0.25 0.25 0.25 0.25 0.25 0.25 0.25 0.25 0.25 0.25 0.25 0.25 0.25 0.25 0.25 0.25 0.25 0.25 0.25 0.19999999999999998 0.03333333333333333 0.0 0.7666666666666667 0.25 0.25 0.25 0.25 0.45238095238095233 0.0 0.5476190476190476 0.0 0.25 0.25 0.25 0.25 0.7142857142857143 0.0 0.14285714285714285 0.14285714285714285 0.25 0.25 0.25 0.25 0.25 0.25 0.25 0.25 0.25 0.25 0.25 0.25 0.25 0.25 0.25 0.25 0.25 0.25 0.25 0.25 0.25 0.25 0.25 0.25 0.25 0.25 0.25 0.25 0.1111111111111111 0.6666666666666666 0.0 0.2222222222222222 0.25 0.25 0.25 0.25 0.16117216117216115 0.46153846153846156 0.32967032967032966 0.047619047619047616 0.34615384615384615 0.19230769230769235 0.26923076923076933 0.19230769230769235 0.25 0.25 0.25 0.25 0.25 0.25 0.25 0.25 0.25 0.25 0.25 0.25 0.25 0.25 0.25 0.25 0.25 0.25 0.25 0.25 0.25 0.25 0.25 0.25 0.1142857142857143 0.1142857142857143 0.7714285714285715 0.0 0.25 0.25 0.25 0.25 0.7009345794392523 0.003115264797507788 0.2866043613707165 0.009345794392523364 0.8888888888888888 0.0 0.0 0.1111111111111111 0.25 0.25 0.25 0.25 0.25 0.25 0.25 0.25 0.25 0.25 0.25 0.25 0.25 0.25 0.25 0.25 0.25 0.25 0.25 0.25 0.25 0.25 0.25 0.25 0.14473684210526316 0.48026315789473684 0.13157894736842105 0.24342105263157895 0.25 0.25 0.25 0.25 0.5833333333333334 0.25 0.0 0.16666666666666666 0.25 0.25 0.25 0.25 0.25 0.25 0.25 0.25 0.25 0.25 0.25 0.25 0.25 0.25 0.25 0.25 0.25 0.25 0.25 0.25 0.3673469387755102 0.04081632653061224 0.08163265306122448 0.5102040816326531 0.25 0.25 0.25 0.25 0.19585987261146495 0.0015923566878980893 0.8009554140127388 0.0015923566878980893 0.25 0.25 0.25 0.25 0.8571428571428571 0.0 0.14285714285714285 0.0 0.25 0.25 0.25 0.25 0.25 0.25 0.25 0.25 0.25 0.25 0.25 0.25 0.25 0.25 0.25 0.25 0.25 0.25 0.25 0.25 0.0 0.0 0.0 1.0 0.25 0.25 0.25 0.25 </TABLE>
    </DEFINITION>
    <DEFINITION>
      <FOR>distance</FOR>
      <GIVEN>fps</GIVEN>
      <TABLE>0.0182010582010582 0.9817989417989418 0.012747742728751307 0.9872522572712487 0.009520884520884522 0.9904791154791155 0.013736263736263734 0.9862637362637362 0.011904761904761904 0.9880952380952381 </TABLE>
    </DEFINITION>
    <DEFINITION>
      <FOR>fps</FOR>
      <GIVEN>bitrate</GIVEN>
      <TABLE>0.0 0.0 0.0 0.0 1.0 0.0 0.0 0.0 1.0 0.0 0.0 0.0 0.0 0.0 1.0 1.0 0.0 0.0 0.0 0.0 0.0 1.0 0.0 0.0 0.0 1.0 0.0 0.0 0.0 0.0 0.0 0.0 1.0 0.0 0.0 0.0 0.0 0.0 1.0 0.0 0.0 1.0 0.0 0.0 0.0 1.0 0.0 0.0 0.0 0.0 0.0 0.0 0.0 0.0 1.0 0.0 0.0 1.0 0.0 0.0 1.0 0.0 0.0 0.0 0.0 0.0 1.0 0.0 0.0 0.0 0.0 0.0 0.0 1.0 0.0 1.0 0.0 0.0 0.0 0.0 0.0 0.0 1.0 0.0 0.0 0.0 0.47368421052631576 0.0 0.0 0.5263157894736842 1.0 0.0 0.0 0.0 0.0 0.0 0.0 0.0 1.0 0.0 0.0 1.0 0.0 0.0 0.0 0.0 0.0 1.0 0.0 0.0 0.0 0.0 0.0 0.0 1.0 0.0 1.0 0.0 0.0 0.0 0.0 0.0 0.0 1.0 0.0 0.0 0.0 1.0 0.0 0.0 0.0 0.0 0.0 0.0 1.0 0.0 0.0 1.0 0.0 0.0 0.0 0.0 0.0 1.0 0.0 </TABLE>
    </DEFINITION>
    <DEFINITION>
      <FOR>in_time</FOR>
      <GIVEN>bitrate</GIVEN>
      <GIVEN>stream_count</GIVEN>
      <TABLE>0.13333333333333333 0.8666666666666667 0.5 0.5 1.0 0.0 0.5 0.5 0.5 0.5 0.5 0.5 0.5 0.5 0.5 0.5 1.0 0.0 0.5 0.5 0.09615384615384617 0.9038461538461539 0.5 0.5 0.5 0.5 0.9572649572649572 0.042735042735042736 0.826923076923077 0.17307692307692307 0.7692307692307693 0.23076923076923078 0.5 0.5 0.5 0.5 0.5 0.5 0.5 0.5 0.7333333333333333 0.2666666666666667 0.5 0.5 0.5 0.5 1.0 0.0 0.5 0.5 0.5 0.5 0.5 0.5 1.0 0.0 0.5 0.5 0.5 0.5 0.5 0.5 0.5 0.5 0.5 0.5 0.5 0.5 0.5 0.5 0.23809523809523808 0.7619047619047619 0.5 0.5 0.5 0.5 0.5 0.5 0.5 0.5 0.2777777777777778 0.7222222222222222 0.5 0.5 0.5 0.5 0.5 0.5 0.5 0.5 0.5 0.5 0.5 0.5 0.5 0.5 0.5 0.5 0.5 0.5 0.2619047619047619 0.7380952380952381 0.5 0.5 0.5 0.5 0.5 0.5 0.3095238095238096 0.6904761904761905 0.5 0.5 0.5 0.5 0.5 0.5 0.5 0.5 0.20982142857142858 0.7901785714285714 0.5 0.5 0.5 0.5 0.5 0.5 0.5 0.5 0.31818181818181823 0.6818181818181818 0.5 0.5 0.5 0.5 0.5 0.5 0.5 0.5 0.5 0.5 0.5 0.5 0.5 0.5 0.09615384615384617 0.9038461538461539 0.1923076923076923 0.8076923076923077 0.5 0.5 0.5 0.5 0.5 0.5 0.5 0.5 0.5 0.5 0.5 0.5 0.5 0.5 0.5 0.5 0.5 0.5 0.8888888888888888 0.1111111111111111 0.5 0.5 0.5 0.5 0.5 0.5 0.5 0.5 0.5 0.5 0.5 0.5 0.2142857142857143 0.7857142857142857 0.5 0.5 0.5 0.5 0.16071428571428573 0.8392857142857143 0.35714285714285715 0.6428571428571429 0.2857142857142857 0.7142857142857143 0.5 0.5 0.42857142857142855 0.5714285714285714 0.6071428571428571 0.39285714285714285 0.5 0.5 0.08333333333333333 0.9166666666666667 0.5 0.5 0.5 0.5 0.8666666666666667 0.13333333333333333 0.5 0.5 0.9866666666666667 0.013333333333333334 0.5 0.5 0.5 0.5 0.5 0.5 0.5 0.5 0.40909090909090906 0.5909090909090909 0.5 0.5 0.5 0.5 0.5 0.5 0.5 0.5 0.5681818181818182 0.43181818181818177 0.5 0.5 0.5 0.5 0.5 0.5 0.5 0.5 0.07142857142857142 0.9285714285714286 0.49507389162561577 0.5049261083743842 0.5 0.5 0.14285714285714285 0.8571428571428571 0.6938775510204082 0.30612244897959184 0.19999999999999998 0.7999999999999999 0.3277310924369748 0.6722689075630253 0.3914835164835165 0.6085164835164836 0.44250871080139376 0.5574912891986062 0.45320197044334976 0.5467980295566502 0.4444444444444444 0.5555555555555556 0.5 0.5 0.7361111111111112 0.2638888888888889 0.5 0.5 0.5 0.5 0.5 0.5 0.5 0.5 0.5 0.5 0.5 0.5 0.5 0.5 0.5 0.5 0.5 0.5 0.17307692307692307 0.826923076923077 0.5 0.5 0.5 0.5 0.5 0.5 0.8653846153846154 0.1346153846153846 0.5 0.5 0.5 0.5 0.5 0.5 0.17857142857142858 0.8214285714285714 0.5714285714285714 0.42857142857142855 0.21904761904761905 0.780952380952381 0.353099730458221 0.6469002695417789 0.27606177606177607 0.7239382239382239 0.25465838509316774 0.7453416149068323 0.32142857142857145 0.6785714285714286 0.42857142857142855 0.5714285714285714 0.5 0.5 0.5 0.5 0.125 0.875 0.5 0.5 0.5 0.5 0.5 0.5 0.5 0.5 0.5 0.5 0.5 0.5 0.5 0.5 0.8333333333333334 0.16666666666666666 0.5 0.5 0.1 0.9 0.5 0.5 0.1388888888888889 0.8611111111111112 0.8333333333333334 0.16666666666666666 0.5 0.5 0.5 0.5 0.5 0.5 0.5 0.5 0.5 0.5 0.5 0.5 0.15714285714285714 0.8428571428571429 0.530952380952381 0.46904761904761905 0.5 0.5 0.5 0.5 0.2857142857142857 0.7142857142857143 0.3095238095238096 0.6904761904761905 0.336734693877551 0.6632653061224489 0.4244897959183674 0.5755102040816327 0.5238095238095238 0.47619047619047616 0.5047619047619047 0.49523809523809526 0.17307692307692307 0.826923076923077 0.5 0.5 0.5 0.5 0.9471153846153846 0.052884615384615384 0.5 0.5 0.5 0.5 0.5 0.5 0.5 0.5 0.9807692307692307 0.019230769230769232 0.5 0.5 0.08369230365664497 0.9163076963433551 0.5 0.5 0.19444444444444445 0.8055555555555556 0.9206349206349207 0.07936507936507937 0.5 0.5 0.5 0.5 0.5 0.5 0.5 0.5 0.5 0.5 0.5 0.5 0.13636363636363635 0.8636363636363636 0.5 0.5 0.29545454545454547 0.7045454545454546 0.5 0.5 0.5 0.5 0.7045454545454546 0.29545454545454547 0.5 0.5 0.5 0.5 0.8409090909090909 0.1590909090909091 0.5 0.5 0.41666666666666663 0.5833333333333334 0.5 0.5 1.0 0.0 0.5 0.5 0.5 0.5 0.5 0.5 0.5 0.5 0.5 0.5 0.5 0.5 0.5 0.5 0.1455026455026455 0.8544973544973544 0.5 0.5 0.16835016835016836 0.8316498316498316 0.8888888888888888 0.1111111111111111 0.5 0.5 0.5 0.5 0.5 0.5 0.5 0.5 0.5 0.5 0.5 0.5 0.15384615384615388 0.8461538461538461 0.5 0.5 0.5 0.5 0.5 0.5 0.5 0.5 0.5 0.5 0.5 0.5 0.5 0.5 0.9807692307692307 0.019230769230769232 0.5 0.5 0.16600790513833993 0.83399209486166 0.5 0.5 0.1737012987012987 0.8262987012987013 0.41883116883116883 0.5811688311688312 0.6071428571428571 0.39285714285714285 0.5 0.5 0.5 0.5 0.5 0.5 0.9090909090909092 0.09090909090909093 0.5 0.5 0.3 0.7 0.5 0.5 0.9416666666666667 0.058333333333333334 0.5 0.5 0.5 0.5 0.5 0.5 0.5 0.5 0.5 0.5 1.0 0.0 0.5 0.5 0.20454545454545459 0.7954545454545454 0.5 0.5 0.45959595959595956 0.5404040404040404 0.5909090909090909 0.40909090909090906 0.5 0.5 0.5 0.5 0.5 0.5 0.5 0.5 0.5 0.5 0.5 0.5 0.19487179487179487 0.8051282051282052 0.5 0.5 0.46153846153846156 0.5384615384615384 0.5 0.5 0.5 0.5 0.5 0.5 0.5 0.5 0.5 0.5 0.9423076923076923 0.057692307692307696 0.5 0.5 </TABLE>
    </DEFINITION>
    <DEFINITION>
      <FOR>memory_usage</FOR>
      <GIVEN>stream_count</GIVEN>
      <TABLE>0.2653024547820908 0.7346975452179092 0.0 1.0 0.2477203647416414 0.7522796352583586 0.23146853146853147 0.7685314685314686 0.24532710280373832 0.7546728971962616 0.2974504249291785 0.7025495750708215 0.3271028037383178 0.6728971962616822 0.3712574850299401 0.62874251497006 0.41504178272980496 0.584958217270195 0.3406593406593406 0.6593406593406593 </TABLE>
    </DEFINITION>
    <DEFINITION>
      <FOR>network</FOR>
      <TABLE>1.0 </TABLE>
    </DEFINITION>
    <DEFINITION>
      <FOR>pixel</FOR>
      <GIVEN>bitrate</GIVEN>
      <TABLE>0.0 0.0 0.0 0.0 1.0 0.0 0.0 0.0 0.0 0.0 0.0 1.0 0.0 0.0 0.0 0.0 0.0 1.0 1.0 0.0 0.0 0.0 0.0 0.0 1.0 0.0 0.0 0.0 0.0 0.0 0.0 1.0 0.0 0.0 0.0 0.0 1.0 0.0 0.0 0.0 0.0 0.0 1.0 0.0 0.0 0.0 0.0 0.0 0.0 1.0 0.0 0.0 0.0 0.0 0.0 0.0 1.0 0.0 0.0 0.0 1.0 0.0 0.0 0.0 0.0 0.0 0.0 1.0 0.0 0.0 0.0 0.0 0.0 0.0 0.0 1.0 0.0 0.0 0.0 0.0 1.0 0.0 0.0 0.0 0.0 1.0 0.0 0.0 0.0 0.0 0.0 0.0 0.0 0.0 1.0 0.0 0.0 0.0 1.0 0.0 0.0 0.0 0.0 0.5263157894736842 0.0 0.47368421052631576 0.0 0.0 0.0 0.0 0.0 0.0 0.0 1.0 0.0 0.0 1.0 0.0 0.0 0.0 0.0 0.0 0.0 0.0 1.0 0.0 0.0 0.0 0.0 1.0 0.0 0.0 0.0 0.0 1.0 0.0 0.0 0.0 0.0 0.0 0.0 0.0 0.0 1.0 0.0 0.0 0.0 1.0 0.0 0.0 0.0 0.0 0.0 0.0 1.0 0.0 0.0 0.0 0.0 1.0 0.0 0.0 0.0 0.0 0.0 0.0 0.0 1.0 0.0 0.0 0.0 0.0 1.0 0.0 </TABLE>
    </DEFINITION>
    <DEFINITION>
      <FOR>stream_count</FOR>
      <TABLE>0.1611938766084427 0.04765299226625918 0.14931270910094538 0.1622470927160729 0.09712133661885203 0.08010241080947375 0.07284100246413902 0.07579094960443127 0.08146392487422402 0.07227370493715973 </TABLE>
    </DEFINITION>
    <DEFINITION>
      <FOR>success</FOR>
      <GIVEN>bitrate</GIVEN>
      <TABLE>0.004761904761904763 0.9952380952380951 0.0 1.0 0.0 1.0 0.8809523809523809 0.11904761904761907 1.0 0.0 0.12030075187969924 0.8796992481203008 1.0 0.0 0.9871794871794872 0.01282051282051282 0.1527777777777778 0.8472222222222222 0.020408163265306117 0.9795918367346939 0.9333333333333333 0.06666666666666667 0.14285714285714285 0.8571428571428571 0.023032069970845483 0.9769679300291545 0.022222222222222227 0.9777777777777777 0.057692307692307696 0.9423076923076923 0.007059800664451827 0.9929401993355481 0.0 1.0 0.06140350877192982 0.9385964912280701 0.015306122448979591 0.9846938775510204 0.01282051282051282 0.9871794871794872 0.0 1.0 0.0 1.0 0.03333333333333333 0.9666666666666667 0.0 1.0 0.028846153846153848 0.9711538461538461 0.0033492822966507177 0.9966507177033492 0.0 1.0 0.0 1.0 0.004662004662004661 0.9953379953379953 </TABLE>
    </DEFINITION>
  </NETWORK>
</BIF>
